svm_type c_svc
kernel_type rbf
gamma 0.00787402
nr_class 2
total_sv 1276
rho 0.900155
label 1 -1
probA -2.45003
probB 2.15217
nr_sv 198 1078
SV
7 2:-31 3:-3 4:-0.276786 5:-0.15 15:1 17:1 67:1 78:1 95:1 107:1 
7 2:-4 3:-2 4:-0.035714 5:-0.1 14:1 42:1 48:1 52:1 60:1 84:1 119:1 
7 2:-8 3:-3 4:-0.071429 5:-0.15 15:1 24:1 42:1 48:1 52:1 60:1 84:1 
0.4995533862043465 2:-7 3:-2 4:-0.0625 5:-0.1 15:1 24:1 42:1 48:1 52:1 60:1 84:1 
7 2:-13 3:-2 4:-0.19697 5:-0.181818 15:1 27:1 73:1 78:1 99:1 
7 2:-7 3:-2 4:-0.212121 5:-0.333333 14:1 15:1 47:1 48:1 60:1 99:1 107:1 
7 1:1 2:-6 3:-1 4:-0.181818 5:-0.166667 15:1 47:1 48:1 60:1 99:1 107:1 
7 2:-5 3:-2 4:-0.080645 5:-0.2 14:1 48:1 52:1 60:1 
0.7643842532361845 1:1 2:-4 3:-1 4:-0.064516 5:-0.1 14:1 42:1 48:1 52:1 60:1 
7 2:-8 3:-3 4:-0.129032 5:-0.3 15:1 42:1 48:1 52:1 60:1 
7 2:-7 3:-2 4:-0.112903 5:-0.2 15:1 42:1 48:1 52:1 60:1 
7 1:1 2:-6 3:-1 4:-0.068182 5:-0.05 15:1 48:1 79:1 92:1 99:1 107:1 127:1 
2.996076762550558 1:1 2:-4 3:-1 4:-0.045455 5:-0.05 48:1 85:1 105:1 109:1 127:1 
3.066428339896252 1:1 2:-7 3:-1 4:-0.079545 5:-0.05 54:1 58:1 60:1 74:1 78:1 92:1 113:1 120:1 127:1 
7 2:-11 3:-2 4:-0.125 5:-0.1 14:1 17:1 48:1 54:1 74:1 78:1 92:1 113:1 120:1 127:1 
7 2:-13 3:-3 4:-0.147727 5:-0.15 17:1 48:1 54:1 58:1 74:1 78:1 92:1 120:1 127:1 
7 0:1 1:1 2:-4 3:-1 4:-0.444444 5:-0.333333 14:1 48:1 58:1 79:1 99:1 107:1 127:1 
3.048705964924999 0:1 2:-6 3:-2 4:-0.666667 5:-0.666667 48:1 58:1 79:1 99:1 107:1 127:1 
1.45153863420988 0:1 1:1 2:-15 3:-1 4:-0.15 5:-0.066667 9:1 15:1 18:1 20:1 41:1 61:1 65:1 92:1 103:1 107:1 109:1 115:1 
1.697137992154667 0:1 2:-24 3:-2 4:-0.24 5:-0.133333 29:1 65:1 78:1 92:1 103:1 104:1 107:1 109:1 127:1 
7 2:-55 3:-8 4:-0.55 5:-0.533333 15:1 17:1 52:1 61:1 78:1 92:1 105:1 109:1 127:1 
0.7367148017356457 0:1 2:-48 3:-4 4:-0.5 5:-0.307692 15:1 25:1 43:1 44:1 64:1 65:1 92:1 95:1 107:1 109:1 120:1 
2.882997188170762 0:1 2:-62 3:-6 4:-0.645833 5:-0.461538 15:1 64:1 65:1 69:1 88:1 92:1 97:1 107:1 109:1 127:1 
6.555934585873814 0:1 2:-77 3:-9 4:-0.802083 5:-0.692308 13:1 15:1 23:1 52:1 61:1 64:1 65:1 92:1 107:1 109:1 127:1 
3.276947569205685 0:1 2:-93 3:-12 4:-0.96875 5:-0.923077 17:1 52:1 64:1 65:1 66:1 78:1 92:1 107:1 109:1 127:1 
2.624254692216902 0:1 2:-45 3:-3 4:-0.542169 5:-0.333333 8:1 15:1 39:1 61:1 65:1 92:1 99:1 107:1 120:1 
0.5661778190888192 0:1 2:-51 3:-4 4:-0.614458 5:-0.444444 15:1 20:1 39:1 65:1 92:1 99:1 107:1 120:1 127:1 
2.606830557596569 1:1 2:-3 3:-1 4:-0.033333 5:-0.083333 58:1 78:1 110:1 114:1 117:1 127:1 
7 2:-6 3:-2 4:-0.066667 5:-0.166667 20:1 58:1 78:1 110:1 114:1 127:1 
4.044212191291783 2:4 3:1 4:0.125 5:0.2 15:1 52:1 55:1 62:1 92:1 116:1 120:1 127:1 
7 2:-6 3:-2 4:-0.1875 5:-0.4 15:1 52:1 55:1 62:1 78:1 116:1 127:1 
7 0:1 2:-37 3:-6 4:-0.755102 5:-0.857143 7:1 15:1 17:1 27:1 109:1 
2.067004760050491 0:1 2:-42 3:-3 4:-0.857143 5:-0.6 15:1 32:1 74:1 92:1 103:1 127:1 
0.5254791599640687 0:1 2:-26 3:-2 4:-0.509804 5:-0.4 11:1 15:1 32:1 47:1 61:1 92:1 103:1 109:1 121:1 122:1 127:1 
3.069526775782598 0:1 2:-80 3:-9 4:-0.941176 5:-0.9 15:1 39:1 52:1 55:1 64:1 65:1 78:1 92:1 107:1 109:1 127:1 
5.315536545743227 2:3 3:1 4:0.088235 5:0.125 8:1 15:1 36:1 55:1 58:1 61:1 83:1 99:1 116:1 127:1 
3.620540086027806 0:1 2:-42 3:-4 4:-0.954545 5:-0.8 15:1 78:1 92:1 94:1 95:1 107:1 
1.702955656013571 0:1 2:-18 3:-4 4:-0.72 5:-0.666667 14:1 15:1 48:1 58:1 79:1 99:1 107:1 127:1 
5.789629390109805 0:1 2:-21 3:-5 4:-0.84 5:-0.833333 12:1 15:1 42:1 48:1 99:1 107:1 127:1 
0.6932165486258817 0:1 2:-55 3:-4 4:-0.964912 5:-0.8 8:1 32:1 48:1 61:1 92:1 107:1 
1.508746063347858 0:1 1:1 2:-14 3:-1 4:-0.135922 5:-0.090909 9:1 15:1 18:1 20:1 41:1 61:1 64:1 65:1 92:1 107:1 109:1 115:1 
0.7776990515620652 0:1 2:-34 3:-3 4:-0.330097 5:-0.272727 15:1 25:1 39:1 43:1 44:1 64:1 65:1 92:1 95:1 107:1 109:1 120:1 
2.226377566113962 0:1 2:-101 3:-10 4:-0.980583 5:-0.909091 15:1 55:1 64:1 65:1 78:1 82:1 92:1 107:1 109:1 
3.351986968877453 0:1 2:-24 3:-3 4:-0.470588 5:-0.272727 15:1 92:1 107:1 118:1 120:1 127:1 
2.224721810755845 2:3 3:1 4:0.058824 5:0.090909 15:1 48:1 55:1 85:1 89:1 105:1 107:1 118:1 127:1 
7 0:1 2:-39 3:-7 4:-0.764706 5:-0.636364 15:1 52:1 55:1 92:1 107:1 109:1 127:1 
7 1:1 2:-3 3:-1 4:-0.058824 5:-0.090909 17:1 52:1 58:1 109:1 125:1 127:1 
7 2:3 3:1 4:0.058824 5:0.090909 17:1 48:1 55:1 58:1 127:1 
7 1:1 2:-2 3:-1 4:-0.068966 5:-0.166667 15:1 27:1 48:1 95:1 126:1 
0.2816517884654022 2:3 3:1 4:0.038961 5:0.076923 15:1 40:1 42:1 48:1 53:1 55:1 92:1 127:1 
7 2:-14 3:-2 4:-0.181818 5:-0.153846 36:1 40:1 47:1 48:1 55:1 60:1 107:1 127:1 
2.033792226963693 1:1 2:-5 3:-1 4:-0.064935 5:-0.076923 15:1 48:1 55:1 62:1 93:1 127:1 
7 1:1 2:-14 3:-1 4:-0.181818 5:-0.076923 15:1 48:1 55:1 60:1 62:1 107:1 127:1 
7 0:1 2:-12 3:-3 4:-0.125 5:-0.176471 15:1 24:1 52:1 55:1 83:1 118:1 127:1 
7 0:1 2:-35 3:-5 4:-0.364583 5:-0.294118 15:1 48:1 52:1 55:1 74:1 83:1 127:1 
3.604872887697512 2:3 3:1 4:0.03125 5:0.058824 17:1 24:1 55:1 98:1 127:1 
7 2:-7 3:-2 4:-0.072917 5:-0.117647 17:1 48:1 55:1 109:1 120:1 127:1 
7 2:-33 3:-6 4:-0.34375 5:-0.352941 17:1 48:1 55:1 92:1 107:1 109:1 127:1 
7 2:3 3:1 4:0.053571 5:0.071429 15:1 34:1 55:1 114:1 127:1 
7 2:-12 3:-3 4:-0.214286 5:-0.214286 15:1 55:1 114:1 120:1 127:1 
7 2:-24 3:-6 4:-0.428571 5:-0.428571 15:1 48:1 52:1 55:1 61:1 
7 2:-30 3:-7 4:-0.535714 5:-0.5 15:1 48:1 52:1 55:1 61:1 
7 1:1 2:-6 3:-1 4:-0.222222 5:-0.166667 68:1 70:1 76:1 78:1 92:1 99:1 
6.879915704981132 2:2 3:1 4:0.054054 5:0.25 15:1 49:1 55:1 74:1 92:1 123:1 
2.035850048212265 0:1 2:-19 3:-4 4:-0.633333 5:-0.571429 54:1 92:1 120:1 127:1 
7 0:1 2:-24 3:-5 4:-0.8 5:-0.714286 48:1 54:1 92:1 99:1 120:1 127:1 
1.067995918359321 0:1 2:-51 3:-5 4:-0.944444 5:-0.833333 43:1 48:1 52:1 64:1 65:1 82:1 92:1 107:1 109:1 120:1 
5.385614908388764 0:1 2:-31 3:-5 4:-0.382716 5:-0.454545 15:1 18:1 65:1 92:1 99:1 
4.538210295688112 0:1 2:-64 3:-8 4:-0.790123 5:-0.727273 15:1 55:1 65:1 92:1 99:1 114:1 123:1 
7 0:1 2:-66 3:-9 4:-0.814815 5:-0.818182 15:1 55:1 65:1 69:1 92:1 98:1 114:1 
7 0:1 1:1 2:-5 3:-1 4:-0.138889 5:-0.5 15:1 32:1 92:1 120:1 
1.407897864859745 0:1 2:-26 3:-4 4:-0.52 5:-0.571429 15:1 52:1 55:1 99:1 108:1 109:1 120:1 
0.8541696088699868 0:1 2:-46 3:-4 4:-0.958333 5:-0.8 32:1 61:1 78:1 92:1 103:1 126:1 
7 2:-17 3:-2 4:-0.485714 5:-0.333333 17:1 51:1 60:1 66:1 96:1 99:1 113:1 
7 2:-31 3:-4 4:-0.885714 5:-0.666667 17:1 60:1 78:1 96:1 127:1 
7 2:3 3:1 4:0.157895 5:0.25 7:1 11:1 15:1 17:1 35:1 48:1 98:1 107:1 112:1 113:1 120:1 
7 0:1 2:-17 3:-3 4:-0.653846 5:-0.6 15:1 31:1 52:1 92:1 99:1 
1.602205043501656 0:1 2:-24 3:-4 4:-0.923077 5:-0.8 15:1 48:1 52:1 92:1 99:1 107:1 127:1 
7 0:1 2:-32 3:-3 4:-0.52459 5:-0.333333 15:1 48:1 55:1 85:1 89:1 92:1 99:1 127:1 
7 1:1 2:-9 3:-1 4:-0.147541 5:-0.111111 15:1 22:1 79:1 85:1 92:1 96:1 99:1 127:1 
7 2:-17 3:-2 4:-0.278689 5:-0.222222 14:1 15:1 48:1 79:1 85:1 92:1 99:1 107:1 120:1 127:1 
7 2:-20 3:-3 4:-0.327869 5:-0.333333 15:1 48:1 79:1 85:1 92:1 99:1 107:1 127:1 
7 2:-12 3:-3 4:-0.324324 5:-0.375 15:1 55:1 114:1 120:1 127:1 
4 0:1 2:-23 3:-4 4:-0.92 5:-0.8 7:1 15:1 49:1 51:1 78:1 92:1 107:1 
2.99236461429827 0:1 2:-22 3:-2 4:-0.209524 5:-0.142857 6:1 15:1 32:1 49:1 58:1 59:1 78:1 92:1 107:1 127:1 
7 1:1 2:-6 3:-1 4:-0.057143 5:-0.071429 15:1 21:1 61:1 67:1 92:1 100:1 107:1 127:1 
7 2:-11 3:-2 4:-0.104762 5:-0.142857 15:1 21:1 32:1 61:1 67:1 92:1 100:1 107:1 127:1 
7 2:-22 3:-3 4:-0.209524 5:-0.214286 15:1 61:1 67:1 91:1 92:1 107:1 127:1 
7 2:-33 3:-4 4:-0.314286 5:-0.285714 32:1 61:1 67:1 78:1 92:1 99:1 107:1 127:1 
0.7719665431632351 0:1 2:-25 3:-2 4:-0.268817 5:-0.181818 15:1 59:1 61:1 92:1 99:1 107:1 109:1 120:1 
7 0:1 2:-44 3:-5 4:-0.473118 5:-0.454545 15:1 32:1 38:1 90:1 92:1 107:1 109:1 
7 0:1 2:-85 3:-10 4:-0.913978 5:-0.909091 15:1 38:1 55:1 78:1 92:1 107:1 109:1 
4.946059650209889 0:1 2:-10 3:-2 4:-0.212766 5:-0.333333 15:1 35:1 49:1 51:1 55:1 61:1 94:1 121:1 127:1 
6.129972279204091 0:1 2:-25 3:-4 4:-0.531915 5:-0.666667 15:1 17:1 35:1 38:1 55:1 87:1 97:1 107:1 121:1 127:1 
7 1:1 2:-9 3:-1 4:-0.191489 5:-0.166667 7:1 15:1 17:1 38:1 83:1 87:1 92:1 94:1 97:1 
7 2:-13 3:-3 4:-0.65 5:-0.6 15:1 48:1 55:1 62:1 109:1 116:1 127:1 
7 2:-8 3:-2 4:-0.333333 5:-0.333333 15:1 17:1 48:1 78:1 91:1 109:1 127:1 
7 2:-20 3:-3 4:-0.740741 5:-0.5 7:1 15:1 49:1 51:1 78:1 92:1 107:1 126:1 
1.512686859309448 1:1 2:-3 3:-1 4:-0.111111 5:-0.166667 7:1 15:1 78:1 92:1 126:1 
2.85009865892973 2:3 3:1 4:0.1875 5:0.25 15:1 55:1 56:1 107:1 127:1 
2.338126579823892 2:3 3:1 4:0.06 5:0.083333 48:1 55:1 74:1 85:1 107:1 118:1 125:1 127:1 
2.836671105641072 1:1 2:-3 3:-1 4:-0.06 5:-0.083333 48:1 55:1 58:1 74:1 85:1 118:1 125:1 127:1 
7 2:3 3:1 4:0.06 5:0.083333 15:1 55:1 58:1 74:1 125:1 127:1 
7 2:-13 3:-3 4:-0.317073 5:-0.333333 15:1 52:1 55:1 85:1 118:1 127:1 
6.526991223838977 2:3 3:1 4:0.176471 5:0.2 15:1 55:1 89:1 99:1 122:1 125:1 127:1 
7 1:1 2:-4 3:-1 4:-0.181818 5:-0.333333 11:1 15:1 36:1 55:1 61:1 63:1 127:1 
7 2:3 3:1 4:0.230769 5:0.333333 15:1 48:1 52:1 90:1 127:1 
2.018387182521378 0:1 2:-20 3:-2 4:-0.333333 5:-0.285714 15:1 82:1 92:1 120:1 127:1 
2.317230896121723 0:1 2:-29 3:-3 4:-0.483333 5:-0.428571 10:1 15:1 60:1 61:1 74:1 92:1 96:1 122:1 127:1 
4.169318548913424 0:1 2:-58 3:-6 4:-0.966667 5:-0.857143 15:1 78:1 92:1 127:1 
7 2:3 3:1 4:0.085714 5:0.125 15:1 51:1 52:1 92:1 127:1 
7 2:-13 3:-2 4:-0.371429 5:-0.25 15:1 47:1 48:1 92:1 127:1 
7 2:-24 3:-4 4:-0.533333 5:-0.5 15:1 52:1 54:1 70:1 89:1 113:1 127:1 
0.2118304544286789 2:3 3:1 4:0.111111 5:0.2 15:1 31:1 34:1 35:1 37:1 52:1 92:1 120:1 127:1 
1.475895867515844 0:1 2:-24 3:-4 4:-0.888889 5:-0.8 15:1 48:1 52:1 77:1 92:1 127:1 
1.322723869819177 0:1 1:1 2:-6 3:-1 4:-0.315789 5:-0.5 12:1 15:1 92:1 120:1 
7 2:3 3:1 4:0.166667 5:0.25 15:1 49:1 55:1 94:1 120:1 
7 1:1 2:-4 3:-1 4:-0.052632 5:-0.166667 31:1 61:1 106:1 107:1 120:1 127:1 
7 1:1 2:3 3:1 4:0.125 5:0.2 15:1 51:1 95:1 98:1 127:1 
7 0:1 2:-15 3:-3 4:-0.625 5:-0.6 15:1 39:1 51:1 55:1 92:1 109:1 120:1 127:1 
7 0:1 1:1 2:-5 3:-1 4:-0.138889 5:-0.166667 15:1 45:1 61:1 109:1 124:1 
3.093703458012311 0:1 2:-18 3:-3 4:-0.6 5:-0.428571 17:1 45:1 61:1 74:1 80:1 96:1 99:1 109:1 
5.625009897693617 0:1 2:-20 3:-4 4:-0.666667 5:-0.571429 15:1 17:1 45:1 61:1 74:1 96:1 99:1 109:1 
7 2:-19 3:-3 4:-0.678571 5:-0.6 11:1 15:1 28:1 36:1 47:1 48:1 55:1 60:1 78:1 109:1 116:1 127:1 
7 1:1 2:-4 3:-1 4:-0.105263 5:-0.125 15:1 48:1 63:1 85:1 98:1 105:1 109:1 127:1 
7 2:-7 3:-2 4:-0.184211 5:-0.25 7:1 15:1 48:1 85:1 105:1 109:1 127:1 
7 1:1 2:-3 3:-1 4:-0.075 5:-0.2 10:1 15:1 22:1 37:1 71:1 92:1 96:1 98:1 104:1 122:1 
7 1:1 2:-5 3:-1 4:-0.357143 5:-0.333333 15:1 61:1 78:1 82:1 92:1 101:1 
7 1:1 2:-8 3:-1 4:-0.266667 5:-0.166667 10:1 15:1 21:1 78:1 92:1 99:1 114:1 127:1 
3.930174910912114 2:3 3:1 4:0.1 5:0.166667 10:1 15:1 35:1 52:1 96:1 98:1 104:1 114:1 127:1 
7 2:-16 3:-3 4:-0.533333 5:-0.5 15:1 21:1 52:1 78:1 92:1 96:1 98:1 99:1 127:1 
0.09337505539439783 2:-8 3:-2 4:-0.533333 5:-0.5 28:1 36:1 47:1 48:1 55:1 78:1 92:1 116:1 120:1 127:1 
3.86988067679372 0:1 2:-12 3:-3 4:-0.363636 5:-0.428571 34:1 36:1 48:1 52:1 55:1 98:1 109:1 127:1 
7 2:-11 3:-2 4:-0.333333 5:-0.285714 7:1 11:1 15:1 34:1 36:1 52:1 55:1 99:1 105:1 109:1 127:1 
4.289859714619428 0:1 2:-8 3:-2 4:-0.228571 5:-0.25 11:1 15:1 44:1 54:1 92:1 120:1 127:1 
7 1:1 2:-5 3:-1 4:-0.142857 5:-0.125 11:1 15:1 33:1 44:1 48:1 55:1 92:1 120:1 127:1 
0.6283527164316956 0:1 2:-22 3:-4 4:-0.666667 5:-0.571429 14:1 15:1 22:1 79:1 92:1 99:1 107:1 127:1 
7 0:1 2:-24 3:-5 4:-0.727273 5:-0.714286 15:1 22:1 58:1 79:1 92:1 99:1 107:1 109:1 127:1 
7 0:1 2:-33 3:-6 4:-0.634615 5:-0.6 15:1 55:1 86:1 92:1 107:1 120:1 127:1 
7 0:1 2:-47 3:-9 4:-0.903846 5:-0.9 15:1 55:1 78:1 92:1 107:1 120:1 127:1 
7 2:3 3:1 4:0.115385 5:0.2 15:1 55:1 85:1 96:1 99:1 127:1 
2.650227183687542 0:1 2:-26 3:-3 4:-0.276596 5:-0.25 15:1 64:1 65:1 82:1 92:1 96:1 105:1 107:1 109:1 114:1 127:1 
5.859137960184224 0:1 2:-32 3:-4 4:-0.340426 5:-0.333333 15:1 64:1 65:1 82:1 92:1 107:1 109:1 114:1 127:1 
3.573928305229237 1:1 2:-2 3:-1 4:-0.021277 5:-0.083333 15:1 78:1 98:1 110:1 127:1 
7 2:-17 3:-2 4:-0.180851 5:-0.166667 10:1 15:1 78:1 109:1 110:1 127:1 
7 0:1 2:-11 3:-2 4:-0.186441 5:-0.222222 15:1 57:1 61:1 92:1 101:1 107:1 
6.537880751928767 0:1 2:-49 3:-7 4:-0.830508 5:-0.777778 15:1 39:1 55:1 57:1 66:1 78:1 92:1 98:1 101:1 107:1 114:1 127:1 
7 0:1 2:-51 3:-8 4:-0.864407 5:-0.888889 15:1 39:1 55:1 57:1 71:1 78:1 92:1 98:1 107:1 114:1 127:1 
6.254220862539013 1:1 2:-14 3:-1 4:-0.189189 5:-0.083333 15:1 27:1 39:1 48:1 56:1 78:1 80:1 95:1 
7 1:1 2:-5 3:-1 4:-0.067568 5:-0.083333 15:1 27:1 78:1 95:1 
7 2:-10 3:-2 4:-0.135135 5:-0.166667 15:1 27:1 78:1 81:1 95:1 
7 2:-25 3:-4 4:-0.337838 5:-0.333333 15:1 27:1 45:1 61:1 78:1 81:1 93:1 95:1 
6.848065330611518 0:1 2:-20 3:-5 4:-0.487805 5:-0.5 11:1 22:1 48:1 52:1 63:1 89:1 98:1 127:1 
7 0:1 2:-23 3:-6 4:-0.560976 5:-0.6 11:1 34:1 48:1 52:1 55:1 89:1 125:1 127:1 
7 2:3 3:1 4:0.073171 5:0.1 15:1 34:1 52:1 54:1 55:1 63:1 98:1 113:1 120:1 
7 2:-10 3:-3 4:-0.243902 5:-0.3 11:1 15:1 22:1 34:1 52:1 55:1 63:1 98:1 113:1 120:1 127:1 
5.181942344585679 2:3 3:1 4:0.136364 5:0.2 15:1 35:1 98:1 104:1 110:1 127:1 
0.2315983026148203 0:1 2:-17 3:-4 4:-0.772727 5:-0.8 10:1 15:1 71:1 78:1 98:1 110:1 127:1 
1.466674962708705 1:1 2:2 3:1 4:0.2 5:0.333333 55:1 93:1 122:1 
6.654762294416406 1:1 2:-12 3:-1 4:-0.363636 5:-0.166667 15:1 61:1 77:1 78:1 84:1 92:1 101:1 109:1 119:1 
3.413321473902612 0:1 2:-41 3:-3 4:-0.482353 5:-0.3 10:1 11:1 15:1 51:1 52:1 60:1 61:1 109:1 117:1 127:1 
6.410526127067932 0:1 2:-54 3:-5 4:-0.635294 5:-0.5 15:1 52:1 61:1 99:1 109:1 127:1 
4.328784465071754 0:1 2:-71 3:-7 4:-0.835294 5:-0.7 15:1 52:1 61:1 99:1 109:1 120:1 
0.6402751149256414 0:1 1:1 2:-28 3:-1 4:-0.474576 5:-0.125 15:1 74:1 88:1 92:1 107:1 109:1 111:1 
7 0:1 2:-44 3:-6 4:-0.745763 5:-0.75 15:1 17:1 52:1 82:1 92:1 96:1 98:1 107:1 109:1 
5.420183261133539 0:1 2:-53 3:-7 4:-0.898305 5:-0.875 10:1 13:1 15:1 17:1 52:1 71:1 78:1 82:1 92:1 107:1 109:1 
2.0427785163285 0:1 2:-16 3:-3 4:-0.470588 5:-0.5 47:1 55:1 94:1 106:1 107:1 118:1 120:1 127:1 
7 0:1 2:-19 3:-4 4:-0.558824 5:-0.666667 15:1 55:1 85:1 94:1 105:1 106:1 107:1 127:1 
7 2:11 3:3 4:0.578947 5:0.6 28:1 48:1 52:1 55:1 76:1 99:1 116:1 120:1 127:1 
7 2:5 3:1 4:0.263158 5:0.2 48:1 52:1 55:1 76:1 120:1 127:1 
7 1:1 2:-3 3:-1 4:-0.166667 5:-0.166667 15:1 33:1 86:1 89:1 99:1 107:1 118:1 127:1 
1.98072759777975 2:3 3:1 4:0.081081 5:0.125 15:1 34:1 55:1 114:1 127:1 
7 2:-12 3:-3 4:-0.324324 5:-0.375 15:1 55:1 114:1 120:1 127:1 
7 2:3 3:1 4:0.078947 5:0.166667 15:1 31:1 34:1 35:1 37:1 52:1 92:1 120:1 127:1 
7 2:-12 3:-2 4:-0.315789 5:-0.333333 15:1 17:1 31:1 48:1 52:1 77:1 92:1 127:1 
7 2:-24 3:-4 4:-0.631579 5:-0.666667 15:1 17:1 48:1 52:1 77:1 92:1 127:1 
7 2:-24 3:-3 4:-0.282353 5:-0.428571 10:1 15:1 23:1 39:1 52:1 72:1 78:1 120:1 127:1 
6.604261696700064 0:1 2:-26 3:-4 4:-0.52 5:-0.571429 15:1 52:1 55:1 99:1 108:1 109:1 120:1 
4.786406629653836 0:1 2:-32 3:-5 4:-0.653061 5:-0.714286 15:1 17:1 21:1 92:1 
7 0:1 2:-41 3:-6 4:-0.836735 5:-0.857143 15:1 17:1 45:1 60:1 61:1 92:1 
7 0:1 2:-11 3:-3 4:-0.478261 5:-0.6 15:1 55:1 92:1 94:1 109:1 120:1 127:1 
7 2:-11 3:-2 4:-0.366667 5:-0.4 15:1 48:1 58:1 115:1 127:1 
7 0:1 2:-16 3:-4 4:-0.727273 5:-0.666667 15:1 52:1 84:1 92:1 99:1 120:1 
0.6433179796067152 1:1 2:-3 3:-1 4:-0.055556 5:-0.111111 48:1 55:1 65:1 77:1 92:1 
7 2:4 3:1 4:0.074074 5:0.111111 52:1 55:1 78:1 127:1 
2.447821256518605 0:1 2:-23 3:-2 4:-0.291139 5:-0.25 9:1 15:1 29:1 60:1 64:1 65:1 82:1 92:1 107:1 109:1 
0.1251161670867685 0:1 2:-72 3:-7 4:-0.911392 5:-0.875 15:1 52:1 64:1 65:1 78:1 92:1 96:1 99:1 107:1 109:1 124:1 
7 1:1 2:-3 3:-1 4:-0.15 5:-0.166667 15:1 48:1 104:1 
7 1:1 2:-2 3:-1 4:-0.105263 5:-0.166667 15:1 48:1 82:1 104:1 
3.202003878213211 2:3 3:1 4:0.157895 5:0.25 15:1 17:1 33:1 48:1 55:1 127:1 
7 2:-9 3:-3 4:-0.176471 5:-0.272727 15:1 22:1 48:1 55:1 79:1 89:1 99:1 114:1 127:1 
2.221961606652228 2:3 3:1 4:0.058824 5:0.090909 15:1 48:1 55:1 99:1 116:1 127:1 
7 1:1 2:-6 3:-1 4:-0.285714 5:-0.25 22:1 48:1 59:1 77:1 80:1 92:1 99:1 107:1 120:1 127:1 
4.533010531270771 2:4 3:1 4:0.129032 5:0.142857 52:1 55:1 78:1 127:1 
6.598092792081466 1:1 2:-5 3:-1 4:-0.2 5:-0.2 7:1 15:1 38:1 78:1 92:1 107:1 
5.404749782744372 0:1 2:-8 3:-2 4:-0.571429 5:-0.666667 7:1 12:1 15:1 17:1 61:1 78:1 99:1 
7 1:1 2:-7 3:-1 4:-0.5 5:-0.333333 7:1 12:1 15:1 17:1 61:1 78:1 99:1 
7 1:1 2:-18 3:-1 4:-0.5625 5:-0.2 15:1 28:1 48:1 92:1 109:1 
-0.03994300719483456 2:44 3:10 4:0.392857 5:0.5 15:1 17:1 67:1 77:1 78:1 84:1 92:1 109:1 119:1 
-0.02672412881271868 2:64 3:12 4:0.571429 5:0.6 15:1 17:1 43:1 77:1 84:1 92:1 107:1 109:1 119:1 
-0.03047446576220587 2:76 3:13 4:0.678571 5:0.65 15:1 17:1 77:1 84:1 92:1 95:1 107:1 109:1 119:1 
-0.004910316410081702 2:84 3:16 4:0.75 5:0.8 15:1 42:1 48:1 52:1 60:1 77:1 84:1 92:1 107:1 109:1 119:1 
-0.07697143719309302 2:93 3:18 4:0.830357 5:0.9 15:1 24:1 42:1 48:1 52:1 60:1 77:1 84:1 92:1 107:1 109:1 119:1 
-1 0:1 2:-89 3:-14 4:-0.794643 5:-0.7 15:1 17:1 92:1 95:1 107:1 109:1 
-0.3221860071926923 2:-66 3:-11 4:-0.589286 5:-0.55 15:1 17:1 82:1 92:1 95:1 99:1 106:1 107:1 
-0.906763740489795 2:-60 3:-9 4:-0.535714 5:-0.45 15:1 17:1 48:1 51:1 59:1 95:1 106:1 107:1 120:1 
-1 2:-55 3:-8 4:-0.491071 5:-0.4 15:1 17:1 51:1 59:1 77:1 78:1 95:1 107:1 120:1 
-1 2:-50 3:-7 4:-0.446429 5:-0.35 15:1 17:1 65:1 77:1 78:1 95:1 107:1 
-1 2:-45 3:-6 4:-0.401786 5:-0.3 15:1 17:1 45:1 65:1 77:1 78:1 95:1 107:1 
-1 2:-39 3:-5 4:-0.348214 5:-0.25 15:1 17:1 24:1 45:1 78:1 95:1 107:1 
-1 2:-34 3:-4 4:-0.303571 5:-0.2 15:1 17:1 24:1 67:1 78:1 95:1 107:1 119:1 
-1 2:-14 3:-2 4:-0.125 5:-0.1 15:1 17:1 95:1 107:1 
-1 1:1 2:-12 3:-1 4:-0.107143 5:-0.05 15:1 17:1 43:1 95:1 107:1 
-0.8555203939013071 0:1 2:-102 3:-18 4:-0.910714 5:-0.9 14:1 15:1 48:1 52:1 60:1 84:1 92:1 107:1 109:1 119:1 
-0.08865572870796457 2:-58 3:-10 4:-0.517857 5:-0.5 14:1 15:1 45:1 48:1 52:1 60:1 65:1 77:1 78:1 84:1 107:1 119:1 
-1 2:-44 3:-7 4:-0.392857 5:-0.35 14:1 15:1 17:1 48:1 52:1 60:1 67:1 78:1 84:1 107:1 119:1 
-1 2:-27 3:-6 4:-0.241071 5:-0.3 14:1 15:1 17:1 48:1 52:1 60:1 84:1 107:1 119:1 
-1 2:-25 3:-5 4:-0.223214 5:-0.25 14:1 15:1 17:1 43:1 48:1 52:1 60:1 84:1 107:1 119:1 
-1 2:-13 3:-4 4:-0.116071 5:-0.2 14:1 15:1 17:1 48:1 52:1 60:1 84:1 95:1 107:1 119:1 
-1 2:-7 3:-3 4:-0.0625 5:-0.15 14:1 48:1 52:1 60:1 84:1 95:1 119:1 
-1 2:4 3:1 4:0.035714 5:0.05 14:1 15:1 24:1 42:1 48:1 60:1 84:1 119:1 
-0.1656309901575245 2:-17 3:-5 4:-0.151786 5:-0.25 15:1 17:1 24:1 42:1 48:1 52:1 60:1 95:1 107:1 
-1 2:-11 3:-4 4:-0.098214 5:-0.2 15:1 24:1 42:1 48:1 52:1 60:1 95:1 119:1 
-1 1:1 2:-4 3:-1 4:-0.035714 5:-0.05 14:1 15:1 24:1 42:1 48:1 60:1 84:1 119:1 
-1 2:2 3:1 4:0.058824 5:0.333333 14:1 15:1 17:1 60:1 97:1 107:1 115:1 127:1 
-1 0:1 2:-53 3:-7 4:-0.80303 5:-0.636364 15:1 99:1 
-1 2:-51 3:-6 4:-0.772727 5:-0.545455 15:1 99:1 101:1 
-1 2:-43 3:-5 4:-0.651515 5:-0.454545 15:1 17:1 48:1 99:1 101:1 
-1 2:-36 3:-4 4:-0.545455 5:-0.363636 15:1 48:1 78:1 99:1 
-1 2:-32 3:-3 4:-0.484848 5:-0.272727 15:1 27:1 48:1 56:1 99:1 
-1 1:1 2:-3 3:-1 4:-0.045455 5:-0.090909 14:1 15:1 27:1 95:1 99:1 
-1 2:2 3:1 4:0.030303 5:0.090909 14:1 15:1 99:1 
-1 0:1 2:-25 3:-5 4:-0.757576 5:-0.833333 15:1 48:1 60:1 72:1 107:1 109:1 
-1 2:-22 3:-4 4:-0.666667 5:-0.666667 15:1 48:1 60:1 72:1 82:1 107:1 109:1 
-1 2:-10 3:-3 4:-0.30303 5:-0.5 14:1 15:1 47:1 48:1 60:1 99:1 107:1 
-1 1:1 2:-9 3:-1 4:-0.346154 5:-0.25 15:1 24:1 67:1 69:1 92:1 99:1 113:1 120:1 
-1 2:-14 3:-2 4:-0.225806 5:-0.2 15:1 17:1 95:1 107:1 
-1 1:1 2:-12 3:-1 4:-0.193548 5:-0.1 15:1 17:1 43:1 95:1 107:1 
-1 0:1 2:-46 3:-7 4:-0.741935 5:-0.7 14:1 15:1 48:1 52:1 60:1 67:1 107:1 
-1 2:-28 3:-6 4:-0.451613 5:-0.6 14:1 15:1 17:1 48:1 52:1 60:1 107:1 
-1 2:-26 3:-5 4:-0.419355 5:-0.5 14:1 15:1 17:1 43:1 48:1 52:1 60:1 107:1 
-1 2:-14 3:-4 4:-0.225806 5:-0.4 14:1 15:1 17:1 48:1 52:1 60:1 95:1 107:1 
-1 2:-8 3:-3 4:-0.129032 5:-0.3 14:1 48:1 52:1 60:1 95:1 119:1 
-1 2:3 3:1 4:0.048387 5:0.1 14:1 15:1 42:1 48:1 60:1 
-1 0:1 2:-49 3:-8 4:-0.790323 5:-0.8 15:1 42:1 48:1 52:1 67:1 107:1 
-1 2:-31 3:-7 4:-0.5 5:-0.7 15:1 17:1 42:1 48:1 52:1 107:1 
-1 2:-29 3:-6 4:-0.467742 5:-0.6 15:1 17:1 42:1 43:1 48:1 52:1 107:1 
-1 2:-11 3:-4 4:-0.177419 5:-0.4 15:1 42:1 48:1 52:1 95:1 119:1 
-1 1:1 2:-3 3:-1 4:-0.048387 5:-0.1 14:1 15:1 42:1 48:1 60:1 
-1 2:5 3:1 4:0.080645 5:0.1 15:1 42:1 47:1 48:1 84:1 
-1 0:1 2:-42 3:-10 4:-0.477273 5:-0.5 15:1 55:1 79:1 92:1 99:1 107:1 127:1 
-0.9551399696333642 2:-23 3:-6 4:-0.261364 5:-0.3 15:1 33:1 48:1 79:1 92:1 99:1 107:1 127:1 
-1 2:-21 3:-5 4:-0.238636 5:-0.25 15:1 48:1 79:1 92:1 99:1 107:1 127:1 
-1 2:-19 3:-4 4:-0.215909 5:-0.2 15:1 33:1 79:1 92:1 99:1 107:1 127:1 
-1 2:-17 3:-3 4:-0.193182 5:-0.15 15:1 33:1 79:1 83:1 92:1 99:1 107:1 116:1 127:1 
-1 2:-14 3:-2 4:-0.159091 5:-0.1 8:1 15:1 61:1 79:1 83:1 92:1 99:1 107:1 127:1 
-1 2:-30 3:-6 4:-0.340909 5:-0.3 15:1 33:1 48:1 83:1 85:1 92:1 99:1 107:1 109:1 116:1 127:1 
-1 2:-27 3:-5 4:-0.306818 5:-0.25 8:1 15:1 48:1 61:1 83:1 85:1 92:1 99:1 107:1 109:1 127:1 
-1 2:-19 3:-4 4:-0.215909 5:-0.2 48:1 85:1 92:1 99:1 107:1 109:1 127:1 
-1 2:-13 3:-3 4:-0.147727 5:-0.15 15:1 48:1 79:1 85:1 92:1 99:1 107:1 109:1 127:1 
-1 2:-7 3:-2 4:-0.079545 5:-0.1 48:1 85:1 92:1 109:1 127:1 
-1 2:3 3:1 4:0.034091 5:0.05 15:1 48:1 85:1 105:1 109:1 120:1 127:1 
-0.1596521772903086 2:-38 3:-7 4:-0.431818 5:-0.35 15:1 54:1 58:1 60:1 74:1 79:1 92:1 99:1 107:1 109:1 113:1 
-0.9341446864961973 2:-29 3:-5 4:-0.329545 5:-0.25 48:1 54:1 58:1 60:1 74:1 92:1 105:1 109:1 113:1 127:1 
-1 2:-25 3:-4 4:-0.284091 5:-0.2 48:1 54:1 58:1 60:1 74:1 85:1 92:1 109:1 113:1 127:1 
-1 2:-22 3:-3 4:-0.25 5:-0.15 15:1 48:1 54:1 58:1 60:1 74:1 92:1 105:1 113:1 120:1 127:1 
-1 2:-13 3:-2 4:-0.147727 5:-0.1 54:1 58:1 60:1 74:1 78:1 92:1 93:1 99:1 113:1 127:1 
-0.3414317378123436 2:4 3:1 4:0.045455 5:0.05 14:1 17:1 48:1 54:1 58:1 60:1 74:1 113:1 
-0.1349162838630116 2:-33 3:-6 4:-0.375 5:-0.3 14:1 17:1 48:1 74:1 92:1 105:1 109:1 113:1 127:1 
-1 2:-29 3:-5 4:-0.329545 5:-0.25 14:1 17:1 48:1 74:1 85:1 92:1 109:1 113:1 127:1 
-1 2:-26 3:-4 4:-0.295455 5:-0.2 14:1 15:1 17:1 48:1 74:1 92:1 105:1 113:1 120:1 127:1 
-1 2:-17 3:-3 4:-0.193182 5:-0.15 14:1 17:1 48:1 74:1 78:1 92:1 93:1 99:1 113:1 127:1 
-1 1:1 2:-4 3:-1 4:-0.045455 5:-0.05 14:1 17:1 48:1 54:1 58:1 60:1 74:1 113:1 
-1 2:2 3:1 4:0.022727 5:0.05 14:1 17:1 48:1 58:1 74:1 113:1 
-1 2:-31 3:-6 4:-0.352273 5:-0.3 17:1 48:1 58:1 74:1 85:1 92:1 109:1 127:1 
-1 2:-28 3:-5 4:-0.318182 5:-0.25 15:1 17:1 48:1 58:1 74:1 92:1 105:1 120:1 127:1 
-1 2:-19 3:-4 4:-0.215909 5:-0.2 17:1 48:1 58:1 74:1 78:1 92:1 93:1 99:1 127:1 
-1 2:-6 3:-2 4:-0.068182 5:-0.1 17:1 48:1 54:1 58:1 60:1 74:1 113:1 
-1 1:1 2:-2 3:-1 4:-0.022727 5:-0.05 14:1 17:1 48:1 58:1 74:1 113:1 
-1 2:2 3:1 4:0.222222 5:0.333333 14:1 48:1 58:1 79:1 99:1 107:1 
-1 1:1 2:-2 3:-1 4:-0.222222 5:-0.333333 14:1 48:1 58:1 79:1 99:1 107:1 
-1 2:-5 3:-2 4:-0.1 5:-0.5 6:1 15:1 73:1 92:1 99:1 
-1 1:1 2:-4 3:-1 4:-0.08 5:-0.25 6:1 15:1 53:1 73:1 92:1 99:1 
-1 1:1 2:-9 3:-1 4:-0.09 5:-0.066667 9:1 15:1 18:1 20:1 29:1 41:1 61:1 78:1 92:1 104:1 109:1 115:1 127:1 
-1 2:2 3:1 4:0.02 5:0.066667 15:1 29:1 78:1 104:1 105:1 109:1 127:1 
-0.01032178478547209 2:72 3:12 4:0.72 5:0.8 29:1 52:1 61:1 78:1 92:1 104:1 109:1 127:1 
-1 2:-11 3:-2 4:-0.11 5:-0.133333 9:1 15:1 18:1 20:1 41:1 61:1 78:1 92:1 105:1 109:1 115:1 127:1 
-1 1:1 2:-2 3:-1 4:-0.02 5:-0.066667 15:1 29:1 78:1 104:1 105:1 109:1 127:1 
-1 0:1 2:-81 3:-11 4:-0.81 5:-0.733333 15:1 17:1 52:1 61:1 65:1 92:1 103:1 107:1 109:1 127:1 
-1 2:-66 3:-10 4:-0.66 5:-0.666667 9:1 15:1 17:1 18:1 20:1 41:1 52:1 61:1 92:1 109:1 115:1 127:1 
-1 2:-57 3:-9 4:-0.57 5:-0.6 15:1 17:1 29:1 52:1 61:1 78:1 92:1 104:1 109:1 127:1 
-1 2:-33 3:-6 4:-0.33 5:-0.4 15:1 17:1 40:1 52:1 61:1 88:1 92:1 127:1 
-1 2:-28 3:-5 4:-0.28 5:-0.333333 15:1 17:1 23:1 40:1 52:1 61:1 82:1 92:1 120:1 127:1 
-1 2:-24 3:-4 4:-0.24 5:-0.266667 15:1 17:1 52:1 61:1 66:1 82:1 92:1 110:1 120:1 127:1 
-1 2:-20 3:-3 4:-0.2 5:-0.2 15:1 17:1 18:1 23:1 52:1 61:1 82:1 92:1 127:1 
-1 2:-11 3:-2 4:-0.11 5:-0.133333 15:1 17:1 39:1 52:1 61:1 120:1 127:1 
-1 1:1 2:-5 3:-1 4:-0.05 5:-0.066667 15:1 17:1 39:1 61:1 120:1 127:1 
-1 1:1 2:-7 3:-1 4:-0.12963 5:-0.166667 9:1 15:1 18:1 29:1 41:1 60:1 61:1 82:1 92:1 115:1 
-0.5187675255965851 2:-35 3:-4 4:-0.648148 5:-0.666667 9:1 15:1 18:1 41:1 43:1 48:1 52:1 61:1 82:1 92:1 115:1 120:1 
-1 2:-28 3:-3 4:-0.518519 5:-0.5 9:1 15:1 29:1 43:1 48:1 52:1 60:1 82:1 92:1 120:1 
-1 2:-10 3:-2 4:-0.185185 5:-0.333333 23:1 43:1 48:1 50:1 52:1 69:1 82:1 97:1 120:1 
-1 1:1 2:-6 3:-1 4:-0.111111 5:-0.166667 15:1 43:1 48:1 52:1 66:1 82:1 120:1 
-1 2:-35 3:-3 4:-0.364583 5:-0.230769 9:1 15:1 18:1 20:1 25:1 41:1 43:1 44:1 92:1 95:1 107:1 115:1 120:1 
-1 2:-24 3:-2 4:-0.25 5:-0.153846 15:1 25:1 43:1 44:1 61:1 62:1 78:1 92:1 95:1 107:1 120:1 
-1 1:1 2:-6 3:-1 4:-0.0625 5:-0.076923 15:1 25:1 43:1 44:1 50:1 95:1 120:1 
-1 2:-49 3:-5 4:-0.510417 5:-0.384615 9:1 15:1 18:1 20:1 41:1 69:1 88:1 92:1 97:1 107:1 115:1 127:1 
-1 2:-38 3:-4 4:-0.395833 5:-0.307692 15:1 61:1 62:1 69:1 78:1 88:1 92:1 97:1 107:1 127:1 
-1 2:-13 3:-2 4:-0.135417 5:-0.153846 15:1 25:1 43:1 44:1 69:1 88:1 92:1 95:1 97:1 120:1 127:1 
-1 1:1 2:-4 3:-1 4:-0.041667 5:-0.076923 15:1 20:1 69:1 88:1 92:1 97:1 104:1 127:1 
-1 2:-64 3:-8 4:-0.666667 5:-0.615385 9:1 13:1 15:1 18:1 20:1 23:1 41:1 52:1 61:1 92:1 107:1 109:1 115:1 127:1 
-1 2:-53 3:-7 4:-0.552083 5:-0.538462 13:1 15:1 23:1 52:1 61:1 62:1 78:1 92:1 107:1 109:1 127:1 
-1 2:-8 3:-2 4:-0.083333 5:-0.153846 13:1 15:1 23:1 52:1 61:1 69:1 88:1 109:1 120:1 127:1 
-1 1:1 2:-4 3:-1 4:-0.041667 5:-0.076923 13:1 15:1 23:1 52:1 61:1 66:1 98:1 109:1 120:1 127:1 
-1 2:-80 3:-11 4:-0.833333 5:-0.846154 9:1 15:1 17:1 18:1 20:1 41:1 52:1 66:1 78:1 92:1 107:1 109:1 115:1 127:1 
-1 2:-69 3:-10 4:-0.71875 5:-0.769231 15:1 17:1 52:1 61:1 62:1 66:1 78:1 92:1 107:1 109:1 127:1 
-1 2:-51 3:-9 4:-0.53125 5:-0.692308 15:1 17:1 43:1 50:1 52:1 66:1 78:1 92:1 109:1 120:1 127:1 
-0.4284840565138167 2:-44 3:-8 4:-0.458333 5:-0.615385 15:1 17:1 25:1 43:1 44:1 52:1 66:1 78:1 92:1 95:1 109:1 120:1 127:1 
-1 2:-31 3:-6 4:-0.322917 5:-0.461538 15:1 17:1 52:1 66:1 69:1 78:1 88:1 97:1 109:1 127:1 
-1 2:-24 3:-5 4:-0.25 5:-0.384615 15:1 17:1 23:1 52:1 66:1 69:1 78:1 88:1 109:1 120:1 127:1 
-1 2:-20 3:-4 4:-0.208333 5:-0.307692 15:1 17:1 52:1 61:1 66:1 78:1 98:1 109:1 120:1 127:1 
-1 2:-16 3:-3 4:-0.166667 5:-0.230769 13:1 15:1 17:1 23:1 61:1 66:1 78:1 109:1 127:1 
-1 2:-10 3:-2 4:-0.104167 5:-0.153846 8:1 13:1 15:1 17:1 61:1 66:1 78:1 83:1 87:1 109:1 127:1 
-1 1:1 2:-4 3:-1 4:-0.041667 5:-0.076923 8:1 17:1 61:1 66:1 78:1 83:1 88:1 127:1 
-1 1:1 2:-9 3:-1 4:-0.108434 5:-0.111111 9:1 15:1 17:1 18:1 20:1 29:1 39:1 41:1 60:1 62:1 92:1 107:1 115:1 
-0.003662191016849748 2:48 3:4 4:0.578313 5:0.444444 15:1 23:1 29:1 39:1 50:1 52:1 60:1 62:1 92:1 107:1 120:1 
-1 2:-33 3:-2 4:-0.39759 5:-0.222222 8:1 9:1 15:1 17:1 18:1 20:1 39:1 41:1 61:1 92:1 99:1 107:1 115:1 120:1 
-1 1:1 2:-24 3:-1 4:-0.289157 5:-0.111111 8:1 15:1 29:1 39:1 60:1 61:1 62:1 92:1 99:1 107:1 120:1 
-0.8692803694007446 2:5 3:1 4:0.060241 5:0.111111 8:1 15:1 20:1 39:1 61:1 99:1 120:1 127:1 
-1 2:-39 3:-3 4:-0.46988 5:-0.333333 9:1 15:1 17:1 18:1 20:1 39:1 41:1 92:1 99:1 107:1 115:1 120:1 127:1 
-1 2:-30 3:-2 4:-0.361446 5:-0.222222 15:1 20:1 29:1 39:1 60:1 62:1 92:1 99:1 107:1 120:1 127:1 
-1 1:1 2:-5 3:-1 4:-0.060241 5:-0.111111 8:1 15:1 20:1 39:1 61:1 99:1 120:1 127:1 
-1 2:-45 3:-4 4:-0.542169 5:-0.444444 9:1 15:1 17:1 18:1 20:1 41:1 61:1 69:1 88:1 92:1 107:1 115:1 127:1 
-1 2:-36 3:-3 4:-0.433735 5:-0.333333 15:1 20:1 29:1 39:1 60:1 61:1 62:1 69:1 88:1 92:1 107:1 127:1 
-1 2:-11 3:-2 4:-0.13253 5:-0.222222 8:1 15:1 20:1 39:1 61:1 69:1 88:1 99:1 120:1 127:1 
-1 1:1 2:-5 3:-1 4:-0.060241 5:-0.111111 15:1 20:1 39:1 61:1 69:1 88:1 99:1 120:1 127:1 
-1 1:1 2:-8 3:-1 4:-0.088889 5:-0.083333 15:1 24:1 48:1 57:1 60:1 61:1 107:1 127:1 
-1 0:1 2:-81 3:-10 4:-0.9 5:-0.833333 25:1 32:1 78:1 92:1 103:1 107:1 109:1 114:1 117:1 127:1 
-1 2:-68 3:-9 4:-0.755556 5:-0.75 15:1 57:1 60:1 61:1 78:1 92:1 107:1 109:1 114:1 117:1 127:1 
-1 2:-60 3:-8 4:-0.666667 5:-0.666667 15:1 24:1 48:1 60:1 78:1 92:1 107:1 109:1 114:1 117:1 127:1 
-1 2:-51 3:-7 4:-0.566667 5:-0.583333 17:1 35:1 48:1 78:1 92:1 107:1 109:1 114:1 117:1 127:1 
-1 2:-22 3:-4 4:-0.244444 5:-0.333333 15:1 61:1 71:1 78:1 92:1 96:1 107:1 109:1 114:1 117:1 127:1 
-1 2:-10 3:-3 4:-0.111111 5:-0.25 57:1 78:1 92:1 110:1 114:1 117:1 127:1 
-1 2:-6 3:-2 4:-0.066667 5:-0.166667 66:1 78:1 92:1 114:1 117:1 127:1 
-1 2:3 3:1 4:0.033333 5:0.083333 20:1 58:1 78:1 114:1 117:1 127:1 
-1 0:1 2:-84 3:-11 4:-0.933333 5:-0.916667 20:1 25:1 32:1 58:1 78:1 92:1 103:1 107:1 109:1 127:1 
-1 2:-71 3:-10 4:-0.788889 5:-0.833333 15:1 20:1 57:1 58:1 60:1 61:1 78:1 92:1 107:1 109:1 127:1 
-0.5676219307575242 2:-63 3:-9 4:-0.7 5:-0.75 15:1 20:1 24:1 48:1 58:1 60:1 78:1 92:1 107:1 109:1 127:1 
-1 2:-54 3:-8 4:-0.6 5:-0.666667 17:1 20:1 35:1 48:1 58:1 78:1 92:1 107:1 109:1 127:1 
-1 2:-25 3:-5 4:-0.277778 5:-0.416667 15:1 20:1 58:1 61:1 71:1 78:1 92:1 96:1 107:1 109:1 127:1 
-1 2:-13 3:-4 4:-0.144444 5:-0.333333 20:1 57:1 58:1 78:1 92:1 110:1 127:1 
-1 2:-9 3:-3 4:-0.1 5:-0.25 20:1 58:1 66:1 78:1 92:1 114:1 117:1 127:1 
-1 1:1 2:-3 3:-1 4:-0.033333 5:-0.083333 20:1 58:1 78:1 114:1 117:1 127:1 
-1 1:1 2:-7 3:-1 4:-0.097222 5:-0.142857 9:1 15:1 18:1 29:1 41:1 60:1 61:1 82:1 92:1 115:1 
-0.7620707336622669 2:-28 3:-3 4:-0.388889 5:-0.428571 9:1 15:1 29:1 43:1 48:1 52:1 60:1 66:1 82:1 92:1 120:1 
-1 1:1 2:-6 3:-1 4:-0.083333 5:-0.142857 15:1 43:1 48:1 52:1 66:1 82:1 120:1 
-1 2:2 3:1 4:0.027778 5:0.142857 15:1 43:1 48:1 66:1 68:1 82:1 109:1 120:1 
-1 0:1 1:1 2:-15 3:-1 4:-0.46875 5:-0.2 15:1 52:1 62:1 78:1 92:1 120:1 127:1 
-1 2:7 3:2 4:0.21875 5:0.4 15:1 52:1 55:1 62:1 90:1 92:1 99:1 120:1 127:1 
-1 0:1 2:-25 3:-4 4:-0.78125 5:-0.8 15:1 52:1 55:1 78:1 92:1 116:1 127:1 
-1 2:-10 3:-3 4:-0.3125 5:-0.6 15:1 52:1 55:1 62:1 78:1 92:1 116:1 120:1 127:1 
-1 1:1 2:-3 3:-1 4:-0.09375 5:-0.2 15:1 55:1 62:1 78:1 90:1 99:1 116:1 127:1 
-1 2:2 3:1 4:0.125 5:0.25 48:1 61:1 126:1 
-1 1:1 2:-15 3:-1 4:-0.306122 5:-0.142857 15:1 17:1 27:1 109:1 
-1 2:-21 3:-2 4:-0.428571 5:-0.285714 15:1 17:1 27:1 109:1 
-1 1:1 2:-6 3:-1 4:-0.122449 5:-0.142857 15:1 17:1 
-1 2:4 3:1 4:0.081633 5:0.142857 15:1 17:1 
-1 2:-25 3:-3 4:-0.510204 5:-0.428571 15:1 17:1 27:1 109:1 
-1 2:-10 3:-2 4:-0.204082 5:-0.285714 15:1 17:1 
-1 1:1 2:-4 3:-1 4:-0.081633 5:-0.142857 15:1 17:1 
-1 2:2 3:1 4:0.040816 5:0.142857 7:1 15:1 17:1 
-1 2:4 3:2 4:0.081633 5:0.285714 7:1 15:1 17:1 
-1 2:-29 3:-5 4:-0.591837 5:-0.714286 7:1 15:1 17:1 27:1 109:1 
-1 2:-14 3:-4 4:-0.285714 5:-0.571429 7:1 15:1 17:1 
-1 2:-8 3:-3 4:-0.163265 5:-0.428571 7:1 15:1 17:1 
-1 2:-4 3:-2 4:-0.081633 5:-0.285714 7:1 15:1 17:1 
-1 1:1 2:-2 3:-1 4:-0.040816 5:-0.142857 7:1 15:1 17:1 
-1 2:-13 3:-2 4:-0.265306 5:-0.4 13:1 15:1 47:1 74:1 92:1 120:1 121:1 127:1 
-1 1:1 2:-10 3:-1 4:-0.204082 5:-0.2 13:1 15:1 47:1 74:1 92:1 96:1 127:1 
-1 2:3 3:1 4:0.061224 5:0.2 15:1 74:1 78:1 92:1 127:1 
-1 1:1 2:-7 3:-1 4:-0.137255 5:-0.2 11:1 15:1 17:1 47:1 61:1 92:1 109:1 121:1 122:1 127:1 
-1 2:4 3:1 4:0.078431 5:0.2 11:1 15:1 47:1 61:1 82:1 96:1 109:1 121:1 122:1 127:1 
-1 2:-30 3:-3 4:-0.588235 5:-0.6 11:1 15:1 17:1 44:1 69:1 78:1 92:1 109:1 
-1 2:-22 3:-2 4:-0.431373 5:-0.4 11:1 15:1 44:1 47:1 61:1 69:1 78:1 109:1 121:1 122:1 127:1 
-1 1:1 2:-18 3:-1 4:-0.352941 5:-0.2 15:1 44:1 47:1 69:1 78:1 82:1 96:1 127:1 
-1 1:1 2:-14 3:-1 4:-0.150538 5:-0.090909 15:1 17:1 49:1 59:1 64:1 92:1 93:1 100:1 107:1 127:1 
-1 2:-49 3:-3 4:-0.526882 5:-0.272727 15:1 50:1 52:1 57:1 59:1 64:1 74:1 92:1 93:1 100:1 107:1 114:1 127:1 
-1 2:-35 3:-2 4:-0.376344 5:-0.181818 15:1 17:1 49:1 50:1 52:1 57:1 74:1 92:1 107:1 114:1 127:1 
-1 1:1 2:-25 3:-1 4:-0.268817 5:-0.090909 15:1 47:1 50:1 52:1 57:1 61:1 74:1 82:1 92:1 96:1 107:1 114:1 127:1 
-1 2:3 3:1 4:0.032258 5:0.090909 50:1 57:1 58:1 74:1 92:1 107:1 114:1 127:1 
-1 2:-69 3:-7 4:-0.741935 5:-0.636364 15:1 52:1 59:1 64:1 73:1 92:1 93:1 99:1 100:1 107:1 127:1 
-1 2:-55 3:-6 4:-0.591398 5:-0.545455 15:1 17:1 49:1 52:1 73:1 92:1 99:1 107:1 
-1 2:-45 3:-5 4:-0.483871 5:-0.454545 15:1 47:1 52:1 61:1 73:1 82:1 92:1 96:1 99:1 107:1 127:1 
-1 2:-17 3:-3 4:-0.182796 5:-0.272727 15:1 50:1 58:1 73:1 74:1 92:1 99:1 127:1 
-1 2:-13 3:-2 4:-0.139785 5:-0.181818 15:1 50:1 73:1 74:1 99:1 113:1 127:1 
-1 1:1 2:-5 3:-1 4:-0.053763 5:-0.090909 15:1 73:1 99:1 106:1 127:1 
-1 2:-9 3:-2 4:-0.105882 5:-0.2 15:1 25:1 39:1 44:1 50:1 55:1 92:1 95:1 120:1 127:1 
-1 1:1 2:-5 3:-1 4:-0.058824 5:-0.1 15:1 25:1 39:1 44:1 55:1 92:1 95:1 120:1 127:1 
-0.04202218344567453 2:28 3:4 4:0.329412 5:0.4 15:1 25:1 39:1 44:1 52:1 55:1 60:1 95:1 109:1 120:1 127:1 
-1 2:-58 3:-8 4:-0.682353 5:-0.8 15:1 29:1 39:1 52:1 55:1 60:1 61:1 62:1 78:1 92:1 107:1 109:1 127:1 
-1 2:-43 3:-7 4:-0.505882 5:-0.7 15:1 39:1 50:1 52:1 55:1 78:1 92:1 109:1 127:1 
-1 2:-33 3:-5 4:-0.388235 5:-0.5 15:1 25:1 39:1 44:1 52:1 55:1 78:1 95:1 109:1 120:1 127:1 
-1 2:-23 3:-4 4:-0.270588 5:-0.4 15:1 20:1 39:1 52:1 78:1 87:1 109:1 127:1 
-1 2:-18 3:-3 4:-0.211765 5:-0.3 15:1 39:1 52:1 69:1 78:1 88:1 127:1 
-1 2:-10 3:-2 4:-0.117647 5:-0.2 15:1 39:1 52:1 60:1 78:1 120:1 127:1 
-1 1:1 2:-5 3:-1 4:-0.058824 5:-0.1 15:1 39:1 52:1 60:1 78:1 120:1 127:1 
-1 0:1 2:-18 3:-3 4:-0.857143 5:-0.75 36:1 48:1 55:1 99:1 107:1 127:1 
-1 2:-15 3:-2 4:-0.714286 5:-0.5 48:1 55:1 99:1 107:1 116:1 127:1 
-1 0:1 2:-8 3:-3 4:-0.380952 5:-0.6 15:1 55:1 99:1 116:1 127:1 
-1 2:-6 3:-2 4:-0.285714 5:-0.4 15:1 55:1 99:1 116:1 127:1 
-1 1:1 2:-4 3:-1 4:-0.190476 5:-0.2 15:1 55:1 58:1 99:1 116:1 127:1 
-1 2:4 3:1 4:0.25 5:0.25 14:1 17:1 48:1 54:1 58:1 60:1 74:1 113:1 
-1 1:1 2:-4 3:-1 4:-0.25 5:-0.25 14:1 17:1 48:1 54:1 58:1 60:1 74:1 113:1 
-1 2:2 3:1 4:0.125 5:0.25 14:1 17:1 48:1 58:1 74:1 113:1 
-1 2:-6 3:-2 4:-0.375 5:-0.5 17:1 48:1 54:1 58:1 60:1 74:1 113:1 
-1 1:1 2:-2 3:-1 4:-0.125 5:-0.25 14:1 17:1 48:1 58:1 74:1 113:1 
-1 0:1 2:-18 3:-6 4:-0.529412 5:-0.75 15:1 36:1 55:1 87:1 92:1 99:1 109:1 116:1 127:1 
-0.7885599708605013 2:-11 3:-4 4:-0.323529 5:-0.5 15:1 36:1 55:1 86:1 92:1 99:1 116:1 127:1 
-1 2:-9 3:-3 4:-0.264706 5:-0.375 15:1 36:1 55:1 99:1 116:1 127:1 
-1 2:-6 3:-2 4:-0.176471 5:-0.25 15:1 36:1 55:1 86:1 99:1 116:1 127:1 
-1 1:1 2:-3 3:-1 4:-0.088235 5:-0.125 15:1 36:1 55:1 58:1 99:1 116:1 127:1 
-1 1:1 2:-18 3:-1 4:-0.5625 5:-0.333333 15:1 52:1 65:1 77:1 99:1 107:1 119:1 
-1 2:-24 3:-3 4:-0.545455 5:-0.6 15:1 77:1 78:1 92:1 94:1 95:1 107:1 
-1 2:-14 3:-2 4:-0.318182 5:-0.4 15:1 25:1 74:1 78:1 94:1 95:1 107:1 
-1 1:1 2:-10 3:-1 4:-0.227273 5:-0.2 15:1 53:1 74:1 77:1 78:1 94:1 95:1 107:1 
-1 1:1 2:-3 3:-1 4:-0.12 5:-0.166667 14:1 15:1 58:1 76:1 79:1 99:1 107:1 
-1 2:3 3:1 4:0.12 5:0.166667 12:1 14:1 15:1 42:1 58:1 79:1 99:1 107:1 
-1 2:-6 3:-2 4:-0.24 5:-0.333333 12:1 14:1 15:1 42:1 76:1 79:1 99:1 107:1 
-1 1:1 2:-3 3:-1 4:-0.12 5:-0.166667 12:1 14:1 15:1 42:1 58:1 79:1 99:1 107:1 
-1 2:2 3:1 4:0.08 5:0.166667 12:1 14:1 15:1 42:1 48:1 58:1 79:1 99:1 
-1 2:-8 3:-3 4:-0.32 5:-0.5 14:1 15:1 48:1 58:1 76:1 79:1 99:1 107:1 
-1 2:-5 3:-2 4:-0.2 5:-0.333333 14:1 15:1 48:1 58:1 79:1 99:1 107:1 
-1 1:1 2:-2 3:-1 4:-0.08 5:-0.166667 12:1 14:1 15:1 42:1 48:1 58:1 79:1 99:1 
-1 2:2 3:1 4:0.08 5:0.166667 12:1 14:1 15:1 42:1 48:1 58:1 79:1 99:1 
-1 2:-11 3:-4 4:-0.44 5:-0.666667 12:1 14:1 15:1 42:1 48:1 76:1 79:1 99:1 107:1 
-1 2:-8 3:-3 4:-0.32 5:-0.5 12:1 15:1 42:1 48:1 58:1 79:1 99:1 107:1 
-1 2:-5 3:-2 4:-0.2 5:-0.333333 12:1 14:1 15:1 42:1 48:1 79:1 99:1 
-1 1:1 2:-2 3:-1 4:-0.08 5:-0.166667 12:1 14:1 15:1 42:1 48:1 58:1 79:1 99:1 
-1 2:-35 3:-3 4:-0.614035 5:-0.6 8:1 15:1 48:1 61:1 92:1 107:1 
-1 2:-27 3:-2 4:-0.473684 5:-0.4 8:1 15:1 47:1 48:1 61:1 92:1 107:1 113:1 
-1 1:1 2:-10 3:-1 4:-0.175439 5:-0.2 8:1 15:1 48:1 50:1 61:1 69:1 82:1 92:1 113:1 
-0.01073091397478298 2:58 3:4 4:0.563107 5:0.363636 9:1 15:1 18:1 20:1 41:1 55:1 61:1 92:1 109:1 110:1 115:1 
-0.02046221156250635 2:72 3:6 4:0.699029 5:0.545455 9:1 15:1 18:1 20:1 41:1 55:1 61:1 92:1 107:1 109:1 114:1 115:1 
-0.01852721950427654 2:76 3:7 4:0.737864 5:0.636364 9:1 15:1 18:1 20:1 41:1 55:1 61:1 66:1 88:1 92:1 107:1 109:1 115:1 
-0.04907558543617447 2:87 3:9 4:0.84466 5:0.818182 9:1 15:1 18:1 20:1 41:1 55:1 61:1 78:1 82:1 92:1 107:1 109:1 115:1 
-1 1:1 2:-9 3:-1 4:-0.087379 5:-0.090909 9:1 15:1 18:1 20:1 29:1 41:1 61:1 78:1 92:1 109:1 115:1 127:1 
-0.01444604173428373 2:49 3:3 4:0.475728 5:0.272727 15:1 29:1 55:1 61:1 78:1 92:1 109:1 110:1 127:1 
-1 1:1 2:-11 3:-1 4:-0.106796 5:-0.090909 15:1 25:1 29:1 39:1 43:1 44:1 78:1 95:1 109:1 120:1 127:1 
-0.005032424652795545 2:51 3:4 4:0.495146 5:0.363636 15:1 25:1 39:1 43:1 44:1 55:1 61:1 92:1 95:1 107:1 109:1 114:1 120:1 
-1 2:-87 3:-9 4:-0.84466 5:-0.818182 9:1 15:1 18:1 20:1 41:1 55:1 61:1 78:1 82:1 92:1 107:1 109:1 115:1 
-1 2:-78 3:-8 4:-0.757282 5:-0.727273 15:1 29:1 55:1 78:1 82:1 92:1 107:1 109:1 127:1 
-1 2:-66 3:-7 4:-0.640777 5:-0.636364 15:1 25:1 39:1 43:1 44:1 55:1 78:1 82:1 92:1 95:1 107:1 109:1 120:1 
-1 2:-57 3:-6 4:-0.553398 5:-0.545455 15:1 50:1 55:1 78:1 82:1 92:1 107:1 109:1 
-1 2:-29 3:-5 4:-0.281553 5:-0.454545 15:1 61:1 78:1 82:1 92:1 107:1 110:1 
-1 2:-25 3:-4 4:-0.242718 5:-0.363636 15:1 78:1 82:1 92:1 107:1 
-1 2:-15 3:-3 4:-0.145631 5:-0.272727 15:1 61:1 78:1 82:1 92:1 107:1 114:1 
-1 2:-11 3:-2 4:-0.106796 5:-0.181818 15:1 61:1 66:1 78:1 82:1 88:1 92:1 107:1 
-1 1:1 2:-7 3:-1 4:-0.067961 5:-0.090909 15:1 78:1 82:1 88:1 92:1 99:1 120:1 
-1 0:1 2:-8 3:-3 4:-0.190476 5:-0.333333 15:1 55:1 99:1 116:1 127:1 
-1 2:-6 3:-2 4:-0.142857 5:-0.222222 15:1 55:1 99:1 116:1 127:1 
-1 1:1 2:-4 3:-1 4:-0.095238 5:-0.111111 15:1 55:1 58:1 99:1 116:1 127:1 
-1 1:1 2:-18 3:-1 4:-0.545455 5:-0.333333 15:1 59:1 61:1 73:1 96:1 
-1 2:-19 3:-2 4:-0.372549 5:-0.181818 7:1 15:1 60:1 92:1 107:1 118:1 120:1 127:1 
-1 1:1 2:-11 3:-1 4:-0.215686 5:-0.090909 15:1 22:1 48:1 99:1 107:1 118:1 120:1 127:1 
-1 2:4 3:1 4:0.078431 5:0.090909 15:1 48:1 55:1 85:1 105:1 107:1 118:1 120:1 127:1 
-0.7495860407751528 2:7 3:2 4:0.137255 5:0.181818 15:1 48:1 55:1 89:1 107:1 118:1 120:1 127:1 
-1 0:1 2:-28 3:-4 4:-0.54902 5:-0.363636 15:1 48:1 55:1 85:1 92:1 105:1 107:1 127:1 
-1 2:-23 3:-3 4:-0.45098 5:-0.272727 7:1 15:1 48:1 55:1 60:1 85:1 92:1 105:1 107:1 127:1 
-1 2:-15 3:-2 4:-0.294118 5:-0.181818 15:1 22:1 48:1 55:1 85:1 99:1 105:1 107:1 127:1 
-1 1:1 2:-4 3:-1 4:-0.078431 5:-0.090909 15:1 48:1 55:1 85:1 105:1 107:1 118:1 120:1 127:1 
-1 2:6 3:2 4:0.117647 5:0.181818 15:1 48:1 52:1 55:1 85:1 105:1 107:1 127:1 
-1 2:-34 3:-6 4:-0.666667 5:-0.545455 7:1 15:1 52:1 55:1 60:1 92:1 107:1 109:1 127:1 
-1 2:-26 3:-5 4:-0.509804 5:-0.454545 22:1 48:1 52:1 55:1 99:1 107:1 109:1 127:1 
-1 2:-15 3:-4 4:-0.294118 5:-0.363636 15:1 52:1 55:1 107:1 109:1 118:1 120:1 127:1 
-1 2:-11 3:-3 4:-0.215686 5:-0.272727 15:1 48:1 52:1 55:1 85:1 105:1 107:1 109:1 127:1 
-1 2:-8 3:-2 4:-0.156863 5:-0.181818 48:1 52:1 55:1 89:1 109:1 118:1 127:1 
-1 1:1 2:-5 3:-1 4:-0.098039 5:-0.090909 48:1 52:1 85:1 109:1 127:1 
-1 2:3 3:1 4:0.058824 5:0.090909 17:1 52:1 58:1 109:1 125:1 127:1 
-1 2:7 3:2 4:0.137255 5:0.181818 17:1 48:1 52:1 55:1 109:1 127:1 
-1 0:1 2:-42 3:-8 4:-0.823529 5:-0.727273 15:1 17:1 52:1 55:1 58:1 92:1 107:1 109:1 125:1 127:1 
-1 2:-37 3:-7 4:-0.72549 5:-0.636364 7:1 15:1 17:1 52:1 55:1 58:1 60:1 92:1 107:1 109:1 125:1 127:1 
-1 2:-29 3:-6 4:-0.568627 5:-0.545455 17:1 22:1 48:1 52:1 55:1 58:1 99:1 107:1 109:1 125:1 127:1 
-1 2:-14 3:-4 4:-0.27451 5:-0.363636 15:1 17:1 48:1 52:1 55:1 58:1 85:1 105:1 107:1 109:1 125:1 127:1 
-1 2:-11 3:-3 4:-0.215686 5:-0.272727 17:1 48:1 52:1 55:1 58:1 89:1 109:1 118:1 125:1 127:1 
-1 2:-8 3:-2 4:-0.156863 5:-0.181818 17:1 48:1 52:1 58:1 85:1 109:1 125:1 127:1 
-1 2:4 3:1 4:0.078431 5:0.090909 17:1 48:1 55:1 58:1 109:1 125:1 127:1 
-1 0:1 2:-46 3:-9 4:-0.901961 5:-0.818182 15:1 17:1 48:1 52:1 55:1 92:1 107:1 109:1 127:1 
-0.2737886282768545 2:-33 3:-7 4:-0.647059 5:-0.636364 17:1 22:1 48:1 52:1 55:1 99:1 107:1 109:1 127:1 
-1 2:-15 3:-4 4:-0.294118 5:-0.363636 17:1 48:1 52:1 55:1 89:1 109:1 118:1 127:1 
-1 2:-12 3:-3 4:-0.235294 5:-0.272727 17:1 48:1 52:1 55:1 85:1 109:1 127:1 
-1 2:-7 3:-2 4:-0.137255 5:-0.181818 17:1 48:1 52:1 55:1 109:1 127:1 
-1 1:1 2:-4 3:-1 4:-0.078431 5:-0.090909 17:1 48:1 55:1 58:1 109:1 125:1 127:1 
-1 0:1 2:-28 3:-5 4:-0.823529 5:-0.833333 15:1 27:1 45:1 61:1 78:1 92:1 107:1 
-1 2:-17 3:-4 4:-0.5 5:-0.666667 15:1 45:1 48:1 61:1 78:1 92:1 107:1 
-1 2:-16 3:-3 4:-0.470588 5:-0.5 15:1 45:1 48:1 61:1 78:1 92:1 107:1 
-1 2:-7 3:-2 4:-0.205882 5:-0.333333 15:1 45:1 48:1 61:1 78:1 92:1 
-1 2:2 3:1 4:0.068966 5:0.166667 15:1 27:1 48:1 95:1 126:1 
-1 0:1 2:-8 3:-2 4:-0.275862 5:-0.333333 15:1 27:1 48:1 95:1 126:1 
-1 2:5 3:1 4:0.172414 5:0.166667 15:1 48:1 55:1 61:1 95:1 126:1 
-1 0:1 2:-22 3:-5 4:-0.846154 5:-0.833333 15:1 59:1 78:1 92:1 107:1 
-1 2:-13 3:-4 4:-0.5 5:-0.666667 15:1 48:1 78:1 84:1 92:1 107:1 
-1 2:-12 3:-3 4:-0.461538 5:-0.5 15:1 48:1 78:1 84:1 92:1 107:1 
-1 2:-9 3:-2 4:-0.346154 5:-0.333333 15:1 17:1 48:1 78:1 84:1 92:1 
-1 0:1 2:-13 3:-2 4:-0.168831 5:-0.153846 15:1 40:1 52:1 54:1 55:1 70:1 92:1 127:1 
-1 1:1 2:-5 3:-1 4:-0.064935 5:-0.076923 15:1 40:1 48:1 55:1 70:1 92:1 127:1 
-1 2:7 3:2 4:0.090909 5:0.153846 15:1 36:1 40:1 48:1 55:1 92:1 127:1 
-0.009207685285474788 2:53 3:10 4:0.688312 5:0.769231 15:1 40:1 48:1 55:1 60:1 92:1 107:1 127:1 
-1 0:1 2:-35 3:-6 4:-0.454545 5:-0.461538 15:1 47:1 48:1 52:1 54:1 55:1 60:1 70:1 92:1 107:1 127:1 
-1 2:-21 3:-4 4:-0.272727 5:-0.307692 15:1 40:1 47:1 48:1 55:1 60:1 92:1 107:1 127:1 
-1 2:-18 3:-3 4:-0.233766 5:-0.230769 40:1 42:1 47:1 48:1 53:1 55:1 60:1 107:1 127:1 
-1 1:1 2:-11 3:-1 4:-0.142857 5:-0.076923 15:1 47:1 48:1 55:1 60:1 107:1 127:1 
-1 2:4 3:1 4:0.051948 5:0.076923 14:1 47:1 48:1 60:1 93:1 99:1 107:1 127:1 
-1 0:1 2:-52 3:-11 4:-0.675325 5:-0.846154 15:1 52:1 54:1 55:1 62:1 70:1 92:1 107:1 127:1 
-1 2:-28 3:-6 4:-0.363636 5:-0.461538 15:1 55:1 62:1 107:1 127:1 
-1 2:-17 3:-5 4:-0.220779 5:-0.384615 15:1 47:1 48:1 55:1 60:1 62:1 107:1 127:1 
-1 2:-13 3:-4 4:-0.168831 5:-0.307692 14:1 15:1 47:1 48:1 55:1 62:1 93:1 99:1 127:1 
-1 2:-11 3:-3 4:-0.142857 5:-0.230769 15:1 48:1 55:1 62:1 93:1 99:1 127:1 
-1 2:-7 3:-2 4:-0.090909 5:-0.153846 15:1 48:1 55:1 62:1 93:1 127:1 
-0.7819845947724146 2:-32 3:-6 4:-0.415584 5:-0.461538 47:1 48:1 55:1 60:1 107:1 127:1 
-1 2:-28 3:-5 4:-0.363636 5:-0.384615 14:1 47:1 48:1 55:1 60:1 93:1 99:1 107:1 127:1 
-1 2:-26 3:-4 4:-0.337662 5:-0.307692 48:1 55:1 60:1 93:1 99:1 107:1 127:1 
-1 2:-22 3:-3 4:-0.285714 5:-0.230769 15:1 48:1 55:1 60:1 93:1 107:1 127:1 
-1 2:-20 3:-2 4:-0.25974 5:-0.153846 15:1 48:1 55:1 60:1 62:1 93:1 107:1 127:1 
-1 0:1 2:-9 3:-2 4:-0.09375 5:-0.117647 15:1 52:1 55:1 83:1 125:1 127:1 
-1 1:1 2:-3 3:-1 4:-0.03125 5:-0.058824 15:1 52:1 55:1 118:1 125:1 127:1 
-1 2:-6 3:-2 4:-0.0625 5:-0.117647 15:1 24:1 52:1 55:1 118:1 127:1 
-1 1:1 2:-3 3:-1 4:-0.03125 5:-0.058824 15:1 24:1 52:1 55:1 118:1 125:1 127:1 
-1 2:-29 3:-4 4:-0.302083 5:-0.235294 15:1 48:1 52:1 55:1 74:1 118:1 127:1 
-1 2:-26 3:-3 4:-0.270833 5:-0.176471 48:1 52:1 55:1 74:1 125:1 127:1 
-1 2:-23 3:-2 4:-0.239583 5:-0.117647 15:1 24:1 48:1 55:1 74:1 118:1 127:1 
-1 1:1 2:-3 3:-1 4:-0.03125 5:-0.058824 48:1 74:1 127:1 
-1 2:4 3:1 4:0.041667 5:0.058824 17:1 48:1 74:1 98:1 127:1 
-0.05272754670289299 2:28 3:6 4:0.291667 5:0.352941 48:1 55:1 74:1 109:1 127:1 
-0.0188602871467178 2:58 3:11 4:0.604167 5:0.647059 48:1 55:1 74:1 92:1 107:1 109:1 127:1 
-1 0:1 2:-42 3:-7 4:-0.4375 5:-0.411765 15:1 17:1 24:1 52:1 55:1 83:1 127:1 
-1 2:-36 3:-6 4:-0.375 5:-0.352941 15:1 17:1 24:1 52:1 55:1 118:1 127:1 
-1 2:-33 3:-5 4:-0.34375 5:-0.294118 17:1 24:1 52:1 55:1 125:1 127:1 
-1 2:-30 3:-4 4:-0.3125 5:-0.235294 15:1 17:1 24:1 55:1 118:1 127:1 
-1 2:-10 3:-3 4:-0.104167 5:-0.176471 17:1 24:1 48:1 55:1 127:1 
-1 2:-7 3:-2 4:-0.072917 5:-0.117647 17:1 24:1 48:1 55:1 74:1 127:1 
-1 1:1 2:-3 3:-1 4:-0.03125 5:-0.058824 17:1 24:1 55:1 74:1 98:1 127:1 
-0.9392735168334122 0:1 2:-67 3:-12 4:-0.697917 5:-0.705882 15:1 48:1 52:1 55:1 83:1 109:1 120:1 127:1 
-1 2:-55 3:-9 4:-0.572917 5:-0.529412 15:1 24:1 48:1 55:1 109:1 118:1 120:1 127:1 
-1 2:-24 3:-5 4:-0.25 5:-0.294118 17:1 24:1 48:1 55:1 109:1 120:1 127:1 
-1 2:-21 3:-4 4:-0.21875 5:-0.235294 24:1 48:1 55:1 98:1 109:1 120:1 127:1 
-1 2:-12 3:-3 4:-0.125 5:-0.176471 17:1 48:1 55:1 109:1 120:1 127:1 
-1 1:1 2:-4 3:-1 4:-0.041667 5:-0.058824 48:1 55:1 120:1 127:1 
-1 0:1 2:-93 3:-16 4:-0.96875 5:-0.941176 15:1 48:1 52:1 55:1 83:1 92:1 107:1 109:1 127:1 
-0.8897317868874718 2:-87 3:-15 4:-0.90625 5:-0.882353 15:1 48:1 52:1 55:1 92:1 107:1 109:1 118:1 127:1 
-0.7639436114009369 2:-84 3:-14 4:-0.875 5:-0.823529 48:1 52:1 55:1 92:1 107:1 109:1 125:1 127:1 
-1 2:-81 3:-13 4:-0.84375 5:-0.764706 15:1 24:1 48:1 55:1 92:1 107:1 109:1 118:1 127:1 
-1 2:-47 3:-8 4:-0.489583 5:-0.470588 24:1 48:1 55:1 92:1 98:1 107:1 109:1 127:1 
-1 2:-38 3:-7 4:-0.395833 5:-0.411765 17:1 48:1 55:1 92:1 107:1 109:1 127:1 
-1 2:-30 3:-5 4:-0.3125 5:-0.294118 48:1 55:1 92:1 107:1 127:1 
-1 2:-26 3:-4 4:-0.270833 5:-0.235294 48:1 55:1 92:1 107:1 120:1 127:1 
-1 2:-16 3:-3 4:-0.166667 5:-0.176471 15:1 48:1 55:1 92:1 99:1 107:1 127:1 
-1 2:-8 3:-2 4:-0.083333 5:-0.117647 48:1 55:1 90:1 92:1 99:1 107:1 127:1 
-1 1:1 2:-4 3:-1 4:-0.041667 5:-0.058824 48:1 55:1 107:1 127:1 
-1 0:1 2:-21 3:-4 4:-0.375 5:-0.285714 15:1 26:1 55:1 67:1 92:1 114:1 127:1 
-1 2:-12 3:-3 4:-0.214286 5:-0.214286 15:1 55:1 92:1 99:1 114:1 127:1 
-1 2:-8 3:-2 4:-0.142857 5:-0.142857 15:1 55:1 99:1 114:1 119:1 127:1 
-1 1:1 2:-6 3:-1 4:-0.107143 5:-0.071429 15:1 55:1 114:1 127:1 
-1 2:6 3:2 4:0.107143 5:0.142857 15:1 55:1 114:1 120:1 127:1 
-1 0:1 2:-27 3:-6 4:-0.482143 5:-0.428571 15:1 26:1 55:1 67:1 92:1 114:1 120:1 127:1 
-1 2:-6 3:-2 4:-0.107143 5:-0.142857 15:1 55:1 114:1 120:1 127:1 
-1 1:1 2:-3 3:-1 4:-0.053571 5:-0.071429 15:1 34:1 55:1 114:1 120:1 127:1 
-1 2:6 3:1 4:0.107143 5:0.071429 15:1 48:1 52:1 114:1 120:1 122:1 127:1 
-0.1090913980586605 2:26 3:7 4:0.464286 5:0.5 15:1 17:1 52:1 55:1 77:1 78:1 114:1 120:1 127:1 
-1 0:1 2:-39 3:-9 4:-0.696429 5:-0.642857 15:1 26:1 48:1 52:1 55:1 61:1 67:1 92:1 
-0.05521999842049311 2:-26 3:-7 4:-0.464286 5:-0.5 15:1 48:1 52:1 55:1 61:1 99:1 119:1 
-1 2:-15 3:-4 4:-0.267857 5:-0.285714 34:1 48:1 52:1 55:1 61:1 114:1 127:1 
-1 2:-11 3:-3 4:-0.196429 5:-0.214286 15:1 48:1 52:1 61:1 114:1 120:1 127:1 
-1 2:-4 3:-2 4:-0.071429 5:-0.142857 48:1 52:1 61:1 120:1 122:1 
-1 1:1 2:-2 3:-1 4:-0.035714 5:-0.071429 48:1 52:1 61:1 90:1 104:1 122:1 
-1 2:5 3:1 4:0.089286 5:0.071429 48:1 52:1 61:1 
-1 0:1 2:-45 3:-10 4:-0.803571 5:-0.714286 15:1 26:1 48:1 52:1 55:1 61:1 67:1 92:1 
-1 2:-17 3:-4 4:-0.303571 5:-0.285714 15:1 48:1 52:1 61:1 114:1 120:1 127:1 
-1 2:-10 3:-3 4:-0.178571 5:-0.214286 48:1 52:1 61:1 120:1 122:1 
-1 2:-8 3:-2 4:-0.142857 5:-0.142857 48:1 52:1 61:1 90:1 104:1 122:1 
-1 1:1 2:-5 3:-1 4:-0.089286 5:-0.071429 48:1 52:1 61:1 
-1 2:2 3:1 4:0.035714 5:0.071429 17:1 48:1 52:1 61:1 77:1 
-1 2:4 3:1 4:0.173913 5:0.2 48:1 68:1 70:1 76:1 78:1 99:1 127:1 
-1 1:1 2:-4 3:-1 4:-0.173913 5:-0.2 48:1 68:1 70:1 76:1 78:1 99:1 127:1 
-1 2:4 3:1 4:0.173913 5:0.2 48:1 59:1 78:1 109:1 127:1 
-1 2:4 3:1 4:0.148148 5:0.166667 11:1 15:1 48:1 78:1 98:1 
-1 0:1 2:-24 3:-5 4:-0.888889 5:-0.833333 11:1 15:1 63:1 68:1 70:1 76:1 78:1 92:1 99:1 
-1 2:-19 3:-4 4:-0.703704 5:-0.666667 11:1 15:1 68:1 70:1 76:1 78:1 92:1 99:1 
-1 2:-14 3:-3 4:-0.518519 5:-0.5 48:1 68:1 70:1 76:1 78:1 92:1 98:1 99:1 
-1 2:-10 3:-2 4:-0.37037 5:-0.333333 48:1 68:1 70:1 76:1 78:1 92:1 99:1 
-1 0:1 1:1 2:-13 3:-1 4:-0.351351 5:-0.25 15:1 55:1 59:1 74:1 
-1 2:-13 3:-2 4:-0.351351 5:-0.5 15:1 55:1 65:1 74:1 77:1 92:1 
-1 1:1 2:-10 3:-1 4:-0.27027 5:-0.25 15:1 49:1 55:1 65:1 74:1 77:1 92:1 123:1 
-1 1:1 2:-4 3:-1 4:-0.133333 5:-0.142857 14:1 17:1 48:1 54:1 58:1 60:1 74:1 113:1 120:1 
-1 2:2 3:1 4:0.066667 5:0.142857 14:1 17:1 48:1 58:1 74:1 113:1 120:1 
-1 2:-6 3:-2 4:-0.2 5:-0.285714 17:1 48:1 54:1 58:1 60:1 74:1 113:1 120:1 
-1 1:1 2:-2 3:-1 4:-0.066667 5:-0.142857 14:1 17:1 48:1 58:1 74:1 113:1 120:1 
-1 2:-12 3:-3 4:-0.4 5:-0.428571 54:1 58:1 60:1 74:1 113:1 120:1 127:1 
-1 2:-8 3:-2 4:-0.266667 5:-0.285714 14:1 17:1 48:1 74:1 113:1 120:1 127:1 
-1 1:1 2:-6 3:-1 4:-0.2 5:-0.142857 17:1 48:1 58:1 74:1 120:1 127:1 
-1 2:5 3:1 4:0.166667 5:0.142857 48:1 99:1 120:1 127:1 
-1 2:-17 3:-4 4:-0.566667 5:-0.571429 48:1 54:1 58:1 60:1 74:1 99:1 113:1 127:1 
-1 2:-13 3:-3 4:-0.433333 5:-0.428571 14:1 17:1 48:1 74:1 99:1 113:1 120:1 127:1 
-1 2:-11 3:-2 4:-0.366667 5:-0.285714 17:1 48:1 58:1 74:1 99:1 120:1 127:1 
-1 1:1 2:-5 3:-1 4:-0.166667 5:-0.142857 48:1 99:1 120:1 127:1 
-1 2:3 3:1 4:0.1 5:0.142857 48:1 99:1 123:1 127:1 
-1 1:1 2:-7 3:-1 4:-0.12963 5:-0.166667 9:1 15:1 18:1 29:1 41:1 60:1 61:1 82:1 92:1 115:1 
-1 2:-35 3:-4 4:-0.648148 5:-0.666667 9:1 15:1 18:1 41:1 43:1 48:1 52:1 61:1 82:1 92:1 115:1 120:1 
-1 2:-28 3:-3 4:-0.518519 5:-0.5 9:1 15:1 29:1 43:1 48:1 52:1 60:1 82:1 92:1 120:1 
-1 2:-10 3:-2 4:-0.185185 5:-0.333333 23:1 43:1 48:1 50:1 52:1 69:1 82:1 97:1 120:1 
-1 1:1 2:-6 3:-1 4:-0.111111 5:-0.166667 15:1 43:1 48:1 52:1 66:1 82:1 120:1 
-1 2:3 3:1 4:0.037037 5:0.090909 17:1 92:1 98:1 99:1 123:1 127:1 
-1 1:1 2:-3 3:-1 4:-0.037037 5:-0.090909 17:1 92:1 98:1 99:1 123:1 127:1 
-1 2:4 3:1 4:0.049383 5:0.090909 15:1 17:1 51:1 98:1 99:1 120:1 123:1 127:1 
-1 2:-17 3:-4 4:-0.209877 5:-0.363636 15:1 18:1 92:1 98:1 99:1 
-1 2:-14 3:-3 4:-0.17284 5:-0.272727 15:1 17:1 18:1 99:1 123:1 127:1 
-1 2:-10 3:-2 4:-0.123457 5:-0.181818 15:1 17:1 18:1 51:1 98:1 99:1 120:1 127:1 
-1 1:1 2:-2 3:-1 4:-0.024691 5:-0.090909 15:1 18:1 82:1 98:1 99:1 
-1 2:-50 3:-7 4:-0.617284 5:-0.636364 15:1 55:1 92:1 98:1 99:1 114:1 123:1 
-1 2:-47 3:-6 4:-0.580247 5:-0.545455 15:1 17:1 55:1 92:1 99:1 114:1 123:1 127:1 
-1 2:-43 3:-5 4:-0.530864 5:-0.454545 15:1 17:1 51:1 55:1 92:1 98:1 99:1 114:1 120:1 123:1 127:1 
-1 2:-35 3:-4 4:-0.432099 5:-0.363636 15:1 18:1 55:1 82:1 92:1 98:1 99:1 114:1 123:1 
-1 2:-33 3:-3 4:-0.407407 5:-0.272727 15:1 18:1 55:1 92:1 99:1 114:1 123:1 
-1 2:-17 3:-2 4:-0.209877 5:-0.181818 15:1 55:1 82:1 87:1 92:1 99:1 114:1 123:1 
-1 1:1 2:-8 3:-1 4:-0.098765 5:-0.090909 15:1 99:1 114:1 123:1 
-1 2:2 3:1 4:0.024691 5:0.090909 15:1 69:1 98:1 99:1 114:1 123:1 
-1 2:-52 3:-8 4:-0.641975 5:-0.727273 15:1 55:1 69:1 92:1 98:1 99:1 114:1 
-1 2:-49 3:-7 4:-0.604938 5:-0.636364 15:1 17:1 55:1 69:1 92:1 98:1 99:1 114:1 123:1 127:1 
-1 2:-45 3:-6 4:-0.555556 5:-0.545455 15:1 17:1 51:1 55:1 69:1 92:1 98:1 114:1 120:1 127:1 
-1 2:-37 3:-5 4:-0.45679 5:-0.454545 15:1 18:1 55:1 69:1 82:1 92:1 98:1 114:1 
-1 2:-35 3:-4 4:-0.432099 5:-0.363636 15:1 18:1 55:1 69:1 92:1 98:1 99:1 114:1 
-1 2:-10 3:-2 4:-0.123457 5:-0.181818 15:1 69:1 98:1 114:1 
-1 1:1 2:-2 3:-1 4:-0.024691 5:-0.090909 15:1 69:1 98:1 99:1 114:1 123:1 
-1 2:3 3:1 4:0.078947 5:0.25 14:1 15:1 17:1 60:1 80:1 92:1 97:1 107:1 115:1 127:1 
-1 2:-12 3:-2 4:-0.315789 5:-0.5 15:1 60:1 77:1 78:1 92:1 97:1 99:1 101:1 107:1 115:1 127:1 
-1 1:1 2:-9 3:-1 4:-0.236842 5:-0.25 14:1 15:1 17:1 77:1 78:1 80:1 92:1 97:1 99:1 101:1 127:1 
-1 0:1 1:1 2:-6 3:-1 4:-0.12 5:-0.142857 15:1 52:1 55:1 108:1 127:1 
-1 2:6 3:2 4:0.12 5:0.285714 15:1 32:1 43:1 52:1 55:1 61:1 127:1 
-1 2:-20 3:-3 4:-0.4 5:-0.428571 15:1 52:1 55:1 99:1 109:1 120:1 127:1 
-1 2:-18 3:-2 4:-0.36 5:-0.285714 15:1 43:1 52:1 55:1 99:1 109:1 118:1 120:1 127:1 
-1 1:1 2:-14 3:-1 4:-0.28 5:-0.142857 15:1 32:1 43:1 61:1 99:1 109:1 120:1 
-1 2:4 3:1 4:0.078431 5:0.2 15:1 61:1 92:1 101:1 
-1 2:-7 3:-2 4:-0.137255 5:-0.4 15:1 57:1 61:1 92:1 101:1 107:1 
-1 1:1 2:-2 3:-1 4:-0.039216 5:-0.2 15:1 57:1 61:1 92:1 107:1 
-1 2:4 3:1 4:0.083333 5:0.2 14:1 15:1 25:1 53:1 92:1 124:1 126:1 
-1 1:1 2:-4 3:-1 4:-0.083333 5:-0.2 14:1 15:1 25:1 53:1 92:1 124:1 126:1 
-1 2:-13 3:-3 4:-0.270833 5:-0.6 15:1 53:1 61:1 78:1 92:1 124:1 126:1 
-1 2:-8 3:-2 4:-0.166667 5:-0.4 14:1 15:1 25:1 61:1 78:1 92:1 126:1 
-1 1:1 2:-3 3:-1 4:-0.0625 5:-0.2 15:1 25:1 61:1 78:1 92:1 
-1 0:1 2:-18 3:-3 4:-0.514286 5:-0.5 17:1 51:1 66:1 96:1 99:1 104:1 113:1 
-1 1:1 2:-3 3:-1 4:-0.085714 5:-0.166667 20:1 51:1 66:1 69:1 97:1 99:1 113:1 
-1 0:1 2:-32 3:-5 4:-0.914286 5:-0.833333 17:1 78:1 96:1 104:1 127:1 
-1 2:-17 3:-3 4:-0.485714 5:-0.5 20:1 51:1 69:1 78:1 97:1 113:1 127:1 
-1 2:-14 3:-2 4:-0.4 5:-0.333333 51:1 66:1 78:1 99:1 113:1 127:1 
-1 1:1 2:-6 3:-1 4:-0.171429 5:-0.166667 15:1 78:1 99:1 114:1 127:1 
-1 0:1 2:-10 3:-2 4:-0.526316 5:-0.5 11:1 17:1 35:1 98:1 107:1 120:1 127:1 
-1 1:1 2:-7 3:-1 4:-0.368421 5:-0.25 11:1 15:1 17:1 35:1 98:1 107:1 116:1 120:1 127:1 
-1 2:-10 3:-2 4:-0.526316 5:-0.5 7:1 11:1 15:1 17:1 48:1 107:1 112:1 113:1 116:1 127:1 
-1 1:1 2:-3 3:-1 4:-0.157895 5:-0.25 7:1 11:1 15:1 17:1 35:1 48:1 98:1 107:1 112:1 113:1 120:1 
-1 2:-10 3:-2 4:-0.555556 5:-0.5 15:1 33:1 52:1 61:1 70:1 78:1 79:1 92:1 107:1 127:1 
-1 1:1 2:-3 3:-1 4:-0.166667 5:-0.25 14:1 61:1 70:1 76:1 78:1 107:1 127:1 
-1 2:6 3:1 4:0.230769 5:0.2 15:1 31:1 52:1 92:1 99:1 127:1 
-1 2:-8 3:-2 4:-0.307692 5:-0.4 15:1 31:1 52:1 92:1 99:1 127:1 
-1 1:1 2:-2 3:-1 4:-0.076923 5:-0.2 15:1 31:1 92:1 99:1 
-1 2:-15 3:-3 4:-0.576923 5:-0.6 15:1 48:1 52:1 92:1 99:1 107:1 127:1 
-1 2:-9 3:-2 4:-0.346154 5:-0.4 15:1 31:1 48:1 92:1 99:1 107:1 127:1 
-1 1:1 2:-7 3:-1 4:-0.269231 5:-0.2 15:1 31:1 48:1 99:1 107:1 127:1 
-1 2:-11 3:-2 4:-0.180328 5:-0.222222 17:1 48:1 54:1 55:1 85:1 89:1 99:1 120:1 127:1 
-1 1:1 2:-3 3:-1 4:-0.04918 5:-0.111111 48:1 55:1 63:1 85:1 89:1 99:1 127:1 
-1 2:3 3:1 4:0.04918 5:0.111111 33:1 48:1 55:1 63:1 85:1 89:1 99:1 127:1 
-1 2:6 3:2 4:0.098361 5:0.222222 15:1 48:1 55:1 85:1 89:1 99:1 127:1 
-1 0:1 2:-48 3:-6 4:-0.786885 5:-0.666667 15:1 22:1 55:1 79:1 92:1 96:1 99:1 
-1 2:-27 3:-5 4:-0.442623 5:-0.555556 15:1 17:1 22:1 54:1 55:1 79:1 92:1 96:1 99:1 120:1 127:1 
-1 2:-19 3:-4 4:-0.311475 5:-0.444444 15:1 22:1 48:1 55:1 63:1 79:1 92:1 96:1 99:1 127:1 
-1 2:-15 3:-3 4:-0.245902 5:-0.333333 15:1 22:1 48:1 55:1 79:1 85:1 89:1 92:1 96:1 99:1 127:1 
-1 2:-12 3:-2 4:-0.196721 5:-0.222222 15:1 22:1 33:1 55:1 63:1 79:1 92:1 96:1 99:1 127:1 
-1 0:1 2:-56 3:-7 4:-0.918033 5:-0.777778 14:1 15:1 48:1 55:1 79:1 92:1 99:1 107:1 120:1 
-0.3977816947934157 2:-35 3:-6 4:-0.57377 5:-0.666667 14:1 17:1 48:1 54:1 55:1 79:1 92:1 99:1 107:1 120:1 127:1 
-1 2:-27 3:-5 4:-0.442623 5:-0.555556 14:1 48:1 55:1 63:1 79:1 92:1 99:1 107:1 120:1 127:1 
-1 2:-23 3:-4 4:-0.377049 5:-0.444444 14:1 48:1 55:1 79:1 85:1 89:1 92:1 99:1 107:1 120:1 127:1 
-1 2:-20 3:-3 4:-0.327869 5:-0.333333 14:1 33:1 48:1 55:1 63:1 79:1 92:1 99:1 107:1 120:1 127:1 
-1 1:1 2:-7 3:-1 4:-0.114754 5:-0.111111 14:1 15:1 22:1 48:1 79:1 92:1 96:1 99:1 107:1 120:1 
-1 2:3 3:1 4:0.04918 5:0.111111 14:1 48:1 79:1 92:1 99:1 107:1 120:1 
-1 0:1 2:-59 3:-8 4:-0.967213 5:-0.888889 15:1 48:1 55:1 79:1 92:1 107:1 
-0.5142307074333847 2:-30 3:-6 4:-0.491803 5:-0.666667 48:1 55:1 63:1 79:1 92:1 107:1 127:1 
-1 2:-26 3:-5 4:-0.42623 5:-0.555556 48:1 55:1 79:1 85:1 89:1 92:1 99:1 107:1 127:1 
-1 2:-23 3:-4 4:-0.377049 5:-0.444444 33:1 48:1 55:1 63:1 79:1 92:1 99:1 107:1 127:1 
-1 2:-10 3:-2 4:-0.163934 5:-0.222222 15:1 22:1 48:1 79:1 92:1 96:1 99:1 107:1 
-1 1:1 2:-3 3:-1 4:-0.04918 5:-0.111111 14:1 48:1 79:1 92:1 99:1 107:1 120:1 
-1 0:1 2:-21 3:-4 4:-0.567568 5:-0.5 15:1 26:1 55:1 67:1 92:1 114:1 127:1 
-1 2:-12 3:-3 4:-0.324324 5:-0.375 15:1 55:1 92:1 99:1 114:1 127:1 
-1 2:-8 3:-2 4:-0.216216 5:-0.25 15:1 55:1 99:1 114:1 119:1 127:1 
-1 1:1 2:-6 3:-1 4:-0.162162 5:-0.125 15:1 55:1 114:1 127:1 
-1 2:6 3:2 4:0.162162 5:0.25 15:1 55:1 114:1 120:1 127:1 
-1 0:1 2:-27 3:-6 4:-0.72973 5:-0.75 15:1 26:1 55:1 67:1 92:1 114:1 120:1 127:1 
-1 2:-14 3:-4 4:-0.378378 5:-0.5 15:1 55:1 99:1 114:1 119:1 120:1 127:1 
-1 2:-6 3:-2 4:-0.162162 5:-0.25 15:1 55:1 114:1 120:1 127:1 
-1 1:1 2:-3 3:-1 4:-0.081081 5:-0.125 15:1 34:1 55:1 114:1 120:1 127:1 
-1 1:1 2:-21 3:-1 4:-0.617647 5:-0.25 15:1 17:1 18:1 39:1 48:1 92:1 97:1 99:1 107:1 120:1 
-1 2:-13 3:-2 4:-0.52 5:-0.4 7:1 15:1 38:1 49:1 51:1 92:1 94:1 107:1 
-1 1:1 2:-2 3:-1 4:-0.08 5:-0.2 7:1 15:1 16:1 38:1 61:1 92:1 107:1 
-0.754523219355665 2:5 3:1 4:0.2 5:0.2 7:1 15:1 38:1 78:1 92:1 107:1 
-1 2:-19 3:-3 4:-0.76 5:-0.6 7:1 15:1 49:1 51:1 78:1 92:1 94:1 107:1 
-1 2:-8 3:-2 4:-0.32 5:-0.4 7:1 15:1 16:1 61:1 78:1 92:1 107:1 
-1 1:1 2:-5 3:-1 4:-0.2 5:-0.2 7:1 15:1 38:1 78:1 92:1 107:1 
-1 2:-20 3:-2 4:-0.465116 5:-0.4 15:1 32:1 100:1 109:1 127:1 
-1 1:1 2:-15 3:-1 4:-0.348837 5:-0.2 15:1 32:1 67:1 109:1 127:1 
-1 2:3 3:1 4:0.028571 5:0.071429 15:1 16:1 32:1 57:1 58:1 92:1 107:1 127:1 
-1 1:1 2:-3 3:-1 4:-0.028571 5:-0.071429 15:1 16:1 32:1 57:1 58:1 92:1 107:1 127:1 
-1 0:1 2:-74 3:-10 4:-0.704762 5:-0.714286 6:1 15:1 21:1 49:1 59:1 61:1 78:1 92:1 100:1 107:1 109:1 127:1 
-1 2:-55 3:-9 4:-0.52381 5:-0.642857 15:1 16:1 21:1 57:1 61:1 92:1 100:1 107:1 109:1 127:1 
-1 2:-51 3:-8 4:-0.485714 5:-0.571429 15:1 21:1 32:1 58:1 61:1 92:1 100:1 107:1 109:1 127:1 
-0.8157570354845314 2:-19 3:-4 4:-0.180952 5:-0.285714 15:1 21:1 61:1 92:1 100:1 107:1 109:1 112:1 127:1 
-1 2:-17 3:-3 4:-0.161905 5:-0.214286 15:1 21:1 61:1 92:1 100:1 107:1 109:1 112:1 127:1 
-1 2:-16 3:-2 4:-0.152381 5:-0.142857 15:1 21:1 61:1 78:1 92:1 100:1 107:1 109:1 127:1 
-1 2:5 3:1 4:0.047619 5:0.071429 15:1 21:1 32:1 61:1 92:1 100:1 107:1 127:1 
-1 0:1 2:-79 3:-11 4:-0.752381 5:-0.785714 6:1 15:1 21:1 32:1 49:1 59:1 78:1 92:1 100:1 107:1 109:1 
-1 2:-56 3:-9 4:-0.533333 5:-0.642857 15:1 21:1 32:1 58:1 92:1 100:1 107:1 109:1 127:1 
-0.8818985066041065 2:-28 3:-6 4:-0.266667 5:-0.428571 15:1 21:1 32:1 74:1 87:1 92:1 100:1 107:1 109:1 
-0.1252022547845482 2:-24 3:-5 4:-0.228571 5:-0.357143 15:1 21:1 32:1 92:1 100:1 107:1 109:1 112:1 127:1 
-1 2:-22 3:-4 4:-0.209524 5:-0.285714 15:1 21:1 32:1 92:1 100:1 107:1 109:1 112:1 127:1 
-1 2:-21 3:-3 4:-0.2 5:-0.214286 15:1 21:1 32:1 78:1 92:1 100:1 107:1 109:1 127:1 
-1 1:1 2:-5 3:-1 4:-0.047619 5:-0.071429 15:1 21:1 32:1 61:1 92:1 100:1 107:1 127:1 
-1 0:1 2:-90 3:-12 4:-0.857143 5:-0.857143 6:1 15:1 49:1 59:1 61:1 78:1 91:1 92:1 107:1 109:1 
-0.2382656944001296 2:-71 3:-11 4:-0.67619 5:-0.785714 15:1 16:1 57:1 61:1 91:1 92:1 107:1 109:1 127:1 
-1 2:-67 3:-10 4:-0.638095 5:-0.714286 15:1 32:1 58:1 61:1 91:1 92:1 107:1 109:1 127:1 
-1 2:-48 3:-9 4:-0.457143 5:-0.642857 15:1 61:1 78:1 91:1 92:1 107:1 109:1 
-1 2:-39 3:-7 4:-0.371429 5:-0.5 15:1 61:1 74:1 87:1 91:1 92:1 107:1 109:1 
-1 2:-35 3:-6 4:-0.333333 5:-0.428571 15:1 61:1 91:1 92:1 107:1 109:1 112:1 127:1 
-1 2:-33 3:-5 4:-0.314286 5:-0.357143 15:1 61:1 91:1 92:1 107:1 109:1 112:1 127:1 
-1 2:-32 3:-4 4:-0.304762 5:-0.285714 15:1 61:1 78:1 91:1 92:1 107:1 109:1 127:1 
-1 2:-16 3:-2 4:-0.152381 5:-0.142857 15:1 21:1 61:1 91:1 92:1 100:1 107:1 127:1 
-1 1:1 2:-10 3:-1 4:-0.095238 5:-0.071429 15:1 21:1 32:1 61:1 91:1 92:1 100:1 
-1 0:1 2:-101 3:-13 4:-0.961905 5:-0.928571 6:1 32:1 49:1 59:1 78:1 92:1 99:1 107:1 109:1 
-1 2:-82 3:-12 4:-0.780952 5:-0.857143 15:1 16:1 32:1 57:1 78:1 92:1 99:1 107:1 109:1 127:1 
-1 2:-78 3:-11 4:-0.742857 5:-0.785714 15:1 32:1 58:1 78:1 92:1 99:1 107:1 109:1 127:1 
-0.2770544311439721 2:-53 3:-9 4:-0.504762 5:-0.642857 15:1 32:1 74:1 78:1 87:1 92:1 99:1 107:1 109:1 
-1 2:-50 3:-8 4:-0.47619 5:-0.571429 15:1 32:1 74:1 78:1 87:1 92:1 99:1 107:1 109:1 
-1 2:-46 3:-7 4:-0.438095 5:-0.5 15:1 32:1 78:1 92:1 99:1 107:1 109:1 112:1 127:1 
-1 2:-44 3:-6 4:-0.419048 5:-0.428571 32:1 78:1 92:1 99:1 107:1 109:1 112:1 127:1 
-1 2:-43 3:-5 4:-0.409524 5:-0.357143 32:1 78:1 92:1 99:1 107:1 109:1 127:1 
-1 2:-27 3:-3 4:-0.257143 5:-0.214286 15:1 21:1 32:1 61:1 78:1 92:1 99:1 100:1 107:1 127:1 
-1 2:-21 3:-2 4:-0.2 5:-0.142857 15:1 21:1 32:1 78:1 92:1 99:1 100:1 
-1 1:1 2:-10 3:-1 4:-0.095238 5:-0.071429 15:1 32:1 61:1 78:1 91:1 92:1 99:1 
-1 1:1 2:-20 3:-1 4:-0.215054 5:-0.090909 6:1 15:1 59:1 61:1 92:1 99:1 107:1 109:1 120:1 
-1 2:-39 3:-4 4:-0.419355 5:-0.363636 6:1 15:1 32:1 38:1 90:1 92:1 107:1 109:1 
-1 2:-18 3:-3 4:-0.193548 5:-0.272727 15:1 32:1 38:1 59:1 61:1 90:1 92:1 99:1 107:1 120:1 
-1 2:-11 3:-2 4:-0.11828 5:-0.181818 15:1 32:1 38:1 67:1 87:1 90:1 92:1 99:1 107:1 
-1 1:1 2:-2 3:-1 4:-0.021505 5:-0.090909 15:1 16:1 32:1 38:1 57:1 90:1 92:1 107:1 
-1 0:1 2:-64 3:-6 4:-0.688172 5:-0.545455 15:1 32:1 55:1 78:1 92:1 107:1 109:1 121:1 127:1 
-1 2:-59 3:-5 4:-0.634409 5:-0.454545 6:1 15:1 32:1 55:1 78:1 92:1 107:1 109:1 121:1 127:1 
-1 2:-38 3:-4 4:-0.408602 5:-0.363636 15:1 32:1 55:1 59:1 61:1 78:1 92:1 99:1 107:1 120:1 121:1 127:1 
-1 2:-31 3:-3 4:-0.333333 5:-0.272727 15:1 32:1 55:1 67:1 78:1 87:1 92:1 99:1 107:1 121:1 127:1 
-1 2:-22 3:-2 4:-0.236559 5:-0.181818 15:1 16:1 32:1 55:1 57:1 78:1 92:1 107:1 121:1 127:1 
-1 1:1 2:-19 3:-1 4:-0.204301 5:-0.090909 15:1 32:1 38:1 55:1 78:1 90:1 92:1 121:1 127:1 
-1 2:7 3:2 4:0.075269 5:0.181818 15:1 32:1 49:1 55:1 78:1 94:1 121:1 127:1 
-1 2:-80 3:-9 4:-0.860215 5:-0.818182 6:1 15:1 38:1 55:1 78:1 92:1 107:1 109:1 
-1 2:-59 3:-8 4:-0.634409 5:-0.727273 15:1 38:1 55:1 59:1 61:1 78:1 92:1 99:1 107:1 120:1 
-1 2:-52 3:-7 4:-0.55914 5:-0.636364 15:1 38:1 55:1 67:1 78:1 87:1 92:1 99:1 107:1 
-1 2:-43 3:-6 4:-0.462366 5:-0.545455 15:1 16:1 38:1 55:1 57:1 78:1 92:1 107:1 
-1 2:-40 3:-5 4:-0.430108 5:-0.454545 15:1 32:1 38:1 55:1 78:1 90:1 92:1 107:1 
-1 2:-20 3:-4 4:-0.215054 5:-0.363636 15:1 32:1 38:1 55:1 78:1 107:1 121:1 127:1 
-1 2:-17 3:-3 4:-0.182796 5:-0.272727 12:1 15:1 38:1 49:1 55:1 78:1 104:1 107:1 127:1 
-1 2:-13 3:-2 4:-0.139785 5:-0.181818 15:1 38:1 49:1 55:1 78:1 94:1 107:1 121:1 
-1 1:1 2:-2 3:-1 4:-0.021505 5:-0.090909 15:1 16:1 38:1 60:1 61:1 78:1 107:1 
-1 1:1 2:-6 3:-1 4:-0.12766 5:-0.166667 15:1 49:1 51:1 55:1 61:1 94:1 104:1 122:1 127:1 
-1 2:-21 3:-3 4:-0.446809 5:-0.5 15:1 17:1 38:1 49:1 51:1 55:1 61:1 87:1 97:1 104:1 107:1 122:1 127:1 
-1 2:-15 3:-2 4:-0.319149 5:-0.333333 15:1 17:1 38:1 49:1 51:1 61:1 87:1 94:1 97:1 107:1 
-1 1:1 2:-4 3:-1 4:-0.085106 5:-0.166667 15:1 17:1 38:1 57:1 87:1 97:1 107:1 
-1 0:1 2:-35 3:-5 4:-0.744681 5:-0.833333 7:1 15:1 35:1 55:1 83:1 92:1 94:1 107:1 121:1 127:1 
-1 2:-31 3:-4 4:-0.659574 5:-0.666667 7:1 15:1 49:1 51:1 55:1 61:1 83:1 92:1 94:1 104:1 107:1 122:1 127:1 
-1 2:-25 3:-3 4:-0.531915 5:-0.5 7:1 15:1 49:1 51:1 61:1 83:1 92:1 94:1 107:1 
-1 2:-14 3:-2 4:-0.297872 5:-0.333333 7:1 15:1 57:1 83:1 87:1 92:1 94:1 107:1 
-1 0:1 2:-17 3:-4 4:-0.85 5:-0.8 15:1 48:1 55:1 62:1 109:1 127:1 
-1 2:-10 3:-2 4:-0.5 5:-0.4 15:1 48:1 55:1 62:1 109:1 127:1 
-1 1:1 2:-6 3:-1 4:-0.3 5:-0.2 15:1 48:1 109:1 127:1 
-1 0:1 2:-21 3:-5 4:-0.875 5:-0.833333 15:1 24:1 78:1 109:1 127:1 
-1 2:-15 3:-4 4:-0.625 5:-0.666667 15:1 17:1 24:1 47:1 78:1 104:1 109:1 127:1 
-1 2:-14 3:-3 4:-0.583333 5:-0.5 15:1 17:1 24:1 47:1 78:1 91:1 109:1 127:1 
-1 1:1 2:-4 3:-1 4:-0.166667 5:-0.166667 15:1 78:1 109:1 127:1 
-1 0:1 2:-22 3:-4 4:-0.814815 5:-0.666667 7:1 15:1 51:1 78:1 92:1 104:1 107:1 122:1 126:1 
-1 2:-16 3:-2 4:-0.592593 5:-0.333333 7:1 15:1 49:1 51:1 78:1 92:1 94:1 104:1 107:1 126:1 
-1 1:1 2:-5 3:-1 4:-0.185185 5:-0.166667 7:1 15:1 61:1 78:1 92:1 107:1 126:1 
-1 2:3 3:1 4:0.111111 5:0.166667 7:1 15:1 78:1 92:1 126:1 
-1 0:1 2:-25 3:-5 4:-0.925926 5:-0.833333 7:1 51:1 78:1 92:1 104:1 107:1 122:1 126:1 
-1 2:-23 3:-4 4:-0.851852 5:-0.666667 7:1 49:1 51:1 78:1 92:1 107:1 126:1 
-1 2:-19 3:-3 4:-0.703704 5:-0.5 7:1 15:1 49:1 51:1 78:1 92:1 94:1 104:1 107:1 126:1 
-1 2:-8 3:-2 4:-0.296296 5:-0.333333 7:1 15:1 61:1 78:1 92:1 107:1 126:1 
-1 0:1 1:1 2:-6 3:-1 4:-0.375 5:-0.25 15:1 55:1 107:1 
-1 2:6 3:2 4:0.375 5:0.5 15:1 48:1 55:1 107:1 127:1 
-1 0:1 2:-28 3:-6 4:-0.56 5:-0.5 19:1 48:1 55:1 85:1 92:1 107:1 127:1 
-1 2:-25 3:-5 4:-0.5 5:-0.416667 15:1 19:1 48:1 55:1 61:1 85:1 92:1 107:1 127:1 
-1 2:-17 3:-4 4:-0.34 5:-0.333333 48:1 55:1 85:1 92:1 107:1 127:1 
-1 2:-11 3:-3 4:-0.22 5:-0.25 48:1 55:1 85:1 92:1 99:1 107:1 127:1 
-1 2:-8 3:-2 4:-0.16 5:-0.166667 48:1 55:1 85:1 92:1 99:1 107:1 127:1 
-1 1:1 2:-5 3:-1 4:-0.1 5:-0.083333 48:1 55:1 85:1 107:1 127:1 
-1 2:6 3:2 4:0.12 5:0.166667 48:1 55:1 58:1 74:1 85:1 107:1 127:1 
-1 0:1 2:-34 3:-8 4:-0.68 5:-0.666667 19:1 48:1 55:1 58:1 74:1 85:1 92:1 107:1 127:1 
-1 2:-11 3:-3 4:-0.22 5:-0.25 48:1 55:1 58:1 74:1 85:1 107:1 127:1 
-1 2:-6 3:-2 4:-0.12 5:-0.166667 48:1 55:1 58:1 74:1 85:1 107:1 127:1 
-1 2:3 3:1 4:0.06 5:0.083333 48:1 55:1 58:1 74:1 85:1 125:1 127:1 
-1 2:6 3:2 4:0.12 5:0.166667 15:1 48:1 55:1 58:1 74:1 85:1 127:1 
-1 0:1 2:-37 3:-9 4:-0.74 5:-0.75 19:1 55:1 74:1 85:1 92:1 107:1 125:1 127:1 
-1 2:-9 3:-3 4:-0.18 5:-0.25 48:1 55:1 74:1 85:1 107:1 125:1 127:1 
-1 2:-6 3:-2 4:-0.12 5:-0.166667 48:1 55:1 74:1 118:1 125:1 127:1 
-1 1:1 2:-3 3:-1 4:-0.06 5:-0.083333 48:1 55:1 58:1 74:1 85:1 125:1 127:1 
-1 0:1 2:-17 3:-3 4:-0.414634 5:-0.333333 15:1 52:1 55:1 85:1 86:1 99:1 127:1 
-1 2:-15 3:-2 4:-0.365854 5:-0.222222 15:1 48:1 52:1 55:1 85:1 99:1 127:1 
-1 1:1 2:-10 3:-1 4:-0.243902 5:-0.111111 15:1 22:1 28:1 48:1 52:1 55:1 85:1 127:1 
-1 2:6 3:2 4:0.146341 5:0.222222 15:1 52:1 55:1 85:1 127:1 
-1 0:1 2:-33 3:-7 4:-0.804878 5:-0.777778 15:1 52:1 55:1 86:1 99:1 127:1 
-1 2:-31 3:-6 4:-0.756098 5:-0.666667 15:1 48:1 52:1 55:1 85:1 99:1 127:1 
-1 2:-26 3:-5 4:-0.634146 5:-0.555556 15:1 22:1 28:1 48:1 52:1 55:1 127:1 
-1 2:-16 3:-4 4:-0.390244 5:-0.444444 15:1 52:1 55:1 85:1 127:1 
-1 2:-10 3:-2 4:-0.243902 5:-0.222222 15:1 52:1 85:1 127:1 
-1 1:1 2:-5 3:-1 4:-0.121951 5:-0.111111 15:1 52:1 127:1 
-1 2:3 3:1 4:0.073171 5:0.111111 15:1 52:1 78:1 125:1 127:1 
-1 0:1 2:-4 3:-2 4:-0.235294 5:-0.4 15:1 55:1 89:1 122:1 125:1 127:1 
-1 1:1 2:-2 3:-1 4:-0.117647 5:-0.2 15:1 55:1 89:1 122:1 125:1 127:1 
-1 2:7 3:2 4:0.411765 5:0.4 15:1 48:1 55:1 89:1 99:1 125:1 127:1 
-1 0:1 2:-7 3:-2 4:-0.318182 5:-0.666667 11:1 15:1 36:1 55:1 61:1 127:1 
-1 1:1 2:-6 3:-1 4:-0.3 5:-0.25 15:1 17:1 27:1 28:1 80:1 109:1 125:1 
-1 2:3 3:1 4:0.15 5:0.25 15:1 17:1 28:1 45:1 61:1 78:1 125:1 
-1 2:-9 3:-2 4:-0.45 5:-0.5 15:1 17:1 27:1 28:1 45:1 61:1 78:1 80:1 109:1 
-1 1:1 2:-3 3:-1 4:-0.15 5:-0.25 15:1 17:1 28:1 45:1 61:1 78:1 125:1 
-1 0:1 1:1 2:-5 3:-1 4:-0.384615 5:-0.333333 15:1 52:1 90:1 127:1 
-1 2:3 3:1 4:0.05 5:0.142857 15:1 44:1 82:1 92:1 98:1 120:1 127:1 
-1 1:1 2:-3 3:-1 4:-0.05 5:-0.142857 15:1 44:1 82:1 92:1 98:1 120:1 127:1 
-1 2:-12 3:-2 4:-0.2 5:-0.285714 10:1 15:1 44:1 60:1 61:1 74:1 92:1 96:1 98:1 120:1 122:1 127:1 
-1 1:1 2:-9 3:-1 4:-0.15 5:-0.142857 10:1 15:1 60:1 61:1 74:1 82:1 96:1 120:1 122:1 127:1 
-1 2:-41 3:-5 4:-0.683333 5:-0.714286 15:1 44:1 78:1 92:1 98:1 120:1 127:1 
-1 2:-38 3:-4 4:-0.633333 5:-0.571429 15:1 78:1 82:1 120:1 127:1 
-1 2:-28 3:-3 4:-0.466667 5:-0.428571 10:1 15:1 60:1 61:1 74:1 78:1 96:1 122:1 127:1 
-1 2:-7 3:-2 4:-0.116667 5:-0.285714 15:1 74:1 78:1 101:1 127:1 
-1 1:1 2:-3 3:-1 4:-0.05 5:-0.142857 74:1 78:1 98:1 127:1 
-1 2:3 3:1 4:0.085714 5:0.125 15:1 52:1 86:1 92:1 127:1 
-1 2:6 3:2 4:0.171429 5:0.25 15:1 51:1 52:1 86:1 92:1 127:1 
-1 0:1 2:-7 3:-2 4:-0.2 5:-0.25 15:1 52:1 92:1 127:1 
-1 1:1 2:-3 3:-1 4:-0.085714 5:-0.125 15:1 52:1 86:1 92:1 127:1 
-1 0:1 2:-27 3:-6 4:-0.771429 5:-0.75 15:1 47:1 52:1 54:1 92:1 118:1 120:1 127:1 
-1 2:-23 3:-5 4:-0.657143 5:-0.625 15:1 47:1 52:1 54:1 86:1 92:1 118:1 120:1 127:1 
-1 2:-20 3:-4 4:-0.571429 5:-0.5 15:1 47:1 52:1 54:1 92:1 118:1 120:1 127:1 
-1 2:-17 3:-3 4:-0.485714 5:-0.375 15:1 47:1 51:1 52:1 54:1 92:1 118:1 120:1 127:1 
-1 2:-12 3:-2 4:-0.342857 5:-0.25 15:1 47:1 48:1 51:1 54:1 86:1 92:1 118:1 120:1 127:1 
-1 2:4 3:1 4:0.114286 5:0.125 15:1 47:1 48:1 54:1 92:1 118:1 120:1 127:1 
-1 0:1 2:-31 3:-7 4:-0.885714 5:-0.875 15:1 47:1 48:1 52:1 92:1 127:1 
-1 2:-27 3:-6 4:-0.771429 5:-0.75 15:1 47:1 48:1 52:1 86:1 92:1 127:1 
-1 2:-24 3:-5 4:-0.685714 5:-0.625 15:1 47:1 48:1 52:1 92:1 127:1 
-1 2:-21 3:-4 4:-0.6 5:-0.5 15:1 47:1 48:1 51:1 52:1 92:1 127:1 
-1 2:-16 3:-3 4:-0.457143 5:-0.375 15:1 47:1 48:1 51:1 86:1 92:1 127:1 
-1 1:1 2:-4 3:-1 4:-0.114286 5:-0.125 15:1 47:1 48:1 54:1 92:1 118:1 120:1 127:1 
-1 2:-9 3:-2 4:-0.2 5:-0.25 15:1 48:1 52:1 94:1 106:1 113:1 127:1 
-1 1:1 2:-3 3:-1 4:-0.066667 5:-0.125 15:1 48:1 52:1 113:1 125:1 127:1 
-1 2:5 3:1 4:0.111111 5:0.125 15:1 52:1 96:1 113:1 127:1 
-1 0:1 2:-38 3:-7 4:-0.844444 5:-0.875 15:1 52:1 54:1 70:1 89:1 94:1 106:1 127:1 
-1 2:-33 3:-6 4:-0.733333 5:-0.75 15:1 48:1 52:1 54:1 70:1 89:1 94:1 106:1 127:1 
-1 2:-27 3:-5 4:-0.6 5:-0.625 15:1 48:1 52:1 54:1 70:1 89:1 125:1 127:1 
-1 2:-19 3:-3 4:-0.422222 5:-0.375 15:1 54:1 70:1 89:1 96:1 113:1 127:1 
-1 2:-9 3:-2 4:-0.2 5:-0.25 15:1 48:1 54:1 70:1 89:1 99:1 127:1 
-1 1:1 2:-3 3:-1 4:-0.066667 5:-0.125 15:1 48:1 54:1 70:1 89:1 127:1 
-1 0:1 1:1 2:-9 3:-1 4:-0.333333 5:-0.2 15:1 34:1 35:1 37:1 52:1 77:1 92:1 120:1 127:1 
-1 1:1 2:-3 3:-1 4:-0.111111 5:-0.2 15:1 31:1 34:1 35:1 37:1 52:1 92:1 120:1 127:1 
-1 2:-15 3:-3 4:-0.555556 5:-0.6 34:1 35:1 37:1 48:1 52:1 77:1 92:1 120:1 127:1 
-1 2:-11 3:-2 4:-0.407407 5:-0.4 15:1 31:1 48:1 52:1 77:1 92:1 127:1 
-1 1:1 2:-3 3:-1 4:-0.111111 5:-0.2 25:1 31:1 34:1 48:1 52:1 77:1 95:1 122:1 127:1 
-1 1:1 2:-14 3:-1 4:-0.5 5:-0.333333 15:1 24:1 48:1 72:1 94:1 95:1 
-1 0:1 1:1 2:-2 3:-1 4:-0.111111 5:-0.25 15:1 49:1 55:1 120:1 
-1 0:1 2:-49 3:-3 4:-0.644737 5:-0.5 32:1 61:1 92:1 103:1 107:1 127:1 
-1 2:-14 3:-2 4:-0.184211 5:-0.333333 15:1 37:1 61:1 92:1 107:1 120:1 124:1 127:1 
-1 2:-26 3:-3 4:-0.342105 5:-0.5 6:1 15:1 37:1 92:1 107:1 120:1 124:1 127:1 
-1 2:-16 3:-2 4:-0.210526 5:-0.333333 6:1 15:1 31:1 106:1 107:1 120:1 124:1 127:1 
-1 1:1 2:-12 3:-1 4:-0.157895 5:-0.166667 6:1 15:1 61:1 107:1 124:1 127:1 
-1 2:-12 3:-2 4:-0.5 5:-0.4 15:1 39:1 51:1 55:1 92:1 95:1 98:1 109:1 120:1 127:1 
-1 1:1 2:-4 3:-1 4:-0.166667 5:-0.2 15:1 22:1 39:1 55:1 92:1 109:1 120:1 
-1 1:1 2:-8 3:-1 4:-0.266667 5:-0.142857 15:1 17:1 61:1 74:1 80:1 96:1 109:1 
-1 2:2 3:1 4:0.066667 5:0.142857 17:1 61:1 74:1 80:1 109:1 
-1 2:-10 3:-2 4:-0.333333 5:-0.285714 15:1 17:1 61:1 74:1 80:1 96:1 109:1 
-1 1:1 2:-2 3:-1 4:-0.066667 5:-0.142857 17:1 61:1 74:1 80:1 109:1 
-1 2:2 3:1 4:0.066667 5:0.142857 15:1 17:1 61:1 74:1 80:1 109:1 
-1 2:-12 3:-3 4:-0.4 5:-0.428571 15:1 17:1 61:1 74:1 96:1 109:1 
-1 2:-4 3:-2 4:-0.133333 5:-0.285714 15:1 17:1 61:1 74:1 80:1 109:1 
-1 1:1 2:-2 3:-1 4:-0.066667 5:-0.142857 15:1 17:1 61:1 74:1 80:1 109:1 
-1 2:2 3:1 4:0.066667 5:0.142857 15:1 17:1 59:1 61:1 74:1 
-1 2:4 3:2 4:0.133333 5:0.285714 15:1 17:1 59:1 61:1 74:1 
-1 0:1 2:-23 3:-4 4:-0.821429 5:-0.8 11:1 15:1 28:1 47:1 48:1 55:1 60:1 78:1 109:1 127:1 
-1 2:-16 3:-2 4:-0.571429 5:-0.4 11:1 15:1 47:1 55:1 60:1 78:1 109:1 127:1 
-1 1:1 2:-9 3:-1 4:-0.321429 5:-0.2 7:1 11:1 15:1 47:1 60:1 78:1 84:1 99:1 109:1 
-1 0:1 2:-20 3:-3 4:-0.526316 5:-0.375 15:1 24:1 48:1 52:1 55:1 85:1 127:1 
-1 2:-14 3:-2 4:-0.368421 5:-0.25 15:1 24:1 28:1 48:1 52:1 55:1 85:1 93:1 127:1 
-1 1:1 2:-11 3:-1 4:-0.289474 5:-0.125 15:1 28:1 48:1 52:1 55:1 85:1 86:1 93:1 127:1 
-1 2:6 3:2 4:0.157895 5:0.25 48:1 52:1 55:1 85:1 105:1 109:1 127:1 
-1 0:1 2:-30 3:-6 4:-0.789474 5:-0.75 15:1 24:1 52:1 55:1 63:1 98:1 109:1 127:1 
-1 2:-21 3:-4 4:-0.552632 5:-0.5 15:1 28:1 48:1 52:1 55:1 63:1 86:1 93:1 98:1 109:1 127:1 
-1 2:-10 3:-3 4:-0.263158 5:-0.375 15:1 48:1 52:1 55:1 63:1 85:1 98:1 109:1 127:1 
-1 2:-7 3:-2 4:-0.184211 5:-0.25 15:1 48:1 55:1 63:1 98:1 109:1 118:1 127:1 
-1 2:3 3:1 4:0.078947 5:0.125 7:1 15:1 48:1 63:1 98:1 105:1 109:1 127:1 
-1 0:1 2:-33 3:-7 4:-0.868421 5:-0.875 7:1 15:1 24:1 48:1 52:1 55:1 105:1 109:1 127:1 
-1 2:-24 3:-5 4:-0.631579 5:-0.625 7:1 15:1 28:1 48:1 52:1 55:1 86:1 93:1 105:1 109:1 127:1 
-1 2:-13 3:-4 4:-0.342105 5:-0.5 7:1 15:1 48:1 52:1 55:1 85:1 105:1 109:1 127:1 
-1 2:-10 3:-3 4:-0.263158 5:-0.375 7:1 15:1 48:1 55:1 105:1 109:1 118:1 127:1 
-1 1:1 2:-3 3:-1 4:-0.078947 5:-0.125 7:1 15:1 48:1 63:1 98:1 105:1 109:1 127:1 
-1 1:1 2:-7 3:-1 4:-0.175 5:-0.2 10:1 15:1 22:1 44:1 61:1 71:1 92:1 96:1 98:1 
-1 2:3 3:1 4:0.075 5:0.2 10:1 15:1 22:1 37:1 71:1 92:1 96:1 98:1 104:1 122:1 
-1 0:1 2:-29 3:-3 4:-0.725 5:-0.6 15:1 37:1 92:1 96:1 104:1 122:1 
-1 2:-11 3:-2 4:-0.275 5:-0.4 15:1 22:1 37:1 44:1 61:1 71:1 92:1 96:1 104:1 122:1 
-1 0:1 2:-12 3:-2 4:-0.857143 5:-0.666667 15:1 78:1 82:1 92:1 101:1 
-1 1:1 2:-7 3:-1 4:-0.212121 5:-0.25 15:1 17:1 48:1 52:1 95:1 98:1 107:1 
-1 2:2 3:1 4:0.060606 5:0.25 15:1 17:1 48:1 58:1 95:1 98:1 107:1 
-1 2:-9 3:-2 4:-0.272727 5:-0.5 15:1 17:1 48:1 52:1 58:1 95:1 107:1 
-1 1:1 2:-2 3:-1 4:-0.060606 5:-0.25 15:1 17:1 48:1 58:1 95:1 98:1 107:1 
-1 1:1 2:-3 3:-1 4:-0.130435 5:-0.333333 15:1 17:1 24:1 26:1 35:1 48:1 98:1 
-1 0:1 2:-14 3:-2 4:-0.466667 5:-0.333333 10:1 15:1 78:1 92:1 99:1 114:1 127:1 
-1 2:5 3:1 4:0.166667 5:0.166667 10:1 15:1 35:1 52:1 92:1 104:1 114:1 127:1 
-1 0:1 2:-19 3:-3 4:-0.633333 5:-0.5 10:1 15:1 35:1 52:1 78:1 92:1 99:1 104:1 114:1 127:1 
-1 2:-13 3:-2 4:-0.433333 5:-0.333333 10:1 15:1 21:1 35:1 52:1 78:1 92:1 99:1 104:1 114:1 127:1 
-1 1:1 2:-5 3:-1 4:-0.166667 5:-0.166667 10:1 15:1 35:1 52:1 92:1 104:1 114:1 127:1 
-1 0:1 2:-22 3:-4 4:-0.733333 5:-0.666667 15:1 52:1 78:1 92:1 96:1 98:1 99:1 127:1 
-1 2:-8 3:-2 4:-0.266667 5:-0.333333 10:1 15:1 52:1 92:1 96:1 98:1 114:1 127:1 
-1 1:1 2:-3 3:-1 4:-0.1 5:-0.166667 10:1 15:1 35:1 52:1 96:1 98:1 104:1 114:1 127:1 
-1 2:5 3:1 4:0.166667 5:0.166667 15:1 52:1 78:1 96:1 98:1 127:1 
-1 0:1 2:-12 3:-3 4:-0.8 5:-0.75 28:1 47:1 48:1 55:1 78:1 92:1 120:1 127:1 
-1 1:1 2:-5 3:-1 4:-0.333333 5:-0.25 47:1 55:1 78:1 92:1 120:1 127:1 
-1 1:1 2:-6 3:-1 4:-0.5 5:-0.333333 15:1 28:1 47:1 55:1 78:1 92:1 120:1 127:1 
-1 1:1 2:-4 3:-1 4:-0.121212 5:-0.142857 11:1 15:1 35:1 36:1 55:1 105:1 109:1 127:1 
-1 2:4 3:1 4:0.121212 5:0.142857 11:1 15:1 34:1 36:1 48:1 52:1 98:1 105:1 109:1 127:1 
-1 2:-9 3:-2 4:-0.272727 5:-0.285714 11:1 15:1 34:1 35:1 48:1 52:1 55:1 98:1 109:1 127:1 
-1 1:1 2:-4 3:-1 4:-0.121212 5:-0.142857 11:1 15:1 34:1 36:1 48:1 52:1 98:1 105:1 109:1 127:1 
-1 2:7 3:1 4:0.212121 5:0.142857 7:1 15:1 34:1 48:1 52:1 55:1 98:1 99:1 109:1 127:1 
-1 0:1 2:-19 3:-4 4:-0.575758 5:-0.571429 7:1 15:1 34:1 36:1 52:1 55:1 99:1 109:1 127:1 
-1 2:-16 3:-3 4:-0.484848 5:-0.428571 7:1 11:1 15:1 34:1 35:1 52:1 55:1 99:1 109:1 127:1 
-1 1:1 2:-7 3:-1 4:-0.212121 5:-0.142857 7:1 15:1 34:1 48:1 52:1 55:1 98:1 99:1 109:1 127:1 
-1 2:6 3:1 4:0.181818 5:0.142857 7:1 15:1 34:1 55:1 69:1 99:1 127:1 
-1 1:1 2:-3 3:-1 4:-0.085714 5:-0.125 11:1 15:1 44:1 54:1 63:1 92:1 98:1 120:1 
-1 2:5 3:1 4:0.142857 5:0.125 11:1 15:1 33:1 44:1 48:1 55:1 92:1 120:1 127:1 
-1 0:1 2:-14 3:-3 4:-0.4 5:-0.375 33:1 44:1 48:1 54:1 55:1 92:1 120:1 127:1 
-1 2:-9 3:-2 4:-0.257143 5:-0.25 11:1 15:1 33:1 44:1 48:1 54:1 55:1 63:1 92:1 98:1 120:1 127:1 
-1 2:3 3:1 4:0.085714 5:0.125 33:1 44:1 48:1 55:1 92:1 120:1 127:1 
-1 1:1 2:-8 3:-1 4:-0.242424 5:-0.142857 14:1 15:1 22:1 79:1 92:1 96:1 99:1 107:1 120:1 
-1 2:3 3:1 4:0.090909 5:0.142857 14:1 15:1 79:1 92:1 107:1 120:1 
-1 2:-11 3:-2 4:-0.333333 5:-0.285714 15:1 22:1 79:1 92:1 96:1 99:1 107:1 
-1 1:1 2:-3 3:-1 4:-0.090909 5:-0.142857 14:1 15:1 79:1 92:1 107:1 120:1 
-1 2:-16 3:-3 4:-0.484848 5:-0.428571 14:1 15:1 22:1 79:1 92:1 96:1 99:1 107:1 
-1 2:-8 3:-2 4:-0.242424 5:-0.285714 14:1 15:1 79:1 92:1 99:1 107:1 120:1 
-1 1:1 2:-5 3:-1 4:-0.151515 5:-0.142857 14:1 15:1 79:1 99:1 107:1 
-1 2:2 3:1 4:0.060606 5:0.142857 14:1 15:1 58:1 79:1 99:1 107:1 109:1 
-1 2:-18 3:-4 4:-0.545455 5:-0.571429 15:1 22:1 58:1 79:1 92:1 96:1 99:1 107:1 109:1 
-1 2:-10 3:-3 4:-0.30303 5:-0.428571 14:1 15:1 58:1 79:1 92:1 99:1 107:1 109:1 120:1 
-1 2:-7 3:-2 4:-0.212121 5:-0.285714 15:1 58:1 79:1 99:1 107:1 109:1 
-1 1:1 2:-2 3:-1 4:-0.060606 5:-0.142857 14:1 15:1 58:1 79:1 99:1 107:1 109:1 
-1 2:-25 3:-5 4:-0.480769 5:-0.5 11:1 15:1 55:1 86:1 107:1 127:1 
-1 2:-19 3:-4 4:-0.365385 5:-0.4 11:1 15:1 55:1 86:1 99:1 107:1 120:1 127:1 
-1 2:-9 3:-3 4:-0.173077 5:-0.3 48:1 55:1 70:1 86:1 107:1 127:1 
-1 2:-6 3:-2 4:-0.115385 5:-0.2 48:1 55:1 86:1 127:1 
-1 1:1 2:-3 3:-1 4:-0.057692 5:-0.1 48:1 55:1 86:1 127:1 
-1 2:3 3:1 4:0.057692 5:0.1 15:1 55:1 86:1 127:1 
-1 2:-17 3:-4 4:-0.326923 5:-0.4 15:1 48:1 55:1 78:1 92:1 127:1 
-1 2:-14 3:-3 4:-0.269231 5:-0.3 15:1 55:1 78:1 86:1 92:1 127:1 
-1 2:-11 3:-2 4:-0.211538 5:-0.2 15:1 55:1 78:1 92:1 127:1 
-1 1:1 2:-6 3:-1 4:-0.115385 5:-0.1 15:1 60:1 78:1 92:1 127:1 
-1 1:1 2:-3 3:-1 4:-0.136364 5:-0.25 15:1 48:1 120:1 127:1 
-1 2:4 3:1 4:0.181818 5:0.25 7:1 15:1 48:1 127:1 
-1 1:1 2:-6 3:-1 4:-0.25 5:-0.2 15:1 47:1 48:1 99:1 107:1 127:1 
-1 2:5 3:1 4:0.208333 5:0.2 15:1 47:1 48:1 99:1 127:1 
-1 1:1 2:-7 3:-1 4:-0.259259 5:-0.25 15:1 47:1 51:1 69:1 76:1 127:1 
-1 2:4 3:1 4:0.148148 5:0.25 15:1 51:1 63:1 69:1 70:1 76:1 127:1 
-1 0:1 2:-9 3:-2 4:-0.346154 5:-0.4 15:1 55:1 85:1 96:1 127:1 
-1 1:1 2:-6 3:-1 4:-0.230769 5:-0.2 15:1 55:1 85:1 96:1 127:1 
-1 1:1 2:-3 3:-1 4:-0.031915 5:-0.083333 15:1 92:1 96:1 104:1 105:1 109:1 120:1 127:1 
-1 2:2 3:1 4:0.021277 5:0.083333 15:1 82:1 96:1 104:1 105:1 109:1 114:1 127:1 
-1 2:-5 3:-2 4:-0.053191 5:-0.166667 15:1 82:1 92:1 96:1 105:1 109:1 114:1 120:1 127:1 
-1 1:1 2:-2 3:-1 4:-0.021277 5:-0.083333 15:1 82:1 96:1 104:1 105:1 109:1 114:1 127:1 
-1 2:-11 3:-3 4:-0.117021 5:-0.25 15:1 82:1 92:1 105:1 109:1 114:1 120:1 127:1 
-1 2:-8 3:-2 4:-0.085106 5:-0.166667 15:1 82:1 92:1 96:1 104:1 109:1 114:1 127:1 
-1 1:1 2:-6 3:-1 4:-0.06383 5:-0.083333 15:1 82:1 92:1 96:1 105:1 109:1 114:1 127:1 
-1 0:1 2:-55 3:-6 4:-0.585106 5:-0.5 15:1 64:1 65:1 78:1 92:1 107:1 109:1 110:1 127:1 
-1 2:-34 3:-5 4:-0.361702 5:-0.416667 15:1 78:1 92:1 105:1 107:1 109:1 110:1 120:1 127:1 
-1 2:-31 3:-4 4:-0.329787 5:-0.333333 15:1 78:1 92:1 96:1 104:1 107:1 109:1 110:1 127:1 
-1 2:-29 3:-3 4:-0.308511 5:-0.25 15:1 78:1 82:1 92:1 96:1 105:1 107:1 109:1 110:1 114:1 127:1 
-1 2:-23 3:-2 4:-0.244681 5:-0.166667 15:1 78:1 82:1 92:1 107:1 110:1 114:1 127:1 
-1 0:1 2:-72 3:-8 4:-0.765957 5:-0.666667 10:1 15:1 64:1 65:1 92:1 107:1 109:1 127:1 
-1 2:-51 3:-7 4:-0.542553 5:-0.583333 10:1 15:1 92:1 105:1 107:1 109:1 120:1 127:1 
-1 2:-48 3:-6 4:-0.510638 5:-0.5 10:1 15:1 92:1 96:1 104:1 107:1 109:1 127:1 
-1 2:-46 3:-5 4:-0.489362 5:-0.416667 10:1 15:1 82:1 92:1 96:1 105:1 107:1 109:1 114:1 127:1 
-1 2:-40 3:-4 4:-0.425532 5:-0.333333 10:1 15:1 82:1 92:1 107:1 109:1 114:1 127:1 
-1 2:-19 3:-3 4:-0.202128 5:-0.25 10:1 15:1 78:1 98:1 109:1 127:1 
-1 1:1 2:-7 3:-1 4:-0.074468 5:-0.083333 10:1 15:1 72:1 109:1 127:1 
-1 2:3 3:1 4:0.031915 5:0.083333 10:1 15:1 81:1 96:1 109:1 127:1 
-1 1:1 2:-2 3:-1 4:-0.033898 5:-0.111111 15:1 61:1 92:1 101:1 104:1 
-1 0:1 2:-26 3:-3 4:-0.440678 5:-0.333333 15:1 55:1 57:1 92:1 107:1 127:1 
-1 2:-17 3:-2 4:-0.288136 5:-0.222222 15:1 55:1 61:1 92:1 101:1 104:1 127:1 
-1 1:1 2:-15 3:-1 4:-0.254237 5:-0.111111 15:1 55:1 61:1 92:1 101:1 127:1 
-0.3192910068356681 2:-40 3:-6 4:-0.677966 5:-0.666667 15:1 39:1 55:1 61:1 66:1 78:1 92:1 98:1 101:1 104:1 107:1 114:1 127:1 
-1 2:-38 3:-5 4:-0.644068 5:-0.555556 15:1 39:1 55:1 61:1 66:1 78:1 92:1 98:1 101:1 107:1 114:1 127:1 
-0.00738595766390817 2:-19 3:-3 4:-0.322034 5:-0.333333 15:1 35:1 39:1 55:1 66:1 69:1 78:1 97:1 98:1 101:1 107:1 114:1 127:1 
-1 2:-9 3:-2 4:-0.152542 5:-0.222222 15:1 39:1 50:1 57:1 66:1 78:1 98:1 101:1 107:1 114:1 127:1 
-1 1:1 2:-3 3:-1 4:-0.050847 5:-0.111111 15:1 39:1 57:1 66:1 78:1 98:1 101:1 107:1 114:1 127:1 
-1 2:2 3:1 4:0.033898 5:0.111111 15:1 39:1 66:1 71:1 78:1 98:1 101:1 114:1 127:1 
-1 2:-42 3:-7 4:-0.711864 5:-0.777778 15:1 39:1 55:1 61:1 71:1 78:1 92:1 98:1 101:1 104:1 107:1 114:1 127:1 
-1 2:-40 3:-6 4:-0.677966 5:-0.666667 15:1 39:1 55:1 61:1 71:1 78:1 92:1 98:1 101:1 107:1 114:1 127:1 
-1 2:-11 3:-3 4:-0.186441 5:-0.333333 15:1 39:1 50:1 57:1 71:1 78:1 98:1 107:1 114:1 127:1 
-1 2:-5 3:-2 4:-0.084746 5:-0.222222 15:1 39:1 57:1 71:1 78:1 98:1 101:1 107:1 114:1 127:1 
-1 1:1 2:-2 3:-1 4:-0.033898 5:-0.111111 15:1 39:1 66:1 71:1 78:1 98:1 101:1 114:1 127:1 
-1 0:1 2:-17 3:-2 4:-0.22973 5:-0.166667 15:1 27:1 39:1 48:1 78:1 80:1 95:1 
-1 2:4 3:1 4:0.054054 5:0.083333 15:1 27:1 78:1 80:1 95:1 
-1 0:1 2:-32 3:-5 4:-0.432432 5:-0.416667 15:1 27:1 39:1 48:1 
-1 2:-29 3:-4 4:-0.391892 5:-0.333333 15:1 27:1 39:1 48:1 56:1 
-1 2:-15 3:-3 4:-0.202703 5:-0.25 15:1 27:1 78:1 80:1 95:1 
-1 2:-11 3:-2 4:-0.148649 5:-0.166667 15:1 27:1 78:1 95:1 
-1 2:5 3:1 4:0.067568 5:0.083333 15:1 27:1 81:1 
-1 0:1 2:-37 3:-6 4:-0.5 5:-0.5 15:1 39:1 48:1 81:1 
-1 2:-34 3:-5 4:-0.459459 5:-0.416667 15:1 39:1 48:1 56:1 81:1 
-1 2:-20 3:-4 4:-0.27027 5:-0.333333 15:1 27:1 78:1 80:1 81:1 95:1 
-1 2:-16 3:-3 4:-0.216216 5:-0.25 15:1 27:1 78:1 81:1 95:1 
-1 1:1 2:-5 3:-1 4:-0.067568 5:-0.083333 15:1 27:1 81:1 
-1 0:1 2:-71 3:-11 4:-0.959459 5:-0.916667 39:1 48:1 61:1 78:1 93:1 
-1 2:-68 3:-10 4:-0.918919 5:-0.833333 15:1 39:1 48:1 56:1 61:1 78:1 93:1 
-1 2:-54 3:-9 4:-0.72973 5:-0.75 15:1 27:1 61:1 78:1 80:1 93:1 95:1 
-1 2:-50 3:-8 4:-0.675676 5:-0.666667 27:1 61:1 78:1 93:1 95:1 
-1 2:-44 3:-7 4:-0.594595 5:-0.583333 15:1 27:1 61:1 78:1 93:1 95:1 
-1 2:-39 3:-6 4:-0.527027 5:-0.5 15:1 27:1 61:1 78:1 93:1 
-1 2:-32 3:-5 4:-0.432432 5:-0.416667 15:1 61:1 78:1 81:1 93:1 
-1 2:-19 3:-3 4:-0.256757 5:-0.25 15:1 27:1 45:1 61:1 78:1 93:1 95:1 
-1 2:-14 3:-2 4:-0.189189 5:-0.166667 15:1 27:1 45:1 61:1 78:1 93:1 95:1 
-1 1:1 2:-5 3:-1 4:-0.067568 5:-0.083333 15:1 45:1 48:1 61:1 78:1 93:1 95:1 
-1 2:-17 3:-4 4:-0.414634 5:-0.4 11:1 22:1 48:1 52:1 63:1 85:1 93:1 98:1 127:1 
-1 2:-13 3:-3 4:-0.317073 5:-0.3 11:1 22:1 48:1 52:1 63:1 86:1 89:1 93:1 98:1 99:1 127:1 
-1 2:-11 3:-2 4:-0.268293 5:-0.2 11:1 22:1 48:1 52:1 63:1 85:1 93:1 98:1 99:1 100:1 127:1 
-1 1:1 2:-8 3:-1 4:-0.195122 5:-0.1 11:1 15:1 22:1 48:1 52:1 63:1 86:1 98:1 99:1 100:1 127:1 
-1 2:3 3:1 4:0.073171 5:0.1 11:1 22:1 34:1 52:1 55:1 63:1 98:1 125:1 127:1 
-1 2:7 3:2 4:0.170732 5:0.2 11:1 22:1 52:1 54:1 55:1 63:1 98:1 120:1 127:1 
-1 2:-20 3:-5 4:-0.487805 5:-0.5 11:1 34:1 48:1 52:1 55:1 85:1 93:1 125:1 127:1 
-1 2:-14 3:-3 4:-0.341463 5:-0.3 11:1 34:1 48:1 52:1 55:1 85:1 93:1 99:1 100:1 125:1 127:1 
-1 2:-11 3:-2 4:-0.268293 5:-0.2 11:1 15:1 22:1 34:1 48:1 52:1 55:1 86:1 99:1 100:1 125:1 127:1 
-1 1:1 2:-3 3:-1 4:-0.073171 5:-0.1 11:1 22:1 34:1 52:1 55:1 63:1 98:1 125:1 127:1 
-1 2:3 3:1 4:0.073171 5:0.1 11:1 34:1 52:1 54:1 55:1 63:1 98:1 120:1 125:1 127:1 
-1 2:6 3:2 4:0.146341 5:0.2 11:1 15:1 34:1 52:1 55:1 113:1 120:1 125:1 127:1 
-1 0:1 2:-27 3:-7 4:-0.658537 5:-0.7 48:1 52:1 54:1 55:1 63:1 89:1 98:1 120:1 
-1 2:-18 3:-4 4:-0.439024 5:-0.4 48:1 52:1 54:1 55:1 63:1 85:1 93:1 98:1 99:1 100:1 120:1 127:1 
-1 2:-15 3:-3 4:-0.365854 5:-0.3 15:1 22:1 48:1 52:1 54:1 55:1 63:1 86:1 98:1 99:1 100:1 120:1 127:1 
-1 2:-7 3:-2 4:-0.170732 5:-0.2 11:1 22:1 52:1 54:1 55:1 63:1 98:1 120:1 127:1 
-1 1:1 2:-3 3:-1 4:-0.073171 5:-0.1 11:1 34:1 52:1 54:1 55:1 63:1 98:1 120:1 125:1 127:1 
-1 0:1 2:-30 3:-8 4:-0.731707 5:-0.8 15:1 34:1 48:1 52:1 55:1 89:1 113:1 120:1 
-0.6742638938260727 2:-23 3:-6 4:-0.560976 5:-0.6 15:1 34:1 48:1 52:1 55:1 86:1 89:1 93:1 99:1 113:1 120:1 127:1 
-0.6096022046535888 2:-18 3:-4 4:-0.439024 5:-0.4 15:1 22:1 34:1 48:1 52:1 55:1 86:1 99:1 100:1 113:1 120:1 127:1 
-1 2:-6 3:-2 4:-0.146341 5:-0.2 11:1 15:1 34:1 52:1 55:1 113:1 120:1 125:1 127:1 
-1 1:1 2:-3 3:-1 4:-0.073171 5:-0.1 15:1 34:1 52:1 54:1 55:1 63:1 98:1 113:1 120:1 
-1 1:1 2:-20 3:-1 4:-0.3125 5:-0.166667 6:1 15:1 59:1 61:1 92:1 99:1 107:1 109:1 120:1 
-1 2:-39 3:-4 4:-0.609375 5:-0.666667 6:1 15:1 32:1 38:1 90:1 92:1 107:1 109:1 
-1 2:-18 3:-3 4:-0.28125 5:-0.5 15:1 32:1 38:1 59:1 61:1 90:1 92:1 99:1 107:1 120:1 
-1 2:-11 3:-2 4:-0.171875 5:-0.333333 15:1 32:1 38:1 67:1 87:1 90:1 92:1 99:1 107:1 
-1 1:1 2:-2 3:-1 4:-0.03125 5:-0.166667 15:1 16:1 32:1 38:1 57:1 90:1 92:1 107:1 
-1 1:1 2:-7 3:-1 4:-0.0875 5:-0.111111 9:1 15:1 17:1 71:1 92:1 105:1 107:1 109:1 111:1 127:1 
-1 2:-51 3:-5 4:-0.6375 5:-0.555556 9:1 15:1 17:1 39:1 55:1 87:1 92:1 105:1 107:1 109:1 111:1 114:1 127:1 
-1 2:-44 3:-4 4:-0.55 5:-0.444444 15:1 39:1 55:1 71:1 87:1 92:1 105:1 107:1 111:1 114:1 127:1 
-1 2:-30 3:-3 4:-0.375 5:-0.333333 15:1 20:1 39:1 55:1 87:1 92:1 114:1 127:1 
-1 2:-21 3:-2 4:-0.2625 5:-0.222222 15:1 39:1 55:1 87:1 92:1 97:1 99:1 114:1 127:1 
-1 1:1 2:-14 3:-1 4:-0.175 5:-0.111111 15:1 39:1 50:1 69:1 83:1 87:1 92:1 97:1 114:1 127:1 
-1 2:-58 3:-6 4:-0.725 5:-0.666667 9:1 15:1 17:1 39:1 55:1 74:1 87:1 92:1 105:1 107:1 109:1 111:1 127:1 
-1 2:-51 3:-5 4:-0.6375 5:-0.555556 15:1 39:1 55:1 71:1 74:1 87:1 92:1 105:1 107:1 111:1 127:1 
-1 2:-37 3:-4 4:-0.4625 5:-0.444444 15:1 20:1 39:1 55:1 74:1 87:1 92:1 127:1 
-1 2:-28 3:-3 4:-0.35 5:-0.333333 15:1 39:1 55:1 74:1 87:1 92:1 97:1 99:1 127:1 
-1 2:-21 3:-2 4:-0.2625 5:-0.222222 15:1 39:1 50:1 69:1 74:1 83:1 87:1 92:1 97:1 127:1 
-1 1:1 2:-7 3:-1 4:-0.0875 5:-0.111111 15:1 39:1 74:1 87:1 92:1 114:1 127:1 
-1 2:3 3:1 4:0.0375 5:0.111111 15:1 39:1 74:1 78:1 87:1 127:1 
-1 0:1 1:1 2:-11 3:-1 4:-0.5 5:-0.2 15:1 98:1 110:1 127:1 
-1 2:6 3:3 4:0.272727 5:0.6 10:1 15:1 71:1 78:1 98:1 110:1 127:1 
-1 2:-6 3:-3 4:-0.272727 5:-0.6 10:1 15:1 71:1 78:1 98:1 110:1 127:1 
-1 2:-3 3:-2 4:-0.136364 5:-0.4 10:1 15:1 35:1 71:1 78:1 98:1 104:1 110:1 127:1 
-1 1:1 2:-2 3:-1 4:-0.090909 5:-0.2 10:1 15:1 35:1 71:1 78:1 98:1 104:1 110:1 127:1 
-1 0:1 2:-7 3:-2 4:-0.212121 5:-0.2 12:1 15:1 48:1 52:1 92:1 99:1 
-1 1:1 2:-5 3:-1 4:-0.151515 5:-0.1 12:1 15:1 48:1 52:1 92:1 99:1 
-1 2:6 3:2 4:0.181818 5:0.2 12:1 15:1 48:1 52:1 55:1 92:1 101:1 
-1 0:1 2:-13 3:-4 4:-0.393939 5:-0.4 12:1 15:1 48:1 52:1 55:1 92:1 99:1 101:1 
-1 2:-11 3:-3 4:-0.333333 5:-0.3 12:1 15:1 48:1 52:1 55:1 92:1 99:1 101:1 
-1 2:-6 3:-2 4:-0.181818 5:-0.2 12:1 15:1 48:1 52:1 55:1 92:1 101:1 
-1 1:1 2:-3 3:-1 4:-0.090909 5:-0.1 12:1 48:1 52:1 55:1 92:1 101:1 
-1 2:6 3:2 4:0.181818 5:0.2 12:1 15:1 48:1 55:1 78:1 101:1 
-1 0:1 2:-19 3:-6 4:-0.575758 5:-0.6 15:1 52:1 55:1 78:1 92:1 99:1 101:1 
-1 2:-12 3:-4 4:-0.363636 5:-0.4 12:1 15:1 48:1 52:1 55:1 78:1 92:1 101:1 
-1 2:-9 3:-3 4:-0.272727 5:-0.3 15:1 48:1 52:1 55:1 78:1 92:1 101:1 
-1 2:-6 3:-2 4:-0.181818 5:-0.2 12:1 15:1 48:1 55:1 78:1 101:1 
-1 1:1 2:-4 3:-1 4:-0.121212 5:-0.1 15:1 48:1 55:1 78:1 90:1 101:1 
-1 2:6 3:2 4:0.6 5:0.666667 48:1 55:1 93:1 
-1 0:1 2:-27 3:-4 4:-0.818182 5:-0.666667 15:1 77:1 78:1 84:1 92:1 109:1 119:1 
-1 2:-24 3:-3 4:-0.727273 5:-0.5 15:1 56:1 77:1 78:1 84:1 92:1 109:1 119:1 
-1 2:-21 3:-2 4:-0.636364 5:-0.333333 15:1 77:1 78:1 84:1 92:1 109:1 119:1 
-1 2:4 3:1 4:0.121212 5:0.166667 15:1 48:1 77:1 84:1 92:1 109:1 119:1 
-1 2:-27 3:-2 4:-0.317647 5:-0.2 10:1 11:1 15:1 17:1 51:1 52:1 60:1 61:1 88:1 97:1 109:1 117:1 127:1 
-1 1:1 2:-3 3:-1 4:-0.035294 5:-0.1 10:1 11:1 15:1 17:1 21:1 34:1 51:1 52:1 60:1 81:1 117:1 127:1 
-1 2:6 3:1 4:0.070588 5:0.1 10:1 11:1 15:1 51:1 52:1 60:1 99:1 117:1 127:1 
-0.008651357901979422 2:29 3:4 4:0.341176 5:0.4 10:1 11:1 15:1 51:1 52:1 60:1 99:1 109:1 117:1 120:1 127:1 
-1 2:-40 3:-4 4:-0.470588 5:-0.4 15:1 17:1 52:1 61:1 88:1 97:1 99:1 109:1 127:1 
-1 2:-16 3:-3 4:-0.188235 5:-0.3 11:1 15:1 17:1 21:1 34:1 51:1 52:1 81:1 99:1 109:1 127:1 
-1 2:-12 3:-2 4:-0.141176 5:-0.2 10:1 11:1 15:1 51:1 52:1 60:1 99:1 109:1 117:1 127:1 
-1 1:1 2:-6 3:-1 4:-0.070588 5:-0.1 10:1 11:1 15:1 52:1 60:1 99:1 109:1 127:1 
-1 2:5 3:1 4:0.058824 5:0.1 15:1 52:1 99:1 109:1 127:1 
-1 2:-57 3:-6 4:-0.670588 5:-0.6 15:1 17:1 52:1 61:1 88:1 97:1 99:1 109:1 120:1 
-1 2:-33 3:-5 4:-0.388235 5:-0.5 11:1 17:1 21:1 34:1 51:1 52:1 81:1 99:1 109:1 120:1 127:1 
-1 2:-29 3:-4 4:-0.341176 5:-0.4 10:1 11:1 15:1 51:1 52:1 60:1 99:1 109:1 117:1 120:1 127:1 
-1 2:-23 3:-3 4:-0.270588 5:-0.3 10:1 11:1 15:1 52:1 60:1 99:1 109:1 120:1 
-1 2:-16 3:-2 4:-0.188235 5:-0.2 15:1 52:1 99:1 109:1 120:1 127:1 
-1 1:1 2:-11 3:-1 4:-0.129412 5:-0.1 15:1 99:1 109:1 120:1 127:1 
-1 2:6 3:1 4:0.070588 5:0.1 55:1 99:1 105:1 109:1 120:1 127:1 
-1 2:-4 3:-2 4:-0.067797 5:-0.25 15:1 17:1 35:1 52:1 61:1 82:1 96:1 98:1 127:1 
-1 1:1 2:-2 3:-1 4:-0.033898 5:-0.125 15:1 17:1 35:1 52:1 82:1 96:1 98:1 104:1 110:1 127:1 
-0.3213968724034075 2:-25 3:-6 4:-0.423729 5:-0.75 10:1 13:1 15:1 17:1 52:1 71:1 74:1 78:1 82:1 88:1 109:1 111:1 
-1 2:-11 3:-2 4:-0.186441 5:-0.25 10:1 13:1 15:1 17:1 35:1 52:1 71:1 78:1 82:1 98:1 104:1 110:1 127:1 
-1 1:1 2:-8 3:-1 4:-0.135593 5:-0.125 10:1 13:1 15:1 17:1 52:1 71:1 78:1 82:1 96:1 98:1 
-1 2:-11 3:-2 4:-0.323529 5:-0.333333 28:1 47:1 48:1 55:1 94:1 106:1 107:1 118:1 120:1 127:1 
-1 1:1 2:-8 3:-1 4:-0.235294 5:-0.166667 15:1 28:1 47:1 48:1 55:1 86:1 107:1 118:1 120:1 127:1 
-1 2:3 3:1 4:0.088235 5:0.166667 15:1 47:1 55:1 85:1 105:1 107:1 118:1 120:1 127:1 
-1 2:6 3:2 4:0.176471 5:0.333333 15:1 47:1 55:1 107:1 113:1 118:1 120:1 127:1 
-1 2:-14 3:-3 4:-0.411765 5:-0.5 15:1 28:1 48:1 55:1 85:1 94:1 105:1 106:1 107:1 127:1 
-1 2:-11 3:-2 4:-0.323529 5:-0.333333 15:1 28:1 48:1 55:1 85:1 86:1 105:1 107:1 120:1 127:1 
-1 1:1 2:-3 3:-1 4:-0.088235 5:-0.166667 15:1 47:1 55:1 85:1 105:1 107:1 118:1 120:1 127:1 
-1 2:3 3:1 4:0.088235 5:0.166667 15:1 55:1 85:1 105:1 107:1 113:1 118:1 127:1 
-1 0:1 1:1 2:-4 3:-1 4:-0.210526 5:-0.2 28:1 48:1 52:1 58:1 99:1 116:1 120:1 127:1 
-1 2:3 3:1 4:0.157895 5:0.2 28:1 34:1 48:1 52:1 55:1 58:1 99:1 116:1 120:1 127:1 
-1 2:6 3:2 4:0.315789 5:0.4 28:1 48:1 52:1 55:1 76:1 99:1 116:1 120:1 127:1 
-1 0:1 2:-10 3:-3 4:-0.526316 5:-0.6 28:1 48:1 52:1 55:1 58:1 76:1 120:1 127:1 
-1 2:-6 3:-2 4:-0.315789 5:-0.4 28:1 48:1 52:1 55:1 76:1 99:1 116:1 120:1 127:1 
-1 1:1 2:-3 3:-1 4:-0.157895 5:-0.2 34:1 52:1 55:1 58:1 76:1 99:1 120:1 127:1 
-1 0:1 2:-7 3:-3 4:-0.388889 5:-0.5 15:1 33:1 86:1 99:1 107:1 127:1 
-1 2:-5 3:-2 4:-0.277778 5:-0.333333 15:1 86:1 89:1 99:1 107:1 127:1 
-1 2:5 3:1 4:0.277778 5:0.166667 15:1 78:1 86:1 99:1 107:1 127:1 
-1 0:1 2:-21 3:-4 4:-0.567568 5:-0.5 15:1 26:1 55:1 67:1 92:1 114:1 127:1 
-1 2:-12 3:-3 4:-0.324324 5:-0.375 15:1 55:1 92:1 99:1 114:1 127:1 
-1 2:-8 3:-2 4:-0.216216 5:-0.25 15:1 55:1 99:1 114:1 119:1 127:1 
-1 1:1 2:-6 3:-1 4:-0.162162 5:-0.125 15:1 55:1 114:1 127:1 
-1 2:6 3:2 4:0.162162 5:0.25 15:1 55:1 114:1 120:1 127:1 
-1 0:1 2:-27 3:-6 4:-0.72973 5:-0.75 15:1 26:1 55:1 67:1 92:1 114:1 120:1 127:1 
-0.831142111051836 2:-14 3:-4 4:-0.378378 5:-0.5 15:1 55:1 99:1 114:1 119:1 120:1 127:1 
-1 2:-6 3:-2 4:-0.162162 5:-0.25 15:1 55:1 114:1 120:1 127:1 
-1 1:1 2:-3 3:-1 4:-0.081081 5:-0.125 15:1 34:1 55:1 114:1 120:1 127:1 
-1 0:1 2:-20 3:-2 4:-0.526316 5:-0.333333 15:1 25:1 34:1 35:1 37:1 52:1 92:1 120:1 127:1 
-1 1:1 2:-9 3:-1 4:-0.236842 5:-0.166667 15:1 17:1 34:1 35:1 37:1 48:1 52:1 77:1 92:1 120:1 127:1 
-1 0:1 2:-23 3:-3 4:-0.605263 5:-0.5 15:1 25:1 31:1 52:1 92:1 127:1 
-1 1:1 2:-3 3:-1 4:-0.078947 5:-0.166667 15:1 31:1 34:1 35:1 37:1 52:1 92:1 120:1 127:1 
-1 0:1 2:-35 3:-5 4:-0.921053 5:-0.833333 15:1 25:1 48:1 52:1 77:1 92:1 127:1 
-1 2:-15 3:-3 4:-0.394737 5:-0.5 34:1 35:1 37:1 48:1 52:1 77:1 92:1 120:1 127:1 
-1 2:-11 3:-2 4:-0.289474 5:-0.333333 15:1 31:1 48:1 52:1 77:1 92:1 127:1 
-1 1:1 2:-3 3:-1 4:-0.078947 5:-0.166667 25:1 31:1 34:1 48:1 52:1 77:1 95:1 122:1 127:1 
-0.02257685908143317 2:40 3:1 4:0.470588 5:0.142857 13:1 15:1 17:1 18:1 48:1 52:1 72:1 78:1 92:1 98:1 109:1 120:1 
-0.01676069056592574 2:49 3:3 4:0.576471 5:0.428571 13:1 15:1 17:1 18:1 39:1 48:1 52:1 92:1 95:1 97:1 109:1 127:1 
-0.02814775707853701 2:61 3:4 4:0.717647 5:0.571429 10:1 13:1 15:1 17:1 18:1 43:1 48:1 52:1 77:1 92:1 109:1 120:1 127:1 
-0.006337417016062103 2:66 3:5 4:0.776471 5:0.714286 10:1 13:1 15:1 17:1 18:1 48:1 52:1 78:1 92:1 109:1 127:1 
-1 2:-42 3:-2 4:-0.494118 5:-0.285714 13:1 15:1 17:1 18:1 23:1 39:1 48:1 52:1 72:1 78:1 92:1 109:1 120:1 
-1 1:1 2:-2 3:-1 4:-0.023529 5:-0.142857 15:1 23:1 39:1 52:1 72:1 78:1 98:1 120:1 
-1 0:1 2:-82 3:-6 4:-0.964706 5:-0.857143 10:1 15:1 52:1 64:1 65:1 78:1 92:1 107:1 109:1 127:1 
-1 2:-66 3:-5 4:-0.776471 5:-0.714286 10:1 13:1 15:1 17:1 18:1 48:1 52:1 78:1 92:1 109:1 127:1 
-1 2:-26 3:-4 4:-0.305882 5:-0.571429 10:1 15:1 52:1 72:1 78:1 98:1 120:1 127:1 
-1 2:-17 3:-2 4:-0.2 5:-0.285714 10:1 15:1 17:1 39:1 52:1 78:1 95:1 97:1 127:1 
-1 1:1 2:-5 3:-1 4:-0.058824 5:-0.142857 10:1 15:1 43:1 52:1 77:1 78:1 120:1 127:1 
-1 0:1 1:1 2:-6 3:-1 4:-0.12 5:-0.142857 15:1 52:1 55:1 108:1 127:1 
-1 2:6 3:2 4:0.12 5:0.285714 15:1 32:1 43:1 52:1 55:1 61:1 127:1 
-1 2:-20 3:-3 4:-0.4 5:-0.428571 15:1 52:1 55:1 99:1 109:1 120:1 127:1 
-1 2:-18 3:-2 4:-0.36 5:-0.285714 15:1 43:1 52:1 55:1 99:1 109:1 118:1 120:1 127:1 
-1 1:1 2:-14 3:-1 4:-0.28 5:-0.142857 15:1 32:1 43:1 61:1 99:1 109:1 120:1 
-1 2:-13 3:-2 4:-0.265306 5:-0.285714 15:1 26:1 27:1 44:1 61:1 92:1 95:1 
-1 1:1 2:-2 3:-1 4:-0.040816 5:-0.142857 15:1 34:1 44:1 80:1 
-1 2:2 3:1 4:0.040816 5:0.142857 15:1 21:1 34:1 44:1 
-1 2:5 3:2 4:0.102041 5:0.285714 15:1 21:1 44:1 
-1 2:-15 3:-3 4:-0.306122 5:-0.428571 15:1 21:1 26:1 27:1 34:1 61:1 92:1 95:1 
-1 2:-4 3:-2 4:-0.081633 5:-0.285714 15:1 21:1 34:1 44:1 80:1 
-1 1:1 2:-2 3:-1 4:-0.040816 5:-0.142857 15:1 21:1 34:1 44:1 
-1 2:3 3:1 4:0.061224 5:0.142857 15:1 21:1 34:1 
-1 2:-18 3:-4 4:-0.367347 5:-0.571429 15:1 21:1 26:1 27:1 61:1 92:1 95:1 
-1 2:-7 3:-3 4:-0.142857 5:-0.428571 15:1 21:1 34:1 44:1 80:1 
-1 2:-5 3:-2 4:-0.102041 5:-0.285714 15:1 21:1 44:1 
-1 1:1 2:-3 3:-1 4:-0.061224 5:-0.142857 15:1 21:1 34:1 
-1 2:-27 3:-5 4:-0.55102 5:-0.714286 15:1 26:1 27:1 45:1 60:1 61:1 92:1 95:1 
-1 2:-16 3:-4 4:-0.326531 5:-0.571429 15:1 34:1 44:1 45:1 60:1 61:1 80:1 
-1 2:-14 3:-3 4:-0.285714 5:-0.428571 15:1 44:1 45:1 60:1 61:1 
-1 2:-12 3:-2 4:-0.244898 5:-0.285714 15:1 21:1 34:1 45:1 60:1 61:1 
-1 1:1 2:-9 3:-1 4:-0.183673 5:-0.142857 15:1 21:1 45:1 60:1 61:1 
-1 2:-7 3:-2 4:-0.466667 5:-0.5 15:1 17:1 70:1 78:1 
-1 1:1 2:-5 3:-1 4:-0.333333 5:-0.25 15:1 17:1 70:1 78:1 
-1 2:-6 3:-2 4:-0.26087 5:-0.4 15:1 55:1 92:1 94:1 109:1 120:1 127:1 
-1 1:1 2:-3 3:-1 4:-0.130435 5:-0.2 15:1 55:1 94:1 109:1 127:1 
-1 2:-15 3:-2 4:-0.340909 5:-0.222222 15:1 48:1 76:1 77:1 86:1 92:1 109:1 127:1 
-1 1:1 2:-7 3:-1 4:-0.159091 5:-0.111111 15:1 24:1 48:1 127:1 
-1 2:-7 3:-2 4:-0.411765 5:-0.5 11:1 22:1 48:1 55:1 107:1 120:1 127:1 
-1 1:1 2:-3 3:-1 4:-0.176471 5:-0.25 11:1 48:1 55:1 104:1 107:1 127:1 
-1 2:4 3:1 4:0.133333 5:0.2 15:1 48:1 58:1 115:1 127:1 
-1 0:1 2:-20 3:-4 4:-0.666667 5:-0.8 15:1 127:1 
-1 2:-15 3:-3 4:-0.5 5:-0.6 15:1 48:1 115:1 127:1 
-1 1:1 2:-3 3:-1 4:-0.1 5:-0.2 15:1 35:1 104:1 127:1 
-1 2:-11 3:-3 4:-0.5 5:-0.5 15:1 52:1 84:1 92:1 99:1 120:1 
-1 2:-5 3:-2 4:-0.227273 5:-0.333333 15:1 52:1 84:1 92:1 99:1 
-1 1:1 2:-3 3:-1 4:-0.136364 5:-0.166667 15:1 52:1 84:1 99:1 
-1 2:2 3:1 4:0.090909 5:0.166667 15:1 52:1 78:1 84:1 99:1 
-1 0:1 2:-26 3:-3 4:-0.481481 5:-0.333333 15:1 17:1 48:1 55:1 92:1 
-1 2:-8 3:-2 4:-0.148148 5:-0.222222 48:1 55:1 64:1 65:1 77:1 92:1 103:1 
-1 2:6 3:1 4:0.111111 5:0.111111 29:1 48:1 55:1 92:1 120:1 
-1 0:1 2:-45 3:-7 4:-0.833333 5:-0.777778 15:1 17:1 52:1 55:1 92:1 127:1 
-1 2:-27 3:-6 4:-0.5 5:-0.666667 48:1 52:1 55:1 64:1 65:1 77:1 92:1 103:1 127:1 
-1 2:-22 3:-5 4:-0.407407 5:-0.555556 48:1 52:1 55:1 65:1 77:1 92:1 127:1 
-1 2:-19 3:-4 4:-0.351852 5:-0.444444 48:1 52:1 55:1 92:1 127:1 
-1 2:-13 3:-3 4:-0.240741 5:-0.333333 29:1 52:1 55:1 120:1 127:1 
-1 2:-7 3:-2 4:-0.12963 5:-0.222222 15:1 29:1 52:1 55:1 120:1 127:1 
-1 1:1 2:-5 3:-1 4:-0.092593 5:-0.111111 15:1 16:1 29:1 52:1 55:1 127:1 
-1 1:1 2:-7 3:-1 4:-0.088608 5:-0.125 9:1 15:1 18:1 29:1 41:1 60:1 61:1 82:1 92:1 115:1 
-1 1:1 2:-6 3:-1 4:-0.075949 5:-0.125 15:1 43:1 48:1 52:1 66:1 82:1 120:1 
-1 2:2 3:1 4:0.025316 5:0.125 15:1 43:1 48:1 66:1 68:1 82:1 109:1 120:1 
-1 2:-56 3:-6 4:-0.708861 5:-0.75 9:1 15:1 18:1 41:1 52:1 61:1 78:1 92:1 96:1 99:1 109:1 115:1 124:1 
-1 2:-49 3:-5 4:-0.620253 5:-0.625 9:1 15:1 29:1 52:1 60:1 78:1 82:1 92:1 96:1 99:1 109:1 124:1 
-1 2:-31 3:-4 4:-0.392405 5:-0.5 15:1 23:1 50:1 52:1 69:1 78:1 82:1 96:1 97:1 99:1 109:1 120:1 124:1 
-1 2:-27 3:-3 4:-0.341772 5:-0.375 15:1 43:1 52:1 66:1 78:1 82:1 96:1 99:1 109:1 120:1 124:1 
-1 2:-20 3:-2 4:-0.253165 5:-0.25 15:1 43:1 48:1 66:1 78:1 82:1 96:1 99:1 109:1 120:1 124:1 
-1 1:1 2:-18 3:-1 4:-0.227848 5:-0.125 15:1 48:1 68:1 78:1 82:1 96:1 99:1 109:1 124:1 
-1 0:1 2:-18 3:-5 4:-0.9 5:-0.833333 15:1 42:1 48:1 
-1 2:-17 3:-4 4:-0.85 5:-0.666667 15:1 48:1 
-1 2:-7 3:-3 4:-0.35 5:-0.5 15:1 48:1 61:1 124:1 
-1 2:-5 3:-2 4:-0.25 5:-0.333333 15:1 48:1 
-1 0:1 2:-17 3:-5 4:-0.894737 5:-0.833333 15:1 42:1 48:1 82:1 
-1 2:-14 3:-4 4:-0.736842 5:-0.666667 15:1 42:1 48:1 82:1 84:1 
-1 2:-13 3:-3 4:-0.684211 5:-0.5 15:1 48:1 82:1 84:1 
-1 2:-6 3:-2 4:-0.315789 5:-0.333333 15:1 48:1 82:1 
-1 0:1 2:-14 3:-2 4:-0.736842 5:-0.5 15:1 17:1 33:1 48:1 55:1 127:1 
-1 1:1 2:-5 3:-1 4:-0.263158 5:-0.25 15:1 17:1 33:1 48:1 55:1 106:1 127:1 
-1 0:1 2:-24 3:-5 4:-0.470588 5:-0.454545 15:1 22:1 55:1 71:1 79:1 89:1 99:1 114:1 127:1 
-1 2:-22 3:-4 4:-0.431373 5:-0.363636 15:1 22:1 55:1 79:1 89:1 99:1 114:1 127:1 
-1 2:-7 3:-2 4:-0.137255 5:-0.181818 15:1 48:1 55:1 79:1 89:1 99:1 114:1 127:1 
-1 1:1 2:-3 3:-1 4:-0.058824 5:-0.090909 14:1 15:1 48:1 55:1 79:1 89:1 114:1 127:1 
-1 2:3 3:1 4:0.058824 5:0.090909 14:1 15:1 55:1 79:1 89:1 114:1 127:1 
-1 2:6 3:2 4:0.117647 5:0.181818 15:1 55:1 79:1 89:1 114:1 127:1 
-1 0:1 2:-36 3:-9 4:-0.705882 5:-0.818182 15:1 22:1 55:1 71:1 99:1 116:1 127:1 
-1 2:-21 3:-7 4:-0.411765 5:-0.636364 15:1 22:1 48:1 55:1 89:1 99:1 116:1 127:1 
-0.5644459597210464 2:-19 3:-6 4:-0.372549 5:-0.545455 15:1 48:1 55:1 89:1 99:1 116:1 127:1 
-0.3548671802411452 2:-15 3:-5 4:-0.294118 5:-0.454545 14:1 15:1 48:1 55:1 79:1 89:1 99:1 114:1 116:1 127:1 
-1 2:-12 3:-4 4:-0.235294 5:-0.363636 15:1 55:1 79:1 89:1 99:1 114:1 116:1 127:1 
-1 2:-9 3:-3 4:-0.176471 5:-0.272727 14:1 15:1 55:1 79:1 99:1 116:1 127:1 
-1 2:-6 3:-2 4:-0.117647 5:-0.181818 15:1 55:1 99:1 116:1 127:1 
-1 1:1 2:-3 3:-1 4:-0.058824 5:-0.090909 15:1 55:1 99:1 116:1 127:1 
-1 0:1 2:-11 3:-2 4:-0.52381 5:-0.5 22:1 48:1 59:1 77:1 80:1 92:1 99:1 107:1 120:1 127:1 
-1 2:6 3:1 4:0.193548 5:0.142857 29:1 55:1 92:1 120:1 
-1 0:1 2:-22 3:-5 4:-0.709677 5:-0.714286 52:1 55:1 92:1 127:1 
-1 2:-19 3:-4 4:-0.612903 5:-0.571429 52:1 55:1 92:1 127:1 
-1 2:-13 3:-3 4:-0.419355 5:-0.428571 29:1 52:1 55:1 120:1 127:1 
-1 2:-7 3:-2 4:-0.225806 5:-0.285714 15:1 29:1 52:1 55:1 120:1 127:1 
-1 1:1 2:-5 3:-1 4:-0.16129 5:-0.142857 15:1 16:1 29:1 52:1 55:1 127:1 
-1 2:-13 3:-2 4:-0.52 5:-0.4 7:1 15:1 38:1 49:1 51:1 92:1 94:1 107:1 
-1 1:1 2:-2 3:-1 4:-0.08 5:-0.2 7:1 15:1 16:1 38:1 61:1 92:1 107:1 
-1 2:5 3:1 4:0.2 5:0.2 7:1 15:1 38:1 78:1 92:1 107:1 
-1 0:1 2:-23 3:-4 4:-0.92 5:-0.8 7:1 15:1 49:1 51:1 78:1 92:1 107:1 
-1 2:-19 3:-3 4:-0.76 5:-0.6 7:1 15:1 49:1 51:1 78:1 92:1 94:1 107:1 
-1 2:-8 3:-2 4:-0.32 5:-0.4 7:1 15:1 16:1 61:1 78:1 92:1 107:1 
-1 2:3 3:1 4:0.0625 5:0.25 6:1 15:1 72:1 92:1 99:1 120:1 
-1 1:1 2:-3 3:-1 4:-0.0625 5:-0.25 6:1 15:1 72:1 92:1 99:1 120:1 
-0.1695364361052491 2:4 3:1 4:0.083333 5:0.25 6:1 15:1 61:1 72:1 99:1 120:1 
-1 2:-8 3:-2 4:-0.166667 5:-0.5 6:1 15:1 61:1 72:1 92:1 99:1 120:1 
-1 1:1 2:-4 3:-1 4:-0.083333 5:-0.25 6:1 15:1 61:1 72:1 99:1 120:1 
-1 2:3 3:1 4:0.057692 5:0.2 6:1 15:1 72:1 92:1 99:1 120:1 
-1 2:3 3:2 4:0.057692 5:0.4 6:1 15:1 72:1 92:1 99:1 120:1 
-1 2:-5 3:-2 4:-0.096154 5:-0.4 6:1 15:1 72:1 99:1 120:1 
-1 1:1 2:-4 3:-1 4:-0.076923 5:-0.2 6:1 15:1 72:1 99:1 120:1 
-1 1:1 2:-3 3:-1 4:-0.136364 5:-0.25 15:1 26:1 61:1 109:1 117:1 127:1 
-1 2:3 3:1 4:0.136364 5:0.25 26:1 78:1 109:1 117:1 127:1 
-1 1:1 2:-6 3:-1 4:-0.146341 5:-0.25 15:1 77:1 94:1 95:1 
-1 1:1 2:-21 3:-1 4:-0.241379 5:-0.111111 15:1 41:1 43:1 61:1 82:1 92:1 113:1 115:1 127:1 
-1 2:-40 3:-3 4:-0.45977 5:-0.333333 13:1 15:1 41:1 92:1 109:1 115:1 127:1 
-1 2:-18 3:-2 4:-0.206897 5:-0.222222 13:1 15:1 43:1 61:1 82:1 92:1 109:1 113:1 115:1 127:1 
-1 1:1 2:-7 3:-1 4:-0.08046 5:-0.111111 13:1 15:1 31:1 88:1 92:1 109:1 127:1 
-1 2:5 3:1 4:0.057471 5:0.111111 13:1 15:1 109:1 113:1 127:1 
-1 2:-45 3:-4 4:-0.517241 5:-0.444444 13:1 15:1 41:1 92:1 109:1 113:1 115:1 127:1 
-0.6612847996310725 2:-23 3:-3 4:-0.264368 5:-0.333333 13:1 15:1 43:1 61:1 82:1 92:1 109:1 113:1 115:1 127:1 
-1 2:-12 3:-2 4:-0.137931 5:-0.222222 13:1 15:1 31:1 88:1 92:1 109:1 113:1 127:1 
-1 1:1 2:-5 3:-1 4:-0.057471 5:-0.111111 13:1 15:1 109:1 113:1 127:1 
-1 2:-67 3:-7 4:-0.770115 5:-0.777778 15:1 41:1 52:1 78:1 92:1 109:1 115:1 127:1 
-1 2:-45 3:-6 4:-0.517241 5:-0.666667 43:1 52:1 61:1 78:1 82:1 92:1 109:1 113:1 115:1 127:1 
