svm_type c_svc
kernel_type rbf
gamma 0.00775194
nr_class 2
total_sv 1010
rho 0.723025
label 1 -1
probA -2.76623
probB 1.50853
nr_sv 157 853
SV
6.020631088867394 2:-31 3:-3 4:-0.276786 5:-0.15 6:1 17:1 19:1 69:1 80:1 97:1 109:1 
7 1:1 2:-3 3:-1 4:-0.026786 5:-0.05 16:1 44:1 50:1 54:1 62:1 86:1 121:1 
7 2:-7 3:-2 4:-0.0625 5:-0.1 17:1 26:1 44:1 50:1 54:1 62:1 86:1 
2.273412809559511 2:-13 3:-2 4:-0.19697 5:-0.181818 6:1 17:1 29:1 75:1 80:1 101:1 
5.251369078737436 2:-7 3:-2 4:-0.212121 5:-0.333333 6:1 16:1 17:1 49:1 50:1 62:1 101:1 109:1 
7 1:1 2:-6 3:-1 4:-0.181818 5:-0.166667 17:1 49:1 50:1 62:1 101:1 109:1 
7 1:1 2:-4 3:-1 4:-0.064516 5:-0.1 16:1 44:1 50:1 54:1 62:1 
7 2:-7 3:-2 4:-0.112903 5:-0.2 17:1 44:1 50:1 54:1 62:1 
1.559692851615066 1:1 2:-6 3:-1 4:-0.068182 5:-0.05 6:1 17:1 50:1 81:1 94:1 101:1 109:1 129:1 
7 2:-13 3:-3 4:-0.147727 5:-0.15 6:1 19:1 50:1 56:1 60:1 76:1 80:1 94:1 122:1 129:1 
7 2:-55 3:-8 4:-0.55 5:-0.533333 6:1 7:1 17:1 19:1 54:1 63:1 80:1 94:1 107:1 111:1 129:1 
0.5545354154787882 0:1 2:-48 3:-4 4:-0.5 5:-0.307692 6:1 17:1 27:1 45:1 46:1 66:1 67:1 94:1 97:1 109:1 111:1 122:1 
6.467750717620147 0:1 2:-77 3:-9 4:-0.802083 5:-0.692308 6:1 15:1 17:1 25:1 54:1 63:1 66:1 67:1 94:1 109:1 111:1 129:1 
3.151948645655651 0:1 2:-93 3:-12 4:-0.96875 5:-0.923077 6:1 19:1 54:1 66:1 67:1 68:1 80:1 94:1 109:1 111:1 129:1 
4.337827012866835 0:1 2:-21 3:-2 4:-0.253012 5:-0.222222 17:1 31:1 41:1 62:1 64:1 67:1 94:1 109:1 
0.8411136983501658 0:1 2:-45 3:-3 4:-0.542169 5:-0.333333 6:1 10:1 17:1 41:1 63:1 67:1 94:1 101:1 109:1 122:1 
0.6694959311183328 0:1 2:-51 3:-4 4:-0.614458 5:-0.444444 6:1 17:1 22:1 41:1 67:1 94:1 101:1 109:1 122:1 129:1 
3.71426029980085 0:1 2:-57 3:-5 4:-0.686747 5:-0.555556 17:1 22:1 63:1 67:1 71:1 90:1 94:1 109:1 129:1 
1.928729129428983 2:-6 3:-2 4:-0.066667 5:-0.166667 6:1 22:1 60:1 80:1 112:1 116:1 129:1 
2.169572227849088 0:1 2:-23 3:-2 4:-0.319444 5:-0.285714 11:1 17:1 31:1 62:1 66:1 67:1 84:1 94:1 109:1 111:1 
7 2:-6 3:-2 4:-0.1875 5:-0.4 17:1 54:1 57:1 64:1 80:1 118:1 129:1 
4.093362586107023 0:1 2:-37 3:-6 4:-0.755102 5:-0.857143 6:1 9:1 17:1 19:1 29:1 111:1 
2.491264662980461 0:1 2:-80 3:-9 4:-0.941176 5:-0.9 6:1 17:1 41:1 54:1 57:1 66:1 67:1 80:1 94:1 109:1 111:1 129:1 
1.255222605111985 2:3 3:1 4:0.088235 5:0.125 6:1 10:1 17:1 38:1 57:1 60:1 63:1 85:1 101:1 118:1 129:1 
1.164279240552459 0:1 2:-42 3:-4 4:-0.954545 5:-0.8 6:1 17:1 80:1 94:1 96:1 97:1 109:1 
0.3124437738045522 0:1 2:-21 3:-5 4:-0.84 5:-0.833333 6:1 14:1 17:1 44:1 50:1 101:1 109:1 129:1 
0.1986962406041704 0:1 2:-55 3:-4 4:-0.964912 5:-0.8 6:1 10:1 34:1 50:1 63:1 94:1 109:1 
2.186531237933636 0:1 2:-101 3:-10 4:-0.980583 5:-0.909091 6:1 17:1 57:1 66:1 67:1 80:1 84:1 94:1 109:1 111:1 
2.043384214348526 2:3 3:1 4:0.071429 5:0.111111 6:1 17:1 57:1 60:1 61:1 85:1 101:1 118:1 129:1 
4.926591622226898 2:3 3:1 4:0.058824 5:0.090909 6:1 17:1 50:1 57:1 87:1 91:1 107:1 109:1 120:1 129:1 
7 0:1 2:-39 3:-7 4:-0.764706 5:-0.636364 6:1 17:1 54:1 57:1 94:1 109:1 111:1 129:1 
7 1:1 2:-3 3:-1 4:-0.058824 5:-0.090909 6:1 7:1 19:1 54:1 60:1 111:1 127:1 129:1 
2.901817330102274 2:3 3:1 4:0.058824 5:0.090909 6:1 19:1 50:1 57:1 60:1 129:1 
7 1:1 2:-6 3:-1 4:-0.176471 5:-0.166667 17:1 47:1 50:1 63:1 80:1 94:1 
7 1:1 2:-2 3:-1 4:-0.068966 5:-0.166667 6:1 7:1 17:1 29:1 50:1 97:1 128:1 
7 1:1 2:-8 3:-1 4:-0.307692 5:-0.166667 17:1 19:1 50:1 80:1 86:1 94:1 
0.5496831835617345 2:-14 3:-2 4:-0.181818 5:-0.153846 6:1 38:1 42:1 49:1 50:1 57:1 62:1 109:1 129:1 
7 1:1 2:-14 3:-1 4:-0.181818 5:-0.076923 7:1 17:1 50:1 57:1 62:1 64:1 109:1 129:1 
1.268060919363101 2:3 3:1 4:0.03125 5:0.058824 6:1 7:1 17:1 26:1 54:1 57:1 120:1 127:1 129:1 
0.3409966790838686 0:1 2:-12 3:-3 4:-0.125 5:-0.176471 6:1 17:1 26:1 54:1 57:1 85:1 120:1 129:1 
7 0:1 2:-35 3:-5 4:-0.364583 5:-0.294118 6:1 17:1 50:1 54:1 57:1 76:1 85:1 129:1 
7 2:-7 3:-2 4:-0.072917 5:-0.117647 6:1 19:1 50:1 57:1 111:1 122:1 129:1 
7 2:-33 3:-6 4:-0.34375 5:-0.352941 6:1 19:1 50:1 57:1 94:1 109:1 111:1 129:1 
7 2:3 3:1 4:0.053571 5:0.071429 17:1 36:1 57:1 116:1 129:1 
7 2:-12 3:-3 4:-0.214286 5:-0.214286 6:1 17:1 57:1 116:1 122:1 129:1 
7 2:-24 3:-6 4:-0.428571 5:-0.428571 17:1 50:1 54:1 57:1 63:1 
7 2:-30 3:-7 4:-0.535714 5:-0.5 6:1 17:1 50:1 54:1 57:1 63:1 
7 0:1 1:1 2:-6 3:-1 4:-0.26087 5:-0.2 50:1 70:1 72:1 78:1 94:1 101:1 129:1 
7 0:1 2:-11 3:-2 4:-0.478261 5:-0.4 50:1 70:1 72:1 80:1 94:1 101:1 129:1 
7 1:1 2:-6 3:-1 4:-0.222222 5:-0.166667 70:1 72:1 78:1 80:1 94:1 101:1 
7 0:1 2:-24 3:-5 4:-0.8 5:-0.714286 50:1 56:1 94:1 101:1 122:1 129:1 
1.375464287991575 0:1 2:-51 3:-5 4:-0.944444 5:-0.833333 6:1 45:1 50:1 54:1 66:1 67:1 84:1 94:1 109:1 111:1 122:1 
7 0:1 1:1 2:-14 3:-1 4:-0.17284 5:-0.090909 17:1 67:1 94:1 100:1 101:1 
7 0:1 2:-17 3:-2 4:-0.209877 5:-0.181818 17:1 19:1 67:1 94:1 101:1 125:1 129:1 
7 0:1 2:-31 3:-5 4:-0.382716 5:-0.454545 17:1 20:1 67:1 94:1 101:1 
5.746951191013309 0:1 2:-64 3:-8 4:-0.790123 5:-0.727273 17:1 57:1 67:1 94:1 101:1 116:1 125:1 
7 0:1 2:-66 3:-9 4:-0.814815 5:-0.818182 17:1 57:1 67:1 71:1 94:1 100:1 116:1 
7 2:-17 3:-2 4:-0.485714 5:-0.333333 19:1 53:1 62:1 68:1 98:1 101:1 115:1 
7 2:-31 3:-4 4:-0.885714 5:-0.666667 19:1 62:1 80:1 98:1 129:1 
7 2:3 3:1 4:0.157895 5:0.25 6:1 7:1 9:1 13:1 17:1 19:1 37:1 50:1 100:1 109:1 114:1 115:1 122:1 
4.245279414957799 0:1 2:-32 3:-3 4:-0.52459 5:-0.333333 6:1 17:1 50:1 57:1 87:1 91:1 94:1 101:1 129:1 
7 2:-17 3:-2 4:-0.278689 5:-0.222222 6:1 16:1 17:1 50:1 81:1 87:1 94:1 101:1 109:1 122:1 129:1 
7 2:-20 3:-3 4:-0.327869 5:-0.333333 6:1 17:1 50:1 81:1 87:1 94:1 101:1 109:1 129:1 
7 2:3 3:1 4:0.081081 5:0.125 17:1 36:1 57:1 116:1 129:1 
7 2:-12 3:-3 4:-0.324324 5:-0.375 6:1 17:1 57:1 116:1 122:1 129:1 
7 0:1 2:-23 3:-4 4:-0.92 5:-0.8 9:1 17:1 51:1 53:1 80:1 94:1 109:1 
0.5377551996527658 1:1 2:-6 3:-1 4:-0.057143 5:-0.071429 6:1 17:1 23:1 63:1 69:1 94:1 102:1 109:1 129:1 
7 2:-11 3:-2 4:-0.104762 5:-0.142857 6:1 17:1 23:1 34:1 63:1 69:1 94:1 102:1 109:1 129:1 
7 2:-22 3:-3 4:-0.209524 5:-0.214286 6:1 17:1 63:1 69:1 93:1 94:1 109:1 129:1 
7 2:-33 3:-4 4:-0.314286 5:-0.285714 6:1 34:1 63:1 69:1 80:1 94:1 101:1 109:1 129:1 
3.170885063872957 0:1 2:-44 3:-5 4:-0.473118 5:-0.454545 6:1 17:1 34:1 40:1 92:1 94:1 109:1 111:1 
7 0:1 2:-85 3:-10 4:-0.913978 5:-0.909091 6:1 17:1 40:1 57:1 80:1 94:1 109:1 111:1 
7 1:1 2:3 3:1 4:0.06383 5:0.166667 37:1 51:1 53:1 57:1 63:1 106:1 123:1 124:1 129:1 
2.85728145624563 0:1 2:-10 3:-2 4:-0.212766 5:-0.333333 6:1 7:1 17:1 37:1 51:1 53:1 57:1 63:1 96:1 123:1 129:1 
7 0:1 2:-25 3:-4 4:-0.531915 5:-0.666667 7:1 17:1 19:1 37:1 40:1 57:1 89:1 99:1 109:1 123:1 129:1 
7 1:1 2:-9 3:-1 4:-0.191489 5:-0.166667 7:1 9:1 17:1 19:1 40:1 85:1 89:1 94:1 96:1 99:1 
7 2:-13 3:-3 4:-0.65 5:-0.6 6:1 17:1 50:1 57:1 64:1 111:1 118:1 129:1 
7 2:-20 3:-3 4:-0.740741 5:-0.5 9:1 17:1 51:1 53:1 80:1 94:1 109:1 128:1 
0.6785411732723216 2:3 3:1 4:0.06 5:0.083333 6:1 50:1 57:1 76:1 87:1 109:1 120:1 127:1 129:1 
2.256040593347327 1:1 2:-3 3:-1 4:-0.06 5:-0.083333 6:1 50:1 57:1 60:1 76:1 87:1 120:1 127:1 129:1 
7 2:3 3:1 4:0.06 5:0.083333 6:1 17:1 57:1 60:1 76:1 127:1 129:1 
7 2:-13 3:-3 4:-0.317073 5:-0.333333 6:1 17:1 54:1 57:1 87:1 120:1 129:1 
0.3339164671940352 2:3 3:1 4:0.176471 5:0.2 6:1 17:1 57:1 91:1 101:1 124:1 127:1 129:1 
2.814433302638136 1:1 2:-4 3:-1 4:-0.181818 5:-0.333333 6:1 13:1 17:1 38:1 57:1 63:1 65:1 129:1 
5.600598267436133 2:3 3:1 4:0.230769 5:0.333333 6:1 17:1 50:1 54:1 92:1 129:1 
7 2:-24 3:-4 4:-0.533333 5:-0.5 6:1 7:1 17:1 54:1 56:1 72:1 91:1 115:1 129:1 
7 2:3 3:1 4:0.111111 5:0.2 7:1 17:1 33:1 36:1 37:1 39:1 54:1 94:1 122:1 129:1 
1.020610453605738 2:3 3:1 4:0.166667 5:0.25 6:1 17:1 51:1 57:1 96:1 122:1 
6.661869829160719 1:1 2:-4 3:-1 4:-0.052632 5:-0.166667 6:1 33:1 63:1 108:1 109:1 122:1 129:1 
2.042788494156137 0:1 2:-61 3:-4 4:-0.802632 5:-0.666667 8:1 17:1 34:1 94:1 105:1 109:1 126:1 129:1 
7 1:1 2:3 3:1 4:0.125 5:0.2 17:1 53:1 97:1 100:1 129:1 
0.5984894350159093 0:1 2:-15 3:-3 4:-0.625 5:-0.6 6:1 7:1 17:1 41:1 53:1 57:1 94:1 111:1 122:1 129:1 
7 0:1 1:1 2:-5 3:-1 4:-0.138889 5:-0.166667 17:1 47:1 63:1 111:1 126:1 
0.2666892890648226 0:1 2:-20 3:-4 4:-0.666667 5:-0.571429 6:1 17:1 19:1 47:1 63:1 76:1 98:1 101:1 111:1 
7 2:-19 3:-3 4:-0.678571 5:-0.6 6:1 13:1 17:1 30:1 38:1 49:1 50:1 57:1 62:1 80:1 111:1 118:1 129:1 
7 1:1 2:-4 3:-1 4:-0.105263 5:-0.125 6:1 17:1 50:1 65:1 87:1 100:1 107:1 111:1 129:1 
0.5712479914590443 2:-7 3:-2 4:-0.184211 5:-0.25 6:1 9:1 17:1 50:1 87:1 107:1 111:1 129:1 
4.883792879431191 1:1 2:-3 3:-1 4:-0.075 5:-0.2 6:1 7:1 12:1 17:1 24:1 39:1 73:1 94:1 98:1 100:1 106:1 124:1 
7 1:1 2:-5 3:-1 4:-0.357143 5:-0.333333 17:1 63:1 80:1 84:1 94:1 103:1 
7 1:1 2:-8 3:-1 4:-0.266667 5:-0.166667 12:1 17:1 23:1 80:1 94:1 101:1 116:1 129:1 
7 2:3 3:1 4:0.1 5:0.166667 7:1 12:1 17:1 37:1 54:1 98:1 100:1 106:1 116:1 129:1 
7 2:-16 3:-3 4:-0.533333 5:-0.5 17:1 23:1 54:1 80:1 94:1 98:1 100:1 101:1 129:1 
7 0:1 1:1 2:-9 3:-1 4:-0.6 5:-0.5 17:1 62:1 80:1 94:1 113:1 
7 2:-11 3:-2 4:-0.333333 5:-0.285714 7:1 9:1 13:1 17:1 36:1 38:1 54:1 57:1 101:1 107:1 111:1 129:1 
7 1:1 2:-5 3:-1 4:-0.142857 5:-0.125 7:1 13:1 17:1 35:1 46:1 50:1 57:1 94:1 122:1 129:1 
5.751483264707753 0:1 2:-24 3:-5 4:-0.727273 5:-0.714286 6:1 17:1 24:1 60:1 81:1 94:1 101:1 109:1 111:1 129:1 
7 0:1 2:-33 3:-6 4:-0.634615 5:-0.6 6:1 17:1 57:1 88:1 94:1 109:1 122:1 129:1 
7 0:1 2:-47 3:-9 4:-0.903846 5:-0.9 6:1 17:1 57:1 80:1 94:1 109:1 122:1 129:1 
2.903043473461135 0:1 1:1 2:-34 3:-1 4:-0.772727 5:-0.5 17:1 34:1 63:1 105:1 122:1 128:1 
5.169942717962407 2:3 3:1 4:0.115385 5:0.2 6:1 17:1 57:1 87:1 98:1 101:1 129:1 
2.445848020186062 0:1 2:-32 3:-4 4:-0.340426 5:-0.333333 6:1 17:1 66:1 67:1 84:1 94:1 109:1 111:1 116:1 129:1 
7 2:-17 3:-2 4:-0.180851 5:-0.166667 7:1 12:1 17:1 80:1 111:1 112:1 129:1 
0.04718218874487656 0:1 2:-11 3:-2 4:-0.186441 5:-0.222222 6:1 17:1 59:1 63:1 94:1 103:1 109:1 
5.128207054180675 0:1 2:-49 3:-7 4:-0.830508 5:-0.777778 6:1 17:1 41:1 57:1 59:1 68:1 80:1 94:1 100:1 103:1 109:1 116:1 129:1 
5.74976624834898 0:1 2:-51 3:-8 4:-0.864407 5:-0.888889 6:1 17:1 41:1 57:1 59:1 73:1 80:1 94:1 100:1 109:1 116:1 129:1 
4.351714151702091 2:-10 3:-2 4:-0.135135 5:-0.166667 6:1 17:1 29:1 80:1 83:1 97:1 
7 2:-25 3:-4 4:-0.337838 5:-0.333333 17:1 29:1 47:1 63:1 80:1 83:1 95:1 97:1 
1.246207578310823 0:1 2:-20 3:-5 4:-0.487805 5:-0.5 6:1 13:1 24:1 50:1 54:1 65:1 91:1 100:1 129:1 
7 0:1 2:-23 3:-6 4:-0.560976 5:-0.6 6:1 13:1 36:1 50:1 54:1 57:1 91:1 127:1 129:1 
2.168703969574085 2:3 3:1 4:0.073171 5:0.1 6:1 7:1 17:1 36:1 54:1 56:1 57:1 65:1 100:1 115:1 122:1 
7 2:-10 3:-3 4:-0.243902 5:-0.3 6:1 7:1 13:1 17:1 24:1 36:1 54:1 57:1 65:1 100:1 115:1 122:1 129:1 
7 0:1 1:1 2:-4 3:-1 4:-0.571429 5:-0.5 9:1 55:1 78:1 80:1 94:1 
7 2:3 3:2 4:0.136364 5:0.4 17:1 37:1 73:1 100:1 106:1 112:1 129:1 
0.9931738279260908 0:1 2:-41 3:-3 4:-0.482353 5:-0.3 6:1 12:1 13:1 17:1 53:1 54:1 62:1 63:1 111:1 119:1 129:1 
5.041532734081652 0:1 2:-54 3:-5 4:-0.635294 5:-0.5 6:1 17:1 54:1 63:1 101:1 111:1 129:1 
3.636236152269607 0:1 2:-71 3:-7 4:-0.835294 5:-0.7 6:1 17:1 54:1 63:1 101:1 111:1 122:1 
5.385876257863441 0:1 2:-44 3:-6 4:-0.745763 5:-0.75 6:1 17:1 19:1 54:1 84:1 94:1 98:1 100:1 109:1 111:1 
5.26539000948778 0:1 2:-53 3:-7 4:-0.898305 5:-0.875 6:1 12:1 15:1 17:1 19:1 54:1 73:1 80:1 84:1 94:1 109:1 111:1 
0.4369854787974953 0:1 2:-19 3:-4 4:-0.558824 5:-0.666667 6:1 17:1 57:1 87:1 96:1 107:1 108:1 109:1 129:1 
7 2:11 3:3 4:0.578947 5:0.6 6:1 30:1 50:1 54:1 57:1 78:1 101:1 118:1 122:1 129:1 
7 2:5 3:1 4:0.263158 5:0.2 6:1 50:1 54:1 57:1 78:1 122:1 129:1 
7 1:1 2:-3 3:-1 4:-0.166667 5:-0.166667 6:1 17:1 35:1 88:1 91:1 101:1 109:1 120:1 129:1 
7 2:3 3:1 4:0.081081 5:0.125 17:1 36:1 57:1 116:1 129:1 
7 2:-12 3:-3 4:-0.324324 5:-0.375 6:1 17:1 57:1 116:1 122:1 129:1 
7 2:3 3:1 4:0.078947 5:0.166667 7:1 17:1 33:1 36:1 37:1 39:1 54:1 94:1 122:1 129:1 
4.650288526886575 2:-12 3:-2 4:-0.315789 5:-0.333333 6:1 17:1 19:1 33:1 50:1 54:1 79:1 94:1 129:1 
7 2:-24 3:-4 4:-0.631579 5:-0.666667 6:1 17:1 19:1 50:1 54:1 79:1 94:1 129:1 
7 2:-24 3:-3 4:-0.282353 5:-0.428571 6:1 7:1 12:1 17:1 25:1 41:1 54:1 74:1 80:1 122:1 129:1 
2.650405054836599 0:1 2:-26 3:-4 4:-0.52 5:-0.571429 6:1 17:1 54:1 57:1 101:1 110:1 111:1 122:1 
5.871254069227856 0:1 2:-41 3:-6 4:-0.836735 5:-0.857143 6:1 17:1 19:1 47:1 62:1 63:1 94:1 
7 0:1 2:-11 3:-3 4:-0.478261 5:-0.6 17:1 57:1 94:1 96:1 111:1 122:1 129:1 
3.861166744761883 2:-11 3:-2 4:-0.366667 5:-0.4 6:1 17:1 50:1 60:1 117:1 129:1 
0.5609015488904071 0:1 2:-16 3:-4 4:-0.727273 5:-0.666667 6:1 17:1 54:1 86:1 94:1 101:1 122:1 
4.013066201679115 2:4 3:1 4:0.074074 5:0.111111 6:1 54:1 57:1 80:1 129:1 
7 0:1 2:-23 3:-2 4:-0.291139 5:-0.25 11:1 17:1 31:1 62:1 66:1 67:1 84:1 94:1 109:1 111:1 
0.4049832597872863 0:1 2:-72 3:-7 4:-0.911392 5:-0.875 6:1 17:1 54:1 66:1 67:1 80:1 94:1 98:1 101:1 109:1 111:1 126:1 
3.914879187412373 1:1 2:-2 3:-1 4:-0.105263 5:-0.166667 6:1 17:1 50:1 84:1 106:1 
7 2:-9 3:-3 4:-0.176471 5:-0.272727 6:1 17:1 24:1 50:1 57:1 81:1 91:1 101:1 116:1 129:1 
2.691215903402474 1:1 2:-6 3:-1 4:-0.285714 5:-0.25 6:1 24:1 50:1 61:1 79:1 82:1 94:1 101:1 109:1 122:1 129:1 
1.716496584255436 1:1 2:-5 3:-1 4:-0.2 5:-0.2 6:1 7:1 9:1 17:1 40:1 80:1 94:1 109:1 
7 1:1 2:-7 3:-1 4:-0.5 5:-0.333333 9:1 14:1 17:1 19:1 63:1 80:1 101:1 
2.309412722647168 0:1 2:-40 3:-3 4:-0.833333 5:-0.75 17:1 34:1 63:1 94:1 105:1 111:1 122:1 
7 0:1 2:-43 3:-4 4:-0.826923 5:-0.8 17:1 34:1 94:1 111:1 122:1 
7 0:1 2:-15 3:-2 4:-0.681818 5:-0.5 28:1 71:1 111:1 119:1 122:1 129:1 
7 0:1 1:1 2:-16 3:-1 4:-0.390244 5:-0.25 17:1 26:1 79:1 96:1 97:1 
7 0:1 2:-22 3:-2 4:-0.536585 5:-0.5 17:1 26:1 79:1 97:1 
1.187802128941449 1:1 2:-18 3:-1 4:-0.5625 5:-0.2 6:1 17:1 30:1 50:1 94:1 111:1 
-1 2:4 3:1 4:0.035714 5:0.05 6:1 17:1 79:1 84:1 86:1 94:1 101:1 111:1 121:1 
-0.1255060760743975 2:44 3:10 4:0.392857 5:0.5 17:1 19:1 69:1 79:1 80:1 86:1 94:1 111:1 121:1 
-0.06683268331658736 2:64 3:12 4:0.571429 5:0.6 17:1 19:1 45:1 79:1 86:1 94:1 109:1 111:1 121:1 
-0.07586974845983881 2:76 3:13 4:0.678571 5:0.65 7:1 17:1 19:1 79:1 86:1 94:1 97:1 109:1 111:1 121:1 
-0.01527420619778619 2:84 3:16 4:0.75 5:0.8 17:1 44:1 50:1 54:1 62:1 79:1 86:1 94:1 109:1 111:1 121:1 
-0.2136999176687867 2:93 3:18 4:0.830357 5:0.9 7:1 17:1 26:1 44:1 50:1 54:1 62:1 79:1 86:1 94:1 109:1 111:1 121:1 
-1 0:1 2:-89 3:-14 4:-0.794643 5:-0.7 17:1 19:1 94:1 97:1 109:1 111:1 
-0.4129260120454564 2:-72 3:-12 4:-0.642857 5:-0.6 6:1 17:1 19:1 84:1 94:1 97:1 101:1 109:1 
-0.9812139666584788 2:-66 3:-11 4:-0.589286 5:-0.55 17:1 19:1 84:1 94:1 97:1 101:1 108:1 109:1 
-0.9747506669857979 2:-60 3:-9 4:-0.535714 5:-0.45 17:1 19:1 50:1 53:1 61:1 97:1 108:1 109:1 122:1 
-1 2:-55 3:-8 4:-0.491071 5:-0.4 17:1 19:1 53:1 61:1 79:1 80:1 97:1 109:1 122:1 
-1 2:-50 3:-7 4:-0.446429 5:-0.35 17:1 19:1 67:1 79:1 80:1 97:1 109:1 
-1 2:-45 3:-6 4:-0.401786 5:-0.3 17:1 19:1 47:1 67:1 79:1 80:1 97:1 109:1 
-1 2:-39 3:-5 4:-0.348214 5:-0.25 17:1 19:1 26:1 47:1 80:1 97:1 109:1 
-1 2:-34 3:-4 4:-0.303571 5:-0.2 17:1 19:1 26:1 69:1 80:1 97:1 109:1 121:1 
-1 2:-14 3:-2 4:-0.125 5:-0.1 17:1 19:1 97:1 109:1 
-1 1:1 2:-12 3:-1 4:-0.107143 5:-0.05 17:1 19:1 45:1 97:1 109:1 
-1 2:8 3:2 4:0.071429 5:0.1 6:1 17:1 19:1 44:1 50:1 54:1 86:1 97:1 109:1 
-0.980428023306552 0:1 2:-102 3:-18 4:-0.910714 5:-0.9 6:1 16:1 17:1 50:1 54:1 62:1 86:1 94:1 109:1 111:1 121:1 
-1 2:-44 3:-7 4:-0.392857 5:-0.35 6:1 16:1 17:1 19:1 50:1 54:1 62:1 69:1 80:1 86:1 109:1 121:1 
-1 2:-27 3:-6 4:-0.241071 5:-0.3 16:1 17:1 19:1 50:1 54:1 62:1 86:1 109:1 121:1 
-1 2:-25 3:-5 4:-0.223214 5:-0.25 16:1 17:1 19:1 45:1 50:1 54:1 62:1 86:1 109:1 121:1 
-1 2:-7 3:-3 4:-0.0625 5:-0.15 16:1 50:1 54:1 62:1 86:1 97:1 121:1 
-0.2744005822219078 2:4 3:1 4:0.035714 5:0.05 7:1 16:1 17:1 26:1 44:1 50:1 62:1 86:1 121:1 
-1 2:-48 3:-8 4:-0.428571 5:-0.4 6:1 17:1 19:1 26:1 44:1 50:1 54:1 62:1 69:1 80:1 109:1 
-0.606127207406971 2:-29 3:-6 4:-0.258929 5:-0.3 17:1 19:1 26:1 44:1 45:1 50:1 54:1 62:1 109:1 
-1 2:-11 3:-4 4:-0.098214 5:-0.2 17:1 26:1 44:1 50:1 54:1 62:1 97:1 121:1 
-1 1:1 2:-4 3:-1 4:-0.035714 5:-0.05 7:1 16:1 17:1 26:1 44:1 50:1 62:1 86:1 121:1 
-1 2:2 3:1 4:0.058824 5:0.333333 16:1 17:1 19:1 62:1 99:1 109:1 117:1 129:1 
-1 0:1 2:-53 3:-7 4:-0.80303 5:-0.636364 6:1 17:1 101:1 
-1 2:-51 3:-6 4:-0.772727 5:-0.545455 17:1 101:1 103:1 
-1 2:-43 3:-5 4:-0.651515 5:-0.454545 17:1 19:1 50:1 101:1 103:1 
-1 2:-36 3:-4 4:-0.545455 5:-0.363636 6:1 17:1 50:1 80:1 101:1 
-1 2:-32 3:-3 4:-0.484848 5:-0.272727 6:1 17:1 29:1 50:1 58:1 101:1 
-1 1:1 2:-3 3:-1 4:-0.045455 5:-0.090909 16:1 17:1 29:1 97:1 101:1 
-1 2:2 3:1 4:0.030303 5:0.090909 16:1 17:1 101:1 
-1 0:1 2:-25 3:-5 4:-0.757576 5:-0.833333 17:1 50:1 62:1 74:1 109:1 111:1 
-1 2:-22 3:-4 4:-0.666667 5:-0.666667 17:1 50:1 62:1 74:1 84:1 109:1 111:1 
-1 2:-10 3:-3 4:-0.30303 5:-0.5 16:1 17:1 49:1 50:1 62:1 101:1 109:1 
-1 1:1 2:-9 3:-1 4:-0.346154 5:-0.25 17:1 26:1 69:1 71:1 94:1 101:1 115:1 122:1 
-1 2:-14 3:-2 4:-0.225806 5:-0.2 17:1 19:1 97:1 109:1 
-1 1:1 2:-12 3:-1 4:-0.193548 5:-0.1 17:1 19:1 45:1 97:1 109:1 
-1 2:8 3:2 4:0.129032 5:0.2 6:1 17:1 19:1 50:1 54:1 62:1 97:1 109:1 
-1 0:1 2:-46 3:-7 4:-0.741935 5:-0.7 6:1 16:1 17:1 50:1 54:1 62:1 69:1 109:1 
-1 2:-28 3:-6 4:-0.451613 5:-0.6 16:1 17:1 19:1 50:1 54:1 62:1 109:1 
-1 2:-26 3:-5 4:-0.419355 5:-0.5 16:1 17:1 19:1 45:1 50:1 54:1 62:1 109:1 
-1 2:-8 3:-3 4:-0.129032 5:-0.3 16:1 50:1 54:1 62:1 97:1 121:1 
-1 2:3 3:1 4:0.048387 5:0.1 7:1 16:1 17:1 44:1 50:1 62:1 
-1 0:1 2:-49 3:-8 4:-0.790323 5:-0.8 6:1 17:1 44:1 50:1 54:1 69:1 109:1 
-0.6807728229976223 2:-31 3:-7 4:-0.5 5:-0.7 17:1 19:1 44:1 50:1 54:1 109:1 
-1 2:-29 3:-6 4:-0.467742 5:-0.6 17:1 19:1 44:1 45:1 50:1 54:1 109:1 
-1 1:1 2:-3 3:-1 4:-0.048387 5:-0.1 7:1 16:1 17:1 44:1 50:1 62:1 
-1 2:-21 3:-5 4:-0.238636 5:-0.25 6:1 17:1 50:1 81:1 94:1 101:1 109:1 129:1 
-1 2:-19 3:-4 4:-0.215909 5:-0.2 17:1 35:1 81:1 94:1 101:1 109:1 129:1 
-1 2:-17 3:-3 4:-0.193182 5:-0.15 17:1 35:1 81:1 85:1 94:1 101:1 109:1 118:1 129:1 
-1 2:-14 3:-2 4:-0.159091 5:-0.1 10:1 17:1 63:1 81:1 85:1 94:1 101:1 109:1 129:1 
-1 2:-36 3:-9 4:-0.409091 5:-0.45 6:1 17:1 35:1 50:1 87:1 94:1 109:1 111:1 129:1 
-1 2:-34 3:-8 4:-0.386364 5:-0.4 6:1 17:1 50:1 87:1 94:1 109:1 111:1 129:1 
-0.04358747548259498 2:-27 3:-5 4:-0.306818 5:-0.25 10:1 17:1 50:1 63:1 85:1 87:1 94:1 101:1 109:1 111:1 129:1 
-1 2:-19 3:-4 4:-0.215909 5:-0.2 6:1 50:1 87:1 94:1 101:1 109:1 111:1 129:1 
-1 2:-7 3:-2 4:-0.079545 5:-0.1 50:1 87:1 94:1 111:1 129:1 
-1 2:3 3:1 4:0.034091 5:0.05 6:1 17:1 50:1 87:1 107:1 111:1 122:1 129:1 
-1 2:-44 3:-8 4:-0.5 5:-0.4 6:1 50:1 56:1 60:1 62:1 76:1 94:1 101:1 109:1 111:1 115:1 129:1 
-1 2:-25 3:-4 4:-0.284091 5:-0.2 7:1 50:1 56:1 60:1 62:1 76:1 87:1 94:1 111:1 115:1 129:1 
-1 2:-22 3:-3 4:-0.25 5:-0.15 17:1 50:1 56:1 60:1 62:1 76:1 94:1 107:1 115:1 122:1 129:1 
-1 2:-13 3:-2 4:-0.147727 5:-0.1 56:1 60:1 62:1 76:1 80:1 94:1 95:1 101:1 115:1 129:1 
-1 2:-56 3:-10 4:-0.636364 5:-0.5 6:1 10:1 16:1 17:1 19:1 50:1 63:1 76:1 85:1 94:1 101:1 109:1 111:1 115:1 129:1 
-1 2:-33 3:-6 4:-0.375 5:-0.3 6:1 16:1 19:1 50:1 76:1 94:1 107:1 111:1 115:1 129:1 
-1 2:-26 3:-4 4:-0.295455 5:-0.2 16:1 17:1 19:1 50:1 76:1 94:1 107:1 115:1 122:1 129:1 
-1 2:-17 3:-3 4:-0.193182 5:-0.15 16:1 19:1 50:1 76:1 80:1 94:1 95:1 101:1 115:1 129:1 
-1 1:1 2:-4 3:-1 4:-0.045455 5:-0.05 7:1 16:1 19:1 50:1 56:1 60:1 62:1 76:1 115:1 
-0.05749946842175115 2:2 3:1 4:0.022727 5:0.05 7:1 16:1 19:1 50:1 60:1 76:1 115:1 
-0.03374953176118661 2:-5 3:-2 4:-0.1 5:-0.5 8:1 17:1 75:1 94:1 101:1 
-1 1:1 2:-4 3:-1 4:-0.08 5:-0.25 8:1 17:1 55:1 75:1 94:1 101:1 
-1 2:2 3:1 4:0.02 5:0.066667 7:1 17:1 31:1 80:1 106:1 107:1 111:1 129:1 
-0.03825583703922052 2:72 3:12 4:0.72 5:0.8 31:1 54:1 63:1 80:1 94:1 106:1 111:1 129:1 
-1 0:1 2:-81 3:-11 4:-0.81 5:-0.733333 6:1 17:1 19:1 54:1 63:1 67:1 94:1 105:1 109:1 111:1 129:1 
-0.4059304658266251 2:-66 3:-10 4:-0.66 5:-0.666667 7:1 11:1 17:1 19:1 20:1 22:1 43:1 54:1 63:1 94:1 111:1 117:1 129:1 
-1 2:-57 3:-9 4:-0.57 5:-0.6 7:1 17:1 19:1 31:1 54:1 63:1 80:1 94:1 106:1 111:1 129:1 
-1 2:-33 3:-6 4:-0.33 5:-0.4 17:1 19:1 42:1 54:1 63:1 90:1 94:1 129:1 
-1 2:-28 3:-5 4:-0.28 5:-0.333333 17:1 19:1 25:1 42:1 54:1 63:1 84:1 94:1 122:1 129:1 
-1 2:-24 3:-4 4:-0.24 5:-0.266667 17:1 19:1 54:1 63:1 68:1 84:1 94:1 112:1 122:1 129:1 
-1 2:-20 3:-3 4:-0.2 5:-0.2 6:1 17:1 19:1 20:1 25:1 54:1 63:1 84:1 94:1 129:1 
-1 2:7 3:1 4:0.07 5:0.066667 6:1 17:1 19:1 63:1 111:1 129:1 
-1 1:1 2:-7 3:-1 4:-0.12963 5:-0.166667 7:1 11:1 17:1 20:1 31:1 43:1 62:1 63:1 84:1 94:1 117:1 
-1 2:-28 3:-3 4:-0.518519 5:-0.5 7:1 11:1 17:1 31:1 45:1 50:1 54:1 62:1 84:1 94:1 122:1 
-1 1:1 2:-6 3:-1 4:-0.111111 5:-0.166667 17:1 45:1 50:1 54:1 68:1 84:1 122:1 
-1 2:-35 3:-3 4:-0.364583 5:-0.230769 7:1 11:1 17:1 20:1 22:1 27:1 43:1 45:1 46:1 94:1 97:1 109:1 117:1 122:1 
-1 2:-24 3:-2 4:-0.25 5:-0.153846 17:1 27:1 45:1 46:1 63:1 64:1 80:1 94:1 97:1 109:1 122:1 
-0.5561134955528369 2:-49 3:-5 4:-0.510417 5:-0.384615 7:1 11:1 17:1 20:1 22:1 43:1 71:1 90:1 94:1 99:1 109:1 117:1 129:1 
-1 2:-38 3:-4 4:-0.395833 5:-0.307692 17:1 63:1 64:1 71:1 80:1 90:1 94:1 99:1 109:1 129:1 
-0.3474062876501371 2:-20 3:-3 4:-0.208333 5:-0.230769 17:1 45:1 52:1 71:1 90:1 94:1 99:1 122:1 129:1 
-1 1:1 2:-4 3:-1 4:-0.041667 5:-0.076923 17:1 22:1 71:1 90:1 94:1 99:1 106:1 129:1 
-1 2:-64 3:-8 4:-0.666667 5:-0.615385 7:1 11:1 15:1 17:1 20:1 22:1 25:1 43:1 54:1 63:1 94:1 109:1 111:1 117:1 129:1 
-1 2:-53 3:-7 4:-0.552083 5:-0.538462 15:1 17:1 25:1 54:1 63:1 64:1 80:1 94:1 109:1 111:1 129:1 
-1 2:-15 3:-3 4:-0.15625 5:-0.230769 6:1 7:1 15:1 17:1 25:1 54:1 63:1 71:1 90:1 99:1 111:1 129:1 
-1 2:-8 3:-2 4:-0.083333 5:-0.153846 6:1 15:1 17:1 25:1 54:1 63:1 71:1 90:1 111:1 122:1 129:1 
-1 2:-80 3:-11 4:-0.833333 5:-0.846154 7:1 11:1 17:1 19:1 20:1 22:1 43:1 54:1 68:1 80:1 94:1 109:1 111:1 117:1 129:1 
-1 2:-69 3:-10 4:-0.71875 5:-0.769231 17:1 19:1 54:1 63:1 64:1 68:1 80:1 94:1 109:1 111:1 129:1 
-1 2:-51 3:-9 4:-0.53125 5:-0.692308 17:1 19:1 45:1 52:1 54:1 68:1 80:1 94:1 111:1 122:1 129:1 
-1 2:-31 3:-6 4:-0.322917 5:-0.461538 6:1 7:1 17:1 19:1 54:1 68:1 71:1 80:1 90:1 99:1 111:1 129:1 
-1 2:-24 3:-5 4:-0.25 5:-0.384615 17:1 19:1 25:1 54:1 68:1 71:1 80:1 90:1 111:1 122:1 129:1 
-1 2:-20 3:-4 4:-0.208333 5:-0.307692 17:1 19:1 54:1 63:1 68:1 80:1 100:1 111:1 122:1 129:1 
-1 2:-10 3:-2 4:-0.104167 5:-0.153846 10:1 15:1 17:1 19:1 63:1 68:1 80:1 85:1 89:1 111:1 129:1 
-1 1:1 2:-4 3:-1 4:-0.041667 5:-0.076923 10:1 19:1 63:1 68:1 80:1 85:1 90:1 129:1 
-0.002086812637593664 2:57 3:5 4:0.686747 5:0.555556 6:1 11:1 17:1 19:1 20:1 22:1 25:1 41:1 43:1 52:1 54:1 94:1 109:1 117:1 122:1 
-1 1:1 2:-9 3:-1 4:-0.108434 5:-0.111111 7:1 11:1 17:1 19:1 20:1 22:1 31:1 41:1 43:1 62:1 64:1 94:1 109:1 117:1 
-1 2:-33 3:-2 4:-0.39759 5:-0.222222 7:1 10:1 11:1 17:1 19:1 20:1 22:1 41:1 43:1 63:1 94:1 101:1 109:1 117:1 122:1 
-1 1:1 2:-24 3:-1 4:-0.289157 5:-0.111111 7:1 10:1 17:1 31:1 41:1 62:1 63:1 64:1 94:1 101:1 109:1 122:1 
-1 2:-30 3:-2 4:-0.361446 5:-0.222222 7:1 17:1 22:1 31:1 41:1 62:1 64:1 94:1 101:1 109:1 122:1 129:1 
-1 1:1 2:-8 3:-1 4:-0.088889 5:-0.083333 7:1 17:1 26:1 50:1 59:1 62:1 63:1 109:1 129:1 
-1 0:1 2:-81 3:-10 4:-0.9 5:-0.833333 6:1 27:1 34:1 80:1 94:1 105:1 109:1 111:1 116:1 119:1 129:1 
-1 2:-68 3:-9 4:-0.755556 5:-0.75 7:1 17:1 59:1 62:1 63:1 80:1 94:1 109:1 111:1 116:1 119:1 129:1 
-1 2:-60 3:-8 4:-0.666667 5:-0.666667 7:1 17:1 26:1 50:1 62:1 80:1 94:1 109:1 111:1 116:1 119:1 129:1 
-1 2:-51 3:-7 4:-0.566667 5:-0.583333 19:1 37:1 50:1 80:1 94:1 109:1 111:1 116:1 119:1 129:1 
-1 2:-10 3:-3 4:-0.111111 5:-0.25 59:1 80:1 94:1 112:1 116:1 119:1 129:1 
-1 2:-6 3:-2 4:-0.066667 5:-0.166667 6:1 68:1 80:1 94:1 116:1 119:1 129:1 
-1 2:3 3:1 4:0.033333 5:0.083333 7:1 22:1 60:1 80:1 116:1 119:1 129:1 
-1 0:1 2:-84 3:-11 4:-0.933333 5:-0.916667 6:1 22:1 27:1 34:1 60:1 80:1 94:1 105:1 109:1 111:1 129:1 
-0.641721616146315 2:-71 3:-10 4:-0.788889 5:-0.833333 7:1 17:1 22:1 59:1 60:1 62:1 63:1 80:1 94:1 109:1 111:1 129:1 
-1 2:-54 3:-8 4:-0.6 5:-0.666667 19:1 22:1 37:1 50:1 60:1 80:1 94:1 109:1 111:1 129:1 
-0.4638797601817351 2:-25 3:-5 4:-0.277778 5:-0.416667 17:1 22:1 60:1 63:1 73:1 80:1 94:1 98:1 109:1 111:1 129:1 
-1 2:-9 3:-3 4:-0.1 5:-0.25 6:1 22:1 60:1 68:1 80:1 94:1 116:1 119:1 129:1 
-1 1:1 2:-3 3:-1 4:-0.033333 5:-0.083333 7:1 22:1 60:1 80:1 116:1 119:1 129:1 
-1 1:1 2:-7 3:-1 4:-0.097222 5:-0.142857 7:1 11:1 17:1 20:1 31:1 43:1 62:1 63:1 84:1 94:1 117:1 
-1 2:2 3:1 4:0.027778 5:0.142857 17:1 45:1 50:1 68:1 70:1 84:1 111:1 122:1 
-1 0:1 1:1 2:-15 3:-1 4:-0.46875 5:-0.2 17:1 54:1 64:1 80:1 94:1 122:1 129:1 
-1 2:7 3:2 4:0.21875 5:0.4 17:1 54:1 57:1 64:1 92:1 94:1 101:1 122:1 129:1 
-1 0:1 2:-25 3:-4 4:-0.78125 5:-0.8 17:1 54:1 57:1 80:1 94:1 118:1 129:1 
-1 2:-10 3:-3 4:-0.3125 5:-0.6 7:1 17:1 54:1 57:1 64:1 80:1 94:1 118:1 122:1 129:1 
-1 1:1 2:-3 3:-1 4:-0.09375 5:-0.2 17:1 57:1 64:1 80:1 92:1 101:1 118:1 129:1 
-1 2:2 3:1 4:0.125 5:0.25 50:1 63:1 128:1 
-0.5699054068828974 2:5 3:2 4:0.3125 5:0.5 50:1 63:1 101:1 128:1 
-1 1:1 2:-15 3:-1 4:-0.306122 5:-0.142857 17:1 19:1 29:1 111:1 
-1 2:-21 3:-2 4:-0.428571 5:-0.285714 17:1 19:1 29:1 111:1 
-0.7979476869732837 1:1 2:-6 3:-1 4:-0.122449 5:-0.142857 7:1 17:1 19:1 
-1 2:-25 3:-3 4:-0.510204 5:-0.428571 17:1 19:1 29:1 111:1 
-1 2:-10 3:-2 4:-0.204082 5:-0.285714 7:1 17:1 19:1 
-1 2:2 3:1 4:0.040816 5:0.142857 9:1 17:1 19:1 
-1 2:4 3:2 4:0.081633 5:0.285714 7:1 9:1 17:1 19:1 
-1 2:-29 3:-5 4:-0.591837 5:-0.714286 9:1 17:1 19:1 29:1 111:1 
-1 1:1 2:-2 3:-1 4:-0.040816 5:-0.142857 9:1 17:1 19:1 
-1 2:-13 3:-2 4:-0.265306 5:-0.4 15:1 17:1 49:1 76:1 94:1 122:1 123:1 129:1 
-1 1:1 2:-10 3:-1 4:-0.204082 5:-0.2 15:1 17:1 49:1 76:1 94:1 98:1 129:1 
-1 2:3 3:1 4:0.061224 5:0.2 17:1 76:1 80:1 94:1 129:1 
-0.478350807991007 1:1 2:-7 3:-1 4:-0.137255 5:-0.2 7:1 13:1 17:1 19:1 49:1 63:1 94:1 111:1 123:1 124:1 129:1 
-1 2:4 3:1 4:0.078431 5:0.2 13:1 17:1 49:1 63:1 84:1 98:1 111:1 123:1 124:1 129:1 
-1 2:-30 3:-3 4:-0.588235 5:-0.6 7:1 13:1 17:1 19:1 46:1 71:1 80:1 94:1 111:1 
-1 2:-22 3:-2 4:-0.431373 5:-0.4 7:1 13:1 17:1 46:1 49:1 63:1 71:1 80:1 111:1 123:1 124:1 129:1 
-1 1:1 2:-18 3:-1 4:-0.352941 5:-0.2 17:1 46:1 49:1 71:1 80:1 84:1 98:1 129:1 
-1 1:1 2:-14 3:-1 4:-0.150538 5:-0.090909 6:1 17:1 19:1 51:1 61:1 66:1 94:1 95:1 102:1 109:1 129:1 
-1 2:-49 3:-3 4:-0.526882 5:-0.272727 6:1 17:1 52:1 54:1 59:1 61:1 66:1 76:1 94:1 95:1 102:1 109:1 116:1 129:1 
-1 2:-35 3:-2 4:-0.376344 5:-0.181818 7:1 17:1 19:1 51:1 52:1 54:1 59:1 76:1 94:1 109:1 116:1 129:1 
-0.627160012118368 1:1 2:-25 3:-1 4:-0.268817 5:-0.090909 17:1 49:1 52:1 54:1 59:1 63:1 76:1 84:1 94:1 98:1 109:1 116:1 129:1 
-1 2:3 3:1 4:0.032258 5:0.090909 52:1 59:1 60:1 76:1 94:1 109:1 116:1 129:1 
-1 2:-69 3:-7 4:-0.741935 5:-0.636364 6:1 17:1 54:1 61:1 66:1 75:1 94:1 95:1 101:1 102:1 109:1 129:1 
-1 2:-55 3:-6 4:-0.591398 5:-0.545455 7:1 17:1 19:1 51:1 54:1 75:1 94:1 101:1 109:1 
-1 2:-45 3:-5 4:-0.483871 5:-0.454545 17:1 49:1 54:1 63:1 75:1 84:1 94:1 98:1 101:1 109:1 129:1 
-1 2:-17 3:-3 4:-0.182796 5:-0.272727 17:1 52:1 60:1 75:1 76:1 94:1 101:1 129:1 
-0.2901158356938799 2:-13 3:-2 4:-0.139785 5:-0.181818 17:1 52:1 75:1 76:1 101:1 115:1 129:1 
-1 1:1 2:-5 3:-1 4:-0.053763 5:-0.090909 6:1 17:1 75:1 101:1 108:1 129:1 
-1 2:-24 3:-3 4:-0.282353 5:-0.3 7:1 17:1 27:1 31:1 41:1 46:1 57:1 62:1 63:1 64:1 80:1 94:1 97:1 109:1 122:1 
-0.4128776467962403 1:1 2:-5 3:-1 4:-0.058824 5:-0.1 17:1 27:1 41:1 46:1 57:1 94:1 97:1 122:1 129:1 
-1 2:-58 3:-8 4:-0.682353 5:-0.8 7:1 17:1 31:1 41:1 54:1 57:1 62:1 63:1 64:1 80:1 94:1 109:1 111:1 129:1 
-0.4956537737927453 2:-43 3:-7 4:-0.505882 5:-0.7 17:1 41:1 52:1 54:1 57:1 80:1 94:1 111:1 129:1 
-1 2:-39 3:-6 4:-0.458824 5:-0.6 17:1 41:1 54:1 57:1 80:1 94:1 111:1 122:1 129:1 
-1 2:-23 3:-4 4:-0.270588 5:-0.4 17:1 22:1 41:1 54:1 80:1 89:1 111:1 129:1 
-1 2:-18 3:-3 4:-0.211765 5:-0.3 17:1 41:1 54:1 71:1 80:1 90:1 129:1 
-1 2:-10 3:-2 4:-0.117647 5:-0.2 17:1 41:1 54:1 62:1 80:1 122:1 129:1 
-1 1:1 2:-5 3:-1 4:-0.058824 5:-0.1 17:1 41:1 54:1 62:1 80:1 122:1 129:1 
-1 0:1 2:-18 3:-3 4:-0.857143 5:-0.75 38:1 50:1 57:1 101:1 109:1 129:1 
-1 2:-15 3:-2 4:-0.714286 5:-0.5 50:1 57:1 101:1 109:1 118:1 129:1 
-1 0:1 2:-8 3:-3 4:-0.380952 5:-0.6 17:1 57:1 101:1 118:1 129:1 
-1 1:1 2:-4 3:-1 4:-0.190476 5:-0.2 17:1 57:1 60:1 101:1 118:1 129:1 
-1 1:1 2:-4 3:-1 4:-0.25 5:-0.25 7:1 16:1 19:1 50:1 56:1 60:1 62:1 76:1 115:1 
-1 2:2 3:1 4:0.125 5:0.25 7:1 16:1 19:1 50:1 60:1 76:1 115:1 
-1 0:1 2:-18 3:-6 4:-0.529412 5:-0.75 17:1 38:1 57:1 89:1 94:1 101:1 111:1 118:1 129:1 
-1 2:-11 3:-4 4:-0.323529 5:-0.5 6:1 17:1 38:1 57:1 88:1 94:1 101:1 118:1 129:1 
-1 1:1 2:-3 3:-1 4:-0.088235 5:-0.125 17:1 38:1 57:1 60:1 101:1 118:1 129:1 
-1 1:1 2:-18 3:-1 4:-0.5625 5:-0.333333 17:1 54:1 67:1 79:1 101:1 109:1 121:1 
-1 2:-24 3:-3 4:-0.545455 5:-0.6 6:1 17:1 79:1 80:1 94:1 96:1 97:1 109:1 
-1 2:-14 3:-2 4:-0.318182 5:-0.4 6:1 17:1 27:1 76:1 80:1 96:1 97:1 109:1 
-1 1:1 2:-10 3:-1 4:-0.227273 5:-0.2 6:1 17:1 55:1 76:1 79:1 80:1 96:1 97:1 109:1 
-1 1:1 2:-3 3:-1 4:-0.12 5:-0.166667 16:1 17:1 60:1 78:1 81:1 101:1 109:1 
-1 2:-6 3:-2 4:-0.24 5:-0.333333 14:1 16:1 17:1 44:1 78:1 81:1 101:1 109:1 
-1 2:2 3:1 4:0.08 5:0.166667 7:1 14:1 16:1 17:1 44:1 50:1 60:1 81:1 101:1 
-1 1:1 2:-2 3:-1 4:-0.08 5:-0.166667 7:1 14:1 16:1 17:1 44:1 50:1 60:1 81:1 101:1 
-1 2:2 3:1 4:0.08 5:0.166667 7:1 14:1 16:1 17:1 44:1 50:1 60:1 81:1 101:1 
-0.1025795629572898 2:-11 3:-4 4:-0.44 5:-0.666667 14:1 16:1 17:1 44:1 50:1 78:1 81:1 101:1 109:1 
-1 1:1 2:-2 3:-1 4:-0.08 5:-0.166667 7:1 14:1 16:1 17:1 44:1 50:1 60:1 81:1 101:1 
-1 2:-35 3:-3 4:-0.614035 5:-0.6 7:1 10:1 17:1 50:1 63:1 94:1 109:1 
-1 2:-27 3:-2 4:-0.473684 5:-0.4 10:1 17:1 49:1 50:1 63:1 94:1 109:1 115:1 
-1 1:1 2:-10 3:-1 4:-0.175439 5:-0.2 10:1 17:1 50:1 52:1 63:1 71:1 84:1 94:1 115:1 
-0.04470363164779955 2:58 3:4 4:0.563107 5:0.363636 11:1 17:1 20:1 22:1 43:1 57:1 63:1 94:1 111:1 112:1 117:1 
-0.07445976485375208 2:72 3:6 4:0.699029 5:0.545455 11:1 17:1 20:1 22:1 43:1 57:1 63:1 94:1 109:1 111:1 116:1 117:1 
-0.008000021284598844 2:76 3:7 4:0.737864 5:0.636364 11:1 17:1 20:1 22:1 43:1 57:1 63:1 68:1 90:1 94:1 109:1 111:1 117:1 
-0.03655164116457747 2:80 3:8 4:0.776699 5:0.727273 6:1 11:1 17:1 20:1 22:1 43:1 57:1 63:1 90:1 94:1 101:1 109:1 111:1 117:1 122:1 
-0.1235863861710712 2:87 3:9 4:0.84466 5:0.818182 7:1 11:1 17:1 20:1 22:1 43:1 57:1 63:1 80:1 84:1 94:1 109:1 111:1 117:1 
-0.02290375266443305 2:49 3:3 4:0.475728 5:0.272727 17:1 31:1 57:1 63:1 80:1 94:1 111:1 112:1 129:1 
-0.02117690937414143 2:51 3:4 4:0.495146 5:0.363636 17:1 27:1 41:1 45:1 46:1 57:1 63:1 94:1 97:1 109:1 111:1 116:1 122:1 
-1 2:-87 3:-9 4:-0.84466 5:-0.818182 7:1 11:1 17:1 20:1 22:1 43:1 57:1 63:1 80:1 84:1 94:1 109:1 111:1 117:1 
-1 2:-78 3:-8 4:-0.757282 5:-0.727273 7:1 17:1 31:1 57:1 80:1 84:1 94:1 109:1 111:1 129:1 
-1 2:-66 3:-7 4:-0.640777 5:-0.636364 7:1 17:1 27:1 41:1 45:1 46:1 57:1 80:1 84:1 94:1 97:1 109:1 111:1 122:1 
-1 2:-57 3:-6 4:-0.553398 5:-0.545455 17:1 52:1 57:1 80:1 84:1 94:1 109:1 111:1 
-1 2:-29 3:-5 4:-0.281553 5:-0.454545 17:1 63:1 80:1 84:1 94:1 109:1 112:1 
-1 2:-25 3:-4 4:-0.242718 5:-0.363636 17:1 80:1 84:1 94:1 109:1 
-1 1:1 2:-7 3:-1 4:-0.067961 5:-0.090909 6:1 17:1 80:1 84:1 90:1 94:1 101:1 122:1 
-1 0:1 2:-8 3:-3 4:-0.190476 5:-0.333333 17:1 57:1 101:1 118:1 129:1 
-1 1:1 2:-4 3:-1 4:-0.095238 5:-0.111111 17:1 57:1 60:1 101:1 118:1 129:1 
-1 1:1 2:-18 3:-1 4:-0.545455 5:-0.333333 17:1 61:1 63:1 75:1 98:1 
-1 2:-19 3:-2 4:-0.372549 5:-0.181818 9:1 17:1 62:1 94:1 109:1 120:1 122:1 129:1 
-1 1:1 2:-11 3:-1 4:-0.215686 5:-0.090909 17:1 24:1 50:1 101:1 109:1 120:1 122:1 129:1 
-1 2:4 3:1 4:0.078431 5:0.090909 7:1 17:1 50:1 57:1 87:1 107:1 109:1 120:1 122:1 129:1 
-1 2:7 3:2 4:0.137255 5:0.181818 6:1 17:1 50:1 57:1 91:1 109:1 120:1 122:1 129:1 
-0.3520192484641125 2:25 3:7 4:0.490196 5:0.636364 6:1 17:1 50:1 54:1 57:1 60:1 109:1 111:1 120:1 122:1 129:1 
-1 0:1 2:-28 3:-4 4:-0.54902 5:-0.363636 6:1 17:1 50:1 57:1 87:1 94:1 107:1 109:1 129:1 
-1 2:-23 3:-3 4:-0.45098 5:-0.272727 9:1 17:1 50:1 57:1 62:1 87:1 94:1 107:1 109:1 129:1 
-1 2:-15 3:-2 4:-0.294118 5:-0.181818 17:1 24:1 50:1 57:1 87:1 101:1 107:1 109:1 129:1 
-1 1:1 2:-4 3:-1 4:-0.078431 5:-0.090909 7:1 17:1 50:1 57:1 87:1 107:1 109:1 120:1 122:1 129:1 
-1 2:6 3:2 4:0.117647 5:0.181818 17:1 50:1 54:1 57:1 87:1 107:1 109:1 129:1 
-0.1920760736857402 2:-34 3:-6 4:-0.666667 5:-0.545455 9:1 17:1 54:1 57:1 62:1 94:1 109:1 111:1 129:1 
-1 2:-26 3:-5 4:-0.509804 5:-0.454545 24:1 50:1 54:1 57:1 101:1 109:1 111:1 129:1 
-1 2:-8 3:-2 4:-0.156863 5:-0.181818 6:1 50:1 54:1 57:1 91:1 111:1 120:1 129:1 
-1 1:1 2:-5 3:-1 4:-0.098039 5:-0.090909 50:1 54:1 87:1 111:1 129:1 
-1 2:3 3:1 4:0.058824 5:0.090909 7:1 19:1 54:1 60:1 111:1 127:1 129:1 
-1 0:1 2:-42 3:-8 4:-0.823529 5:-0.727273 17:1 19:1 54:1 57:1 60:1 94:1 109:1 111:1 127:1 129:1 
-1 2:-29 3:-6 4:-0.568627 5:-0.545455 19:1 24:1 50:1 54:1 57:1 60:1 101:1 109:1 111:1 127:1 129:1 
-0.5662964240701101 2:-11 3:-3 4:-0.215686 5:-0.272727 19:1 50:1 54:1 57:1 60:1 91:1 111:1 120:1 127:1 129:1 
-1 2:-8 3:-2 4:-0.156863 5:-0.181818 19:1 50:1 54:1 60:1 87:1 111:1 127:1 129:1 
-1 2:4 3:1 4:0.078431 5:0.090909 7:1 19:1 50:1 57:1 60:1 111:1 127:1 129:1 
-1 0:1 2:-46 3:-9 4:-0.901961 5:-0.818182 17:1 19:1 50:1 54:1 57:1 94:1 109:1 111:1 129:1 
-1 2:-12 3:-3 4:-0.235294 5:-0.272727 19:1 50:1 54:1 57:1 87:1 111:1 129:1 
-1 1:1 2:-4 3:-1 4:-0.078431 5:-0.090909 7:1 19:1 50:1 57:1 60:1 111:1 127:1 129:1 
-1 0:1 2:-28 3:-5 4:-0.823529 5:-0.833333 17:1 29:1 47:1 63:1 80:1 94:1 109:1 
-1 2:-16 3:-3 4:-0.470588 5:-0.5 17:1 47:1 50:1 63:1 80:1 94:1 109:1 
-1 2:-7 3:-2 4:-0.205882 5:-0.333333 17:1 47:1 50:1 63:1 80:1 94:1 
-1 2:2 3:1 4:0.068966 5:0.166667 7:1 17:1 29:1 50:1 97:1 128:1 
-1 0:1 2:-8 3:-2 4:-0.275862 5:-0.333333 17:1 29:1 50:1 97:1 128:1 
-1 2:5 3:1 4:0.172414 5:0.166667 17:1 50:1 57:1 63:1 97:1 128:1 
-1 0:1 2:-22 3:-5 4:-0.846154 5:-0.833333 17:1 61:1 80:1 94:1 109:1 
-0.4627153392031307 2:-13 3:-4 4:-0.5 5:-0.666667 17:1 50:1 80:1 86:1 94:1 109:1 
-1 2:-12 3:-3 4:-0.461538 5:-0.5 17:1 50:1 80:1 86:1 94:1 109:1 
-1 2:-9 3:-2 4:-0.346154 5:-0.333333 17:1 19:1 50:1 80:1 86:1 94:1 
-1 0:1 2:-13 3:-2 4:-0.168831 5:-0.153846 17:1 42:1 54:1 56:1 57:1 72:1 94:1 129:1 
-1 1:1 2:-5 3:-1 4:-0.064935 5:-0.076923 17:1 42:1 50:1 57:1 72:1 94:1 129:1 
-0.02982654309133063 2:53 3:10 4:0.688312 5:0.769231 7:1 17:1 42:1 50:1 57:1 62:1 94:1 109:1 129:1 
-1 0:1 2:-35 3:-6 4:-0.454545 5:-0.461538 17:1 49:1 50:1 54:1 56:1 57:1 62:1 72:1 94:1 109:1 129:1 
-1 2:-18 3:-3 4:-0.233766 5:-0.230769 42:1 44:1 49:1 50:1 55:1 57:1 62:1 109:1 129:1 
-1 1:1 2:-11 3:-1 4:-0.142857 5:-0.076923 17:1 49:1 50:1 57:1 62:1 109:1 129:1 
-1 2:4 3:1 4:0.051948 5:0.076923 16:1 49:1 50:1 62:1 95:1 101:1 109:1 129:1 
-1 0:1 2:-52 3:-11 4:-0.675325 5:-0.846154 17:1 54:1 56:1 57:1 64:1 72:1 94:1 109:1 129:1 
-1 2:-28 3:-6 4:-0.363636 5:-0.461538 17:1 57:1 64:1 109:1 129:1 
-1 2:-11 3:-3 4:-0.142857 5:-0.230769 17:1 50:1 57:1 64:1 95:1 101:1 129:1 
-1 2:-7 3:-2 4:-0.090909 5:-0.153846 17:1 50:1 57:1 64:1 95:1 129:1 
-0.1189432480231953 0:1 2:-67 3:-12 4:-0.87013 5:-0.923077 17:1 50:1 54:1 56:1 57:1 62:1 72:1 94:1 109:1 129:1 
-1 2:-46 3:-8 4:-0.597403 5:-0.615385 6:1 38:1 42:1 50:1 57:1 62:1 109:1 129:1 
-1 2:-28 3:-5 4:-0.363636 5:-0.384615 16:1 49:1 50:1 57:1 62:1 95:1 101:1 109:1 129:1 
-1 2:-26 3:-4 4:-0.337662 5:-0.307692 50:1 57:1 62:1 95:1 101:1 109:1 129:1 
-1 2:-22 3:-3 4:-0.285714 5:-0.230769 17:1 50:1 57:1 62:1 95:1 109:1 129:1 
-1 2:-20 3:-2 4:-0.25974 5:-0.153846 6:1 17:1 50:1 57:1 62:1 64:1 95:1 109:1 129:1 
-1 0:1 2:-9 3:-2 4:-0.09375 5:-0.117647 17:1 54:1 57:1 85:1 127:1 129:1 
-1 1:1 2:-3 3:-1 4:-0.03125 5:-0.058824 17:1 54:1 57:1 120:1 127:1 129:1 
-0.03965512077208157 2:26 3:3 4:0.270833 5:0.176471 7:1 50:1 54:1 57:1 76:1 127:1 129:1 
-1 1:1 2:-3 3:-1 4:-0.03125 5:-0.058824 7:1 17:1 26:1 54:1 57:1 120:1 127:1 129:1 
-1 2:-29 3:-4 4:-0.302083 5:-0.235294 17:1 50:1 54:1 57:1 76:1 120:1 129:1 
-1 2:-26 3:-3 4:-0.270833 5:-0.176471 7:1 50:1 54:1 57:1 76:1 127:1 129:1 
-1 2:-23 3:-2 4:-0.239583 5:-0.117647 7:1 17:1 26:1 50:1 57:1 76:1 120:1 129:1 
-1 1:1 2:-3 3:-1 4:-0.03125 5:-0.058824 50:1 76:1 129:1 
-1 2:4 3:1 4:0.041667 5:0.058824 19:1 50:1 76:1 100:1 129:1 
-0.05215248055861196 2:58 3:11 4:0.604167 5:0.647059 7:1 50:1 57:1 76:1 94:1 109:1 111:1 129:1 
-1 0:1 2:-42 3:-7 4:-0.4375 5:-0.411765 17:1 19:1 26:1 54:1 57:1 85:1 129:1 
-0.4111533676383529 2:-36 3:-6 4:-0.375 5:-0.352941 17:1 19:1 26:1 54:1 57:1 120:1 129:1 
-1 2:-33 3:-5 4:-0.34375 5:-0.294118 7:1 19:1 26:1 54:1 57:1 127:1 129:1 
-1 2:-30 3:-4 4:-0.3125 5:-0.235294 7:1 17:1 19:1 26:1 57:1 120:1 129:1 
-1 2:-10 3:-3 4:-0.104167 5:-0.176471 19:1 26:1 50:1 57:1 129:1 
-1 1:1 2:-3 3:-1 4:-0.03125 5:-0.058824 19:1 26:1 57:1 76:1 100:1 129:1 
-1 0:1 2:-67 3:-12 4:-0.697917 5:-0.705882 17:1 50:1 54:1 57:1 85:1 111:1 122:1 129:1 
-1 2:-21 3:-4 4:-0.21875 5:-0.235294 26:1 50:1 57:1 100:1 111:1 122:1 129:1 
-1 2:-12 3:-3 4:-0.125 5:-0.176471 19:1 50:1 57:1 111:1 122:1 129:1 
-1 1:1 2:-4 3:-1 4:-0.041667 5:-0.058824 6:1 50:1 57:1 122:1 129:1 
-1 0:1 2:-93 3:-16 4:-0.96875 5:-0.941176 17:1 50:1 54:1 57:1 85:1 94:1 109:1 111:1 129:1 
-1 2:-87 3:-15 4:-0.90625 5:-0.882353 17:1 50:1 54:1 57:1 94:1 109:1 111:1 120:1 129:1 
-0.7263909203571819 2:-84 3:-14 4:-0.875 5:-0.823529 7:1 50:1 54:1 57:1 94:1 109:1 111:1 127:1 129:1 
-0.4121322108385649 2:-81 3:-13 4:-0.84375 5:-0.764706 7:1 17:1 26:1 50:1 57:1 94:1 109:1 111:1 120:1 129:1 
-1 2:-30 3:-5 4:-0.3125 5:-0.294118 6:1 50:1 57:1 94:1 109:1 129:1 
-1 2:-8 3:-2 4:-0.083333 5:-0.117647 50:1 57:1 92:1 94:1 101:1 109:1 129:1 
-1 1:1 2:-4 3:-1 4:-0.041667 5:-0.058824 50:1 57:1 109:1 129:1 
-1 0:1 2:-21 3:-4 4:-0.375 5:-0.285714 17:1 28:1 57:1 69:1 94:1 116:1 129:1 
-1 2:-12 3:-3 4:-0.214286 5:-0.214286 17:1 57:1 94:1 101:1 116:1 129:1 
-1 2:-8 3:-2 4:-0.142857 5:-0.142857 17:1 57:1 101:1 116:1 121:1 129:1 
-1 1:1 2:-6 3:-1 4:-0.107143 5:-0.071429 17:1 57:1 116:1 129:1 
-1 2:6 3:2 4:0.107143 5:0.142857 7:1 17:1 57:1 116:1 122:1 129:1 
-1 0:1 2:-27 3:-6 4:-0.482143 5:-0.428571 6:1 17:1 28:1 57:1 69:1 94:1 116:1 122:1 129:1 
-1 1:1 2:-3 3:-1 4:-0.053571 5:-0.071429 17:1 36:1 57:1 116:1 122:1 129:1 
-1 2:6 3:1 4:0.107143 5:0.071429 17:1 50:1 54:1 116:1 122:1 124:1 129:1 
-0.04697808377272707 2:26 3:7 4:0.464286 5:0.5 6:1 17:1 19:1 54:1 57:1 79:1 80:1 116:1 122:1 129:1 
-1 0:1 2:-39 3:-9 4:-0.696429 5:-0.642857 17:1 28:1 50:1 54:1 57:1 63:1 69:1 94:1 
-1 2:-4 3:-2 4:-0.071429 5:-0.142857 50:1 54:1 63:1 122:1 124:1 
-1 1:1 2:-2 3:-1 4:-0.035714 5:-0.071429 50:1 54:1 63:1 92:1 106:1 124:1 
-1 0:1 2:-45 3:-10 4:-0.803571 5:-0.714286 6:1 17:1 28:1 50:1 54:1 57:1 63:1 69:1 94:1 
-1 2:-8 3:-2 4:-0.142857 5:-0.142857 50:1 54:1 63:1 92:1 106:1 124:1 
-1 1:1 2:-5 3:-1 4:-0.089286 5:-0.071429 7:1 50:1 54:1 63:1 
-1 2:2 3:1 4:0.035714 5:0.071429 19:1 50:1 54:1 63:1 79:1 
-1 2:4 3:1 4:0.173913 5:0.2 7:1 50:1 70:1 72:1 78:1 80:1 101:1 129:1 
-1 1:1 2:-4 3:-1 4:-0.173913 5:-0.2 7:1 50:1 70:1 72:1 78:1 80:1 101:1 129:1 
-1 2:4 3:1 4:0.173913 5:0.2 50:1 61:1 80:1 111:1 129:1 
-1 2:4 3:1 4:0.148148 5:0.166667 13:1 17:1 50:1 80:1 100:1 
-1 0:1 2:-24 3:-5 4:-0.888889 5:-0.833333 13:1 17:1 65:1 70:1 72:1 78:1 80:1 94:1 101:1 
-1 2:-19 3:-4 4:-0.703704 5:-0.666667 7:1 13:1 17:1 70:1 72:1 78:1 80:1 94:1 101:1 
-1 2:-14 3:-3 4:-0.518519 5:-0.5 50:1 70:1 72:1 78:1 80:1 94:1 100:1 101:1 
-1 2:-10 3:-2 4:-0.37037 5:-0.333333 50:1 70:1 72:1 78:1 80:1 94:1 101:1 
-1 0:1 1:1 2:-13 3:-1 4:-0.351351 5:-0.25 17:1 57:1 61:1 76:1 
-1 2:-13 3:-2 4:-0.351351 5:-0.5 7:1 17:1 57:1 67:1 76:1 79:1 94:1 
-1 1:1 2:-10 3:-1 4:-0.27027 5:-0.25 17:1 51:1 57:1 67:1 76:1 79:1 94:1 125:1 
-1 1:1 2:-4 3:-1 4:-0.133333 5:-0.142857 7:1 16:1 19:1 50:1 56:1 60:1 62:1 76:1 115:1 122:1 
-1 2:-12 3:-3 4:-0.4 5:-0.428571 7:1 56:1 60:1 62:1 76:1 115:1 122:1 129:1 
-0.6078245857364996 1:1 2:-6 3:-1 4:-0.2 5:-0.142857 7:1 19:1 50:1 60:1 76:1 122:1 129:1 
-1 2:-17 3:-4 4:-0.566667 5:-0.571429 7:1 50:1 56:1 60:1 62:1 76:1 101:1 115:1 129:1 
-1 2:-11 3:-2 4:-0.366667 5:-0.285714 7:1 19:1 50:1 60:1 76:1 101:1 122:1 129:1 
-1 1:1 2:-5 3:-1 4:-0.166667 5:-0.142857 7:1 50:1 101:1 122:1 129:1 
-1 2:3 3:1 4:0.1 5:0.142857 50:1 101:1 125:1 129:1 
-0.04809735421555161 2:25 3:2 4:0.462963 5:0.333333 6:1 11:1 17:1 20:1 25:1 43:1 52:1 54:1 63:1 71:1 84:1 94:1 99:1 117:1 122:1 
-1 1:1 2:-7 3:-1 4:-0.12963 5:-0.166667 7:1 11:1 17:1 20:1 31:1 43:1 62:1 63:1 84:1 94:1 117:1 
-1 2:-28 3:-3 4:-0.518519 5:-0.5 7:1 11:1 17:1 31:1 45:1 50:1 54:1 62:1 84:1 94:1 122:1 
-0.9349255455253501 1:1 2:-6 3:-1 4:-0.111111 5:-0.166667 17:1 45:1 50:1 54:1 68:1 84:1 122:1 
-1 2:3 3:1 4:0.037037 5:0.090909 7:1 19:1 94:1 100:1 101:1 125:1 129:1 
-0.7581462993525402 1:1 2:-3 3:-1 4:-0.037037 5:-0.090909 7:1 19:1 94:1 100:1 101:1 125:1 129:1 
-1 2:4 3:1 4:0.049383 5:0.090909 17:1 19:1 53:1 100:1 101:1 122:1 125:1 129:1 
-0.7577773555618426 2:-14 3:-3 4:-0.17284 5:-0.272727 7:1 17:1 19:1 20:1 101:1 125:1 129:1 
-1 2:-10 3:-2 4:-0.123457 5:-0.181818 17:1 19:1 20:1 53:1 100:1 101:1 122:1 129:1 
-1 1:1 2:-2 3:-1 4:-0.024691 5:-0.090909 17:1 20:1 84:1 100:1 101:1 
-0.01484586117880138 2:25 3:2 4:0.308642 5:0.181818 6:1 17:1 20:1 57:1 94:1 101:1 
-1 2:-50 3:-7 4:-0.617284 5:-0.636364 7:1 17:1 57:1 94:1 100:1 101:1 116:1 125:1 
-1 2:-43 3:-5 4:-0.530864 5:-0.454545 17:1 19:1 53:1 57:1 94:1 100:1 101:1 116:1 122:1 125:1 129:1 
-1 2:-35 3:-4 4:-0.432099 5:-0.363636 17:1 20:1 57:1 84:1 94:1 100:1 101:1 116:1 125:1 
-1 2:-33 3:-3 4:-0.407407 5:-0.272727 7:1 17:1 20:1 57:1 94:1 101:1 116:1 125:1 
-1 2:-17 3:-2 4:-0.209877 5:-0.181818 17:1 57:1 84:1 89:1 94:1 101:1 116:1 125:1 
-1 1:1 2:-8 3:-1 4:-0.098765 5:-0.090909 6:1 17:1 101:1 116:1 125:1 
-1 2:2 3:1 4:0.024691 5:0.090909 7:1 17:1 71:1 100:1 101:1 116:1 125:1 
-1 2:-52 3:-8 4:-0.641975 5:-0.727273 7:1 17:1 57:1 71:1 94:1 100:1 101:1 116:1 
-0.2417520087083505 2:-49 3:-7 4:-0.604938 5:-0.636364 7:1 17:1 19:1 57:1 71:1 94:1 100:1 101:1 116:1 125:1 129:1 
-1 2:-45 3:-6 4:-0.555556 5:-0.545455 17:1 19:1 53:1 57:1 71:1 94:1 100:1 116:1 122:1 129:1 
-1 2:-37 3:-5 4:-0.45679 5:-0.454545 17:1 20:1 57:1 71:1 84:1 94:1 100:1 116:1 
-1 2:-10 3:-2 4:-0.123457 5:-0.181818 17:1 71:1 100:1 116:1 
-1 2:3 3:1 4:0.078947 5:0.25 16:1 17:1 19:1 62:1 82:1 94:1 99:1 109:1 117:1 129:1 
-1 2:-12 3:-2 4:-0.315789 5:-0.5 7:1 17:1 62:1 79:1 80:1 94:1 99:1 101:1 103:1 109:1 117:1 129:1 
-1 1:1 2:-9 3:-1 4:-0.236842 5:-0.25 16:1 17:1 19:1 79:1 80:1 82:1 94:1 99:1 101:1 103:1 129:1 
-1 0:1 1:1 2:-6 3:-1 4:-0.12 5:-0.142857 17:1 54:1 57:1 110:1 129:1 
-1 2:6 3:2 4:0.12 5:0.285714 17:1 34:1 45:1 54:1 57:1 63:1 129:1 
-1 2:-18 3:-2 4:-0.36 5:-0.285714 17:1 45:1 54:1 57:1 101:1 111:1 120:1 122:1 129:1 
-1 1:1 2:-14 3:-1 4:-0.28 5:-0.142857 17:1 34:1 45:1 63:1 101:1 111:1 122:1 
-1 2:4 3:1 4:0.078431 5:0.2 17:1 63:1 94:1 103:1 
-1 1:1 2:-2 3:-1 4:-0.039216 5:-0.2 17:1 59:1 63:1 94:1 109:1 
-1 1:1 2:-4 3:-1 4:-0.083333 5:-0.2 7:1 16:1 17:1 27:1 55:1 94:1 126:1 128:1 
-0.3605422496345063 2:-13 3:-3 4:-0.270833 5:-0.6 7:1 17:1 55:1 63:1 80:1 94:1 126:1 128:1 
-0.8302172995394885 2:-8 3:-2 4:-0.166667 5:-0.4 7:1 16:1 17:1 27:1 63:1 80:1 94:1 128:1 
-1 1:1 2:-3 3:-1 4:-0.0625 5:-0.2 17:1 27:1 63:1 80:1 94:1 
-1 0:1 2:-18 3:-3 4:-0.514286 5:-0.5 19:1 53:1 68:1 98:1 101:1 106:1 115:1 
-1 1:1 2:-3 3:-1 4:-0.085714 5:-0.166667 22:1 53:1 68:1 71:1 99:1 101:1 115:1 
-1 0:1 2:-32 3:-5 4:-0.914286 5:-0.833333 19:1 80:1 98:1 106:1 129:1 
-1 2:-17 3:-3 4:-0.485714 5:-0.5 22:1 53:1 71:1 80:1 99:1 115:1 129:1 
-1 2:-14 3:-2 4:-0.4 5:-0.333333 7:1 53:1 68:1 80:1 101:1 115:1 129:1 
-1 1:1 2:-6 3:-1 4:-0.171429 5:-0.166667 17:1 80:1 101:1 116:1 129:1 
-1 0:1 2:-10 3:-2 4:-0.526316 5:-0.5 13:1 19:1 37:1 100:1 109:1 122:1 129:1 
-1 1:1 2:-7 3:-1 4:-0.368421 5:-0.25 13:1 17:1 19:1 37:1 100:1 109:1 118:1 122:1 129:1 
-1 2:-10 3:-2 4:-0.526316 5:-0.5 6:1 9:1 13:1 17:1 19:1 50:1 109:1 114:1 115:1 118:1 129:1 
-1 1:1 2:-3 3:-1 4:-0.157895 5:-0.25 7:1 9:1 13:1 17:1 19:1 37:1 50:1 100:1 109:1 114:1 115:1 122:1 
-0.8389988915512417 2:-10 3:-2 4:-0.555556 5:-0.5 7:1 17:1 35:1 54:1 63:1 72:1 80:1 81:1 94:1 109:1 129:1 
-1 1:1 2:-3 3:-1 4:-0.166667 5:-0.25 16:1 63:1 72:1 78:1 80:1 109:1 129:1 
-1 2:6 3:1 4:0.230769 5:0.2 17:1 33:1 54:1 94:1 101:1 129:1 
-1 1:1 2:-2 3:-1 4:-0.076923 5:-0.2 17:1 33:1 94:1 101:1 
-1 2:-9 3:-2 4:-0.346154 5:-0.4 17:1 33:1 50:1 94:1 101:1 109:1 129:1 
-1 1:1 2:-7 3:-1 4:-0.269231 5:-0.2 7:1 17:1 33:1 50:1 101:1 109:1 129:1 
-1 2:-11 3:-2 4:-0.180328 5:-0.222222 19:1 50:1 56:1 57:1 87:1 91:1 101:1 122:1 129:1 
-1 1:1 2:-3 3:-1 4:-0.04918 5:-0.111111 50:1 57:1 65:1 87:1 91:1 101:1 129:1 
-1 2:3 3:1 4:0.04918 5:0.111111 6:1 35:1 50:1 57:1 65:1 87:1 91:1 101:1 129:1 
-1 2:6 3:2 4:0.098361 5:0.222222 17:1 50:1 57:1 87:1 91:1 101:1 129:1 
-1 0:1 2:-48 3:-6 4:-0.786885 5:-0.666667 17:1 24:1 57:1 81:1 94:1 98:1 101:1 
-1 2:-27 3:-5 4:-0.442623 5:-0.555556 17:1 19:1 24:1 56:1 57:1 81:1 94:1 98:1 101:1 122:1 129:1 
-0.9309082519204935 2:-19 3:-4 4:-0.311475 5:-0.444444 17:1 24:1 50:1 57:1 65:1 81:1 94:1 98:1 101:1 129:1 
-1 2:-15 3:-3 4:-0.245902 5:-0.333333 7:1 17:1 24:1 50:1 57:1 81:1 87:1 91:1 94:1 98:1 101:1 129:1 
-1 2:-12 3:-2 4:-0.196721 5:-0.222222 17:1 24:1 35:1 57:1 65:1 81:1 94:1 98:1 101:1 129:1 
-1 0:1 2:-56 3:-7 4:-0.918033 5:-0.777778 16:1 17:1 50:1 57:1 81:1 94:1 101:1 109:1 122:1 
-0.3789965890289007 2:-35 3:-6 4:-0.57377 5:-0.666667 16:1 19:1 50:1 56:1 57:1 81:1 94:1 101:1 109:1 122:1 129:1 
-1 2:-23 3:-4 4:-0.377049 5:-0.444444 7:1 16:1 50:1 57:1 81:1 87:1 91:1 94:1 101:1 109:1 122:1 129:1 
-1 2:-20 3:-3 4:-0.327869 5:-0.333333 16:1 35:1 50:1 57:1 65:1 81:1 94:1 101:1 109:1 122:1 129:1 
-1 1:1 2:-7 3:-1 4:-0.114754 5:-0.111111 7:1 16:1 17:1 24:1 50:1 81:1 94:1 98:1 101:1 109:1 122:1 
-1 0:1 2:-59 3:-8 4:-0.967213 5:-0.888889 17:1 50:1 57:1 81:1 94:1 109:1 
-1 2:-26 3:-5 4:-0.42623 5:-0.555556 7:1 50:1 57:1 81:1 87:1 91:1 94:1 101:1 109:1 129:1 
-1 2:-23 3:-4 4:-0.377049 5:-0.444444 35:1 50:1 57:1 65:1 81:1 94:1 101:1 109:1 129:1 
-0.984533018078635 2:-10 3:-2 4:-0.163934 5:-0.222222 7:1 17:1 24:1 50:1 81:1 94:1 98:1 101:1 109:1 
-0.07397116657227773 1:1 2:-3 3:-1 4:-0.04918 5:-0.111111 7:1 16:1 50:1 81:1 94:1 101:1 109:1 122:1 
-1 0:1 2:-21 3:-4 4:-0.567568 5:-0.5 17:1 28:1 57:1 69:1 94:1 116:1 129:1 
-1 2:-12 3:-3 4:-0.324324 5:-0.375 17:1 57:1 94:1 101:1 116:1 129:1 
-1 2:-8 3:-2 4:-0.216216 5:-0.25 17:1 57:1 101:1 116:1 121:1 129:1 
-1 1:1 2:-6 3:-1 4:-0.162162 5:-0.125 17:1 57:1 116:1 129:1 
-1 2:6 3:2 4:0.162162 5:0.25 7:1 17:1 57:1 116:1 122:1 129:1 
-1 0:1 2:-27 3:-6 4:-0.72973 5:-0.75 6:1 17:1 28:1 57:1 69:1 94:1 116:1 122:1 129:1 
-1 1:1 2:-3 3:-1 4:-0.081081 5:-0.125 17:1 36:1 57:1 116:1 122:1 129:1 
-0.3387956881517838 2:6 3:1 4:0.162162 5:0.125 17:1 50:1 116:1 122:1 129:1 
-1 1:1 2:-21 3:-1 4:-0.617647 5:-0.25 17:1 19:1 20:1 41:1 50:1 94:1 99:1 101:1 109:1 122:1 
-1 2:-13 3:-2 4:-0.52 5:-0.4 9:1 17:1 40:1 51:1 53:1 94:1 96:1 109:1 
-1 1:1 2:-2 3:-1 4:-0.08 5:-0.2 9:1 17:1 18:1 40:1 63:1 94:1 109:1 
-1 2:-19 3:-3 4:-0.76 5:-0.6 9:1 17:1 51:1 53:1 80:1 94:1 96:1 109:1 
-1 2:-8 3:-2 4:-0.32 5:-0.4 9:1 17:1 18:1 63:1 80:1 94:1 109:1 
-1 1:1 2:-5 3:-1 4:-0.2 5:-0.2 6:1 7:1 9:1 17:1 40:1 80:1 94:1 109:1 
-1 2:-20 3:-2 4:-0.465116 5:-0.4 17:1 34:1 102:1 111:1 129:1 
-1 1:1 2:-15 3:-1 4:-0.348837 5:-0.2 17:1 34:1 69:1 111:1 129:1 
-0.7243476996039278 2:3 3:1 4:0.028571 5:0.071429 7:1 17:1 18:1 34:1 59:1 60:1 94:1 109:1 129:1 
-1 0:1 2:-74 3:-10 4:-0.704762 5:-0.714286 6:1 8:1 17:1 23:1 51:1 61:1 63:1 80:1 94:1 102:1 109:1 111:1 129:1 
-1 2:-55 3:-9 4:-0.52381 5:-0.642857 7:1 17:1 18:1 23:1 59:1 63:1 94:1 102:1 109:1 111:1 129:1 
-0.819156526918519 2:-51 3:-8 4:-0.485714 5:-0.571429 7:1 17:1 23:1 34:1 60:1 63:1 94:1 102:1 109:1 111:1 129:1 
-1 2:-16 3:-2 4:-0.152381 5:-0.142857 17:1 23:1 63:1 80:1 94:1 102:1 109:1 111:1 129:1 
-1 0:1 2:-79 3:-11 4:-0.752381 5:-0.785714 6:1 8:1 17:1 23:1 34:1 51:1 61:1 80:1 94:1 102:1 109:1 111:1 
-1 2:-22 3:-4 4:-0.209524 5:-0.285714 17:1 23:1 34:1 94:1 102:1 109:1 111:1 114:1 129:1 
-1 2:-21 3:-3 4:-0.2 5:-0.214286 17:1 23:1 34:1 80:1 94:1 102:1 109:1 111:1 129:1 
-1 0:1 2:-90 3:-12 4:-0.857143 5:-0.857143 6:1 8:1 17:1 51:1 61:1 63:1 80:1 93:1 94:1 109:1 111:1 
-0.8875987411727878 2:-67 3:-10 4:-0.638095 5:-0.714286 7:1 17:1 34:1 60:1 63:1 93:1 94:1 109:1 111:1 129:1 
-0.8467444700130988 2:-48 3:-9 4:-0.457143 5:-0.642857 17:1 63:1 80:1 93:1 94:1 109:1 111:1 
-0.9425622025926335 2:-39 3:-7 4:-0.371429 5:-0.5 17:1 63:1 76:1 89:1 93:1 94:1 109:1 111:1 
-1 2:-35 3:-6 4:-0.333333 5:-0.428571 17:1 63:1 93:1 94:1 109:1 111:1 114:1 129:1 
-1 2:-33 3:-5 4:-0.314286 5:-0.357143 17:1 63:1 93:1 94:1 109:1 111:1 114:1 129:1 
-1 2:-32 3:-4 4:-0.304762 5:-0.285714 17:1 63:1 80:1 93:1 94:1 109:1 111:1 129:1 
-1 2:-16 3:-2 4:-0.152381 5:-0.142857 7:1 17:1 23:1 63:1 93:1 94:1 102:1 109:1 129:1 
-1 1:1 2:-10 3:-1 4:-0.095238 5:-0.071429 7:1 17:1 23:1 34:1 63:1 93:1 94:1 102:1 
-1 0:1 2:-101 3:-13 4:-0.961905 5:-0.928571 6:1 8:1 34:1 51:1 61:1 80:1 94:1 101:1 109:1 111:1 
-1 2:-82 3:-12 4:-0.780952 5:-0.857143 7:1 17:1 18:1 34:1 59:1 80:1 94:1 101:1 109:1 111:1 129:1 
-1 2:-78 3:-11 4:-0.742857 5:-0.785714 7:1 17:1 34:1 60:1 80:1 94:1 101:1 109:1 111:1 129:1 
-0.006476101307397959 2:-59 3:-10 4:-0.561905 5:-0.714286 17:1 34:1 80:1 94:1 101:1 109:1 111:1 
-0.9688621110255837 2:-46 3:-7 4:-0.438095 5:-0.5 17:1 34:1 80:1 94:1 101:1 109:1 111:1 114:1 129:1 
-1 2:-44 3:-6 4:-0.419048 5:-0.428571 34:1 80:1 94:1 101:1 109:1 111:1 114:1 129:1 
-1 2:-43 3:-5 4:-0.409524 5:-0.357143 34:1 80:1 94:1 101:1 109:1 111:1 129:1 
-1 2:-27 3:-3 4:-0.257143 5:-0.214286 7:1 17:1 23:1 34:1 63:1 80:1 94:1 101:1 102:1 109:1 129:1 
-1 2:-21 3:-2 4:-0.2 5:-0.142857 7:1 17:1 23:1 34:1 80:1 94:1 101:1 102:1 
-1 1:1 2:-10 3:-1 4:-0.095238 5:-0.071429 7:1 17:1 34:1 63:1 80:1 93:1 94:1 101:1 
-1 1:1 2:-20 3:-1 4:-0.215054 5:-0.090909 8:1 17:1 61:1 63:1 94:1 101:1 109:1 111:1 122:1 
-1 2:-39 3:-4 4:-0.419355 5:-0.363636 8:1 17:1 34:1 40:1 92:1 94:1 109:1 111:1 
-1 2:-11 3:-2 4:-0.11828 5:-0.181818 17:1 34:1 40:1 69:1 89:1 92:1 94:1 101:1 109:1 
-1 0:1 2:-64 3:-6 4:-0.688172 5:-0.545455 17:1 34:1 57:1 80:1 94:1 109:1 111:1 123:1 129:1 
-1 2:-59 3:-5 4:-0.634409 5:-0.454545 8:1 17:1 34:1 57:1 80:1 94:1 109:1 111:1 123:1 129:1 
-1 2:-38 3:-4 4:-0.408602 5:-0.363636 7:1 17:1 34:1 57:1 61:1 63:1 80:1 94:1 101:1 109:1 122:1 123:1 129:1 
-1 2:-31 3:-3 4:-0.333333 5:-0.272727 17:1 34:1 57:1 69:1 80:1 89:1 94:1 101:1 109:1 123:1 129:1 
-1 2:-22 3:-2 4:-0.236559 5:-0.181818 17:1 18:1 34:1 57:1 59:1 80:1 94:1 109:1 123:1 129:1 
-1 1:1 2:-19 3:-1 4:-0.204301 5:-0.090909 7:1 17:1 34:1 40:1 57:1 80:1 92:1 94:1 123:1 129:1 
-0.7539607664914878 2:7 3:2 4:0.075269 5:0.181818 17:1 34:1 51:1 57:1 80:1 96:1 123:1 129:1 
-1 2:-80 3:-9 4:-0.860215 5:-0.818182 8:1 17:1 40:1 57:1 80:1 94:1 109:1 111:1 
-1 2:-59 3:-8 4:-0.634409 5:-0.727273 7:1 17:1 40:1 57:1 61:1 63:1 80:1 94:1 101:1 109:1 122:1 
-1 2:-52 3:-7 4:-0.55914 5:-0.636364 17:1 40:1 57:1 69:1 80:1 89:1 94:1 101:1 109:1 
-1 2:-43 3:-6 4:-0.462366 5:-0.545455 17:1 18:1 40:1 57:1 59:1 80:1 94:1 109:1 
-1 2:-40 3:-5 4:-0.430108 5:-0.454545 7:1 17:1 34:1 40:1 57:1 80:1 92:1 94:1 109:1 
-1 2:-17 3:-3 4:-0.182796 5:-0.272727 6:1 14:1 17:1 40:1 51:1 57:1 80:1 106:1 109:1 129:1 
-1 2:-13 3:-2 4:-0.139785 5:-0.181818 17:1 40:1 51:1 57:1 80:1 96:1 109:1 123:1 
-1 1:1 2:-2 3:-1 4:-0.021505 5:-0.090909 17:1 18:1 40:1 62:1 63:1 80:1 109:1 
-1 1:1 2:-6 3:-1 4:-0.12766 5:-0.166667 17:1 51:1 53:1 57:1 63:1 96:1 106:1 124:1 129:1 
-1 2:-21 3:-3 4:-0.446809 5:-0.5 17:1 19:1 40:1 51:1 53:1 57:1 63:1 89:1 99:1 106:1 109:1 124:1 129:1 
-1 2:-15 3:-2 4:-0.319149 5:-0.333333 7:1 17:1 19:1 40:1 51:1 53:1 63:1 89:1 96:1 99:1 109:1 
-1 0:1 2:-35 3:-5 4:-0.744681 5:-0.833333 7:1 9:1 17:1 37:1 57:1 85:1 94:1 96:1 109:1 123:1 129:1 
-1 2:-31 3:-4 4:-0.659574 5:-0.666667 9:1 17:1 51:1 53:1 57:1 63:1 85:1 94:1 96:1 106:1 109:1 124:1 129:1 
-1 2:-25 3:-3 4:-0.531915 5:-0.5 6:1 7:1 9:1 17:1 51:1 53:1 63:1 85:1 94:1 96:1 109:1 
-1 2:-14 3:-2 4:-0.297872 5:-0.333333 9:1 17:1 59:1 85:1 89:1 94:1 96:1 109:1 
-1 0:1 2:-17 3:-4 4:-0.85 5:-0.8 17:1 50:1 57:1 64:1 111:1 129:1 
-1 2:-10 3:-2 4:-0.5 5:-0.4 17:1 50:1 57:1 64:1 111:1 129:1 
-1 1:1 2:-6 3:-1 4:-0.3 5:-0.2 17:1 50:1 111:1 129:1 
-1 0:1 2:-21 3:-5 4:-0.875 5:-0.833333 6:1 17:1 26:1 80:1 111:1 129:1 
-0.7014616294134625 2:-15 3:-4 4:-0.625 5:-0.666667 17:1 19:1 26:1 49:1 80:1 106:1 111:1 129:1 
-1 2:-14 3:-3 4:-0.583333 5:-0.5 17:1 19:1 26:1 49:1 80:1 93:1 111:1 129:1 
-1 1:1 2:-4 3:-1 4:-0.166667 5:-0.166667 17:1 80:1 111:1 129:1 
-1 0:1 2:-22 3:-4 4:-0.814815 5:-0.666667 9:1 17:1 53:1 80:1 94:1 106:1 109:1 124:1 128:1 
-1 2:-16 3:-2 4:-0.592593 5:-0.333333 9:1 17:1 51:1 53:1 80:1 94:1 96:1 106:1 109:1 128:1 
-1 1:1 2:-5 3:-1 4:-0.185185 5:-0.166667 9:1 17:1 63:1 80:1 94:1 109:1 128:1 
-1 2:3 3:1 4:0.111111 5:0.166667 7:1 9:1 17:1 80:1 94:1 128:1 
-1 0:1 2:-25 3:-5 4:-0.925926 5:-0.833333 9:1 53:1 80:1 94:1 106:1 109:1 124:1 128:1 
-1 2:-23 3:-4 4:-0.851852 5:-0.666667 9:1 51:1 53:1 80:1 94:1 109:1 128:1 
-1 2:-19 3:-3 4:-0.703704 5:-0.5 9:1 17:1 51:1 53:1 80:1 94:1 96:1 106:1 109:1 128:1 
-1 2:-8 3:-2 4:-0.296296 5:-0.333333 9:1 17:1 63:1 80:1 94:1 109:1 128:1 
-1 0:1 1:1 2:-6 3:-1 4:-0.375 5:-0.25 17:1 57:1 109:1 
-1 2:6 3:2 4:0.375 5:0.5 17:1 50:1 57:1 109:1 129:1 
-1 0:1 2:-28 3:-6 4:-0.56 5:-0.5 21:1 50:1 57:1 87:1 94:1 109:1 129:1 
-1 2:-25 3:-5 4:-0.5 5:-0.416667 6:1 17:1 21:1 50:1 57:1 63:1 87:1 94:1 109:1 129:1 
-1 2:-8 3:-2 4:-0.16 5:-0.166667 50:1 57:1 87:1 94:1 101:1 109:1 129:1 
-1 1:1 2:-5 3:-1 4:-0.1 5:-0.083333 50:1 57:1 87:1 109:1 129:1 
-1 2:6 3:2 4:0.12 5:0.166667 6:1 7:1 50:1 57:1 60:1 76:1 87:1 109:1 129:1 
-1 0:1 2:-34 3:-8 4:-0.68 5:-0.666667 21:1 50:1 57:1 60:1 76:1 87:1 94:1 109:1 129:1 
-1 2:-31 3:-7 4:-0.62 5:-0.583333 6:1 17:1 21:1 50:1 57:1 60:1 63:1 76:1 87:1 94:1 109:1 129:1 
-1 2:3 3:1 4:0.06 5:0.083333 7:1 50:1 57:1 60:1 76:1 87:1 127:1 129:1 
-1 2:6 3:2 4:0.12 5:0.166667 17:1 50:1 57:1 60:1 76:1 87:1 129:1 
-1 0:1 2:-37 3:-9 4:-0.74 5:-0.75 21:1 57:1 76:1 87:1 94:1 109:1 127:1 129:1 
-0.2600147743711297 2:-6 3:-2 4:-0.12 5:-0.166667 50:1 57:1 76:1 120:1 127:1 129:1 
-1 1:1 2:-3 3:-1 4:-0.06 5:-0.083333 7:1 50:1 57:1 60:1 76:1 87:1 127:1 129:1 
-1 0:1 2:-17 3:-3 4:-0.414634 5:-0.333333 6:1 17:1 54:1 57:1 87:1 88:1 101:1 129:1 
-1 2:-15 3:-2 4:-0.365854 5:-0.222222 6:1 17:1 50:1 54:1 57:1 87:1 101:1 129:1 
-1 1:1 2:-10 3:-1 4:-0.243902 5:-0.111111 17:1 24:1 30:1 50:1 54:1 57:1 87:1 129:1 
-1 2:6 3:2 4:0.146341 5:0.222222 6:1 17:1 54:1 57:1 87:1 129:1 
-1 0:1 2:-33 3:-7 4:-0.804878 5:-0.777778 6:1 17:1 54:1 57:1 88:1 101:1 129:1 
-1 2:-26 3:-5 4:-0.634146 5:-0.555556 17:1 24:1 30:1 50:1 54:1 57:1 129:1 
-1 2:-10 3:-2 4:-0.243902 5:-0.222222 6:1 17:1 54:1 87:1 129:1 
-1 1:1 2:-5 3:-1 4:-0.121951 5:-0.111111 17:1 54:1 129:1 
-1 2:3 3:1 4:0.073171 5:0.111111 17:1 54:1 80:1 127:1 129:1 
-1 0:1 2:-4 3:-2 4:-0.235294 5:-0.4 17:1 57:1 91:1 124:1 127:1 129:1 
-1 1:1 2:-2 3:-1 4:-0.117647 5:-0.2 17:1 57:1 91:1 124:1 127:1 129:1 
-1 0:1 2:-7 3:-2 4:-0.318182 5:-0.666667 13:1 17:1 38:1 57:1 63:1 129:1 
-0.9456979144837427 1:1 2:-6 3:-1 4:-0.3 5:-0.25 17:1 19:1 29:1 30:1 82:1 111:1 127:1 
-0.2657109346204145 2:3 3:1 4:0.15 5:0.25 7:1 17:1 19:1 30:1 47:1 63:1 80:1 127:1 
-1 2:-9 3:-2 4:-0.45 5:-0.5 17:1 19:1 29:1 30:1 47:1 63:1 80:1 82:1 111:1 
-1 1:1 2:-3 3:-1 4:-0.15 5:-0.25 7:1 17:1 19:1 30:1 47:1 63:1 80:1 127:1 
-1 0:1 1:1 2:-5 3:-1 4:-0.384615 5:-0.333333 6:1 17:1 54:1 92:1 129:1 
-1 2:3 3:1 4:0.05 5:0.142857 7:1 17:1 46:1 84:1 94:1 100:1 122:1 129:1 
-1 2:-12 3:-2 4:-0.2 5:-0.285714 7:1 12:1 17:1 46:1 62:1 63:1 76:1 94:1 98:1 100:1 122:1 124:1 129:1 
-0.1995330947003699 1:1 2:-9 3:-1 4:-0.15 5:-0.142857 7:1 12:1 17:1 62:1 63:1 76:1 84:1 98:1 122:1 124:1 129:1 
-1 2:-41 3:-5 4:-0.683333 5:-0.714286 7:1 17:1 46:1 80:1 94:1 100:1 122:1 129:1 
-1 2:-38 3:-4 4:-0.633333 5:-0.571429 7:1 17:1 80:1 84:1 122:1 129:1 
-1 2:-28 3:-3 4:-0.466667 5:-0.428571 7:1 12:1 17:1 62:1 63:1 76:1 80:1 98:1 124:1 129:1 
-1 1:1 2:-3 3:-1 4:-0.05 5:-0.142857 76:1 80:1 100:1 129:1 
-1 2:3 3:1 4:0.085714 5:0.125 7:1 17:1 54:1 88:1 94:1 129:1 
-1 2:6 3:2 4:0.171429 5:0.25 17:1 53:1 54:1 88:1 94:1 129:1 
-1 0:1 2:-7 3:-2 4:-0.2 5:-0.25 6:1 17:1 54:1 94:1 129:1 
-1 1:1 2:-3 3:-1 4:-0.085714 5:-0.125 7:1 17:1 54:1 88:1 94:1 129:1 
-1 0:1 2:-27 3:-6 4:-0.771429 5:-0.75 6:1 17:1 49:1 54:1 56:1 94:1 120:1 122:1 129:1 
-1 2:-17 3:-3 4:-0.485714 5:-0.375 6:1 17:1 49:1 53:1 54:1 56:1 94:1 120:1 122:1 129:1 
-1 2:-12 3:-2 4:-0.342857 5:-0.25 17:1 49:1 50:1 53:1 56:1 88:1 94:1 120:1 122:1 129:1 
-1 2:4 3:1 4:0.114286 5:0.125 6:1 7:1 17:1 49:1 50:1 56:1 94:1 120:1 122:1 129:1 
-1 0:1 2:-31 3:-7 4:-0.885714 5:-0.875 6:1 17:1 49:1 50:1 54:1 94:1 129:1 
-1 2:-21 3:-4 4:-0.6 5:-0.5 17:1 49:1 50:1 53:1 54:1 94:1 129:1 
-1 2:-16 3:-3 4:-0.457143 5:-0.375 17:1 49:1 50:1 53:1 88:1 94:1 129:1 
-1 1:1 2:-4 3:-1 4:-0.114286 5:-0.125 7:1 17:1 49:1 50:1 56:1 94:1 120:1 122:1 129:1 
-1 2:-9 3:-2 4:-0.2 5:-0.25 17:1 50:1 54:1 96:1 108:1 115:1 129:1 
-1 1:1 2:-3 3:-1 4:-0.066667 5:-0.125 17:1 50:1 54:1 115:1 127:1 129:1 
-1 2:5 3:1 4:0.111111 5:0.125 17:1 54:1 98:1 115:1 129:1 
-1 0:1 2:-38 3:-7 4:-0.844444 5:-0.875 6:1 17:1 54:1 56:1 72:1 91:1 96:1 108:1 129:1 
-1 2:-33 3:-6 4:-0.733333 5:-0.75 6:1 17:1 50:1 54:1 56:1 72:1 91:1 96:1 108:1 129:1 
-1 2:-27 3:-5 4:-0.6 5:-0.625 17:1 50:1 54:1 56:1 72:1 91:1 127:1 129:1 
-1 2:-19 3:-3 4:-0.422222 5:-0.375 17:1 56:1 72:1 91:1 98:1 115:1 129:1 
-1 2:-9 3:-2 4:-0.2 5:-0.25 17:1 50:1 56:1 72:1 91:1 101:1 129:1 
-1 1:1 2:-3 3:-1 4:-0.066667 5:-0.125 17:1 50:1 56:1 72:1 91:1 129:1 
-1 0:1 1:1 2:-9 3:-1 4:-0.333333 5:-0.2 6:1 17:1 36:1 37:1 39:1 54:1 79:1 94:1 122:1 129:1 
-1 1:1 2:-3 3:-1 4:-0.111111 5:-0.2 7:1 17:1 33:1 36:1 37:1 39:1 54:1 94:1 122:1 129:1 
-1 2:-15 3:-3 4:-0.555556 5:-0.6 7:1 36:1 37:1 39:1 50:1 54:1 79:1 94:1 122:1 129:1 
-1 2:-11 3:-2 4:-0.407407 5:-0.4 7:1 17:1 33:1 50:1 54:1 79:1 94:1 129:1 
-1 1:1 2:-3 3:-1 4:-0.111111 5:-0.2 27:1 33:1 36:1 50:1 54:1 79:1 97:1 124:1 129:1 
-1 1:1 2:-14 3:-1 4:-0.5 5:-0.333333 17:1 26:1 50:1 74:1 96:1 97:1 
-1 0:1 1:1 2:-2 3:-1 4:-0.111111 5:-0.25 17:1 51:1 57:1 122:1 
-1 0:1 2:-49 3:-3 4:-0.644737 5:-0.5 34:1 63:1 94:1 105:1 109:1 129:1 
-1 2:-26 3:-3 4:-0.342105 5:-0.5 7:1 8:1 17:1 39:1 94:1 109:1 122:1 126:1 129:1 
-1 2:-16 3:-2 4:-0.210526 5:-0.333333 6:1 8:1 17:1 33:1 108:1 109:1 122:1 126:1 129:1 
-1 2:-12 3:-2 4:-0.5 5:-0.4 17:1 41:1 53:1 57:1 94:1 97:1 100:1 111:1 122:1 129:1 
-1 1:1 2:-4 3:-1 4:-0.166667 5:-0.2 17:1 24:1 41:1 57:1 94:1 111:1 122:1 
-0.9824900807661543 1:1 2:-8 3:-1 4:-0.266667 5:-0.142857 17:1 19:1 63:1 76:1 82:1 98:1 111:1 
-1 2:2 3:1 4:0.066667 5:0.142857 17:1 19:1 61:1 63:1 76:1 
-1 2:4 3:2 4:0.133333 5:0.285714 17:1 19:1 61:1 63:1 76:1 
-1 0:1 2:-23 3:-4 4:-0.821429 5:-0.8 13:1 17:1 30:1 49:1 50:1 57:1 62:1 80:1 111:1 129:1 
-1 2:-16 3:-2 4:-0.571429 5:-0.4 13:1 17:1 49:1 57:1 62:1 80:1 111:1 129:1 
-1 1:1 2:-9 3:-1 4:-0.321429 5:-0.2 9:1 13:1 17:1 49:1 62:1 80:1 86:1 101:1 111:1 
-1 0:1 2:-20 3:-3 4:-0.526316 5:-0.375 6:1 17:1 26:1 50:1 54:1 57:1 87:1 129:1 
-1 2:-14 3:-2 4:-0.368421 5:-0.25 6:1 17:1 26:1 30:1 50:1 54:1 57:1 87:1 95:1 129:1 
-0.5842504400154007 1:1 2:-11 3:-1 4:-0.289474 5:-0.125 17:1 30:1 50:1 54:1 57:1 87:1 88:1 95:1 129:1 
-1 2:6 3:2 4:0.157895 5:0.25 50:1 54:1 57:1 87:1 107:1 111:1 129:1 
-1 0:1 2:-30 3:-6 4:-0.789474 5:-0.75 6:1 17:1 26:1 54:1 57:1 65:1 100:1 111:1 129:1 
-1 2:-7 3:-2 4:-0.184211 5:-0.25 6:1 17:1 50:1 57:1 65:1 100:1 111:1 120:1 129:1 
-1 2:3 3:1 4:0.078947 5:0.125 7:1 9:1 17:1 50:1 65:1 100:1 107:1 111:1 129:1 
-1 0:1 2:-33 3:-7 4:-0.868421 5:-0.875 6:1 9:1 17:1 26:1 50:1 54:1 57:1 107:1 111:1 129:1 
-1 2:-10 3:-3 4:-0.263158 5:-0.375 6:1 9:1 17:1 50:1 57:1 107:1 111:1 120:1 129:1 
-1 1:1 2:-3 3:-1 4:-0.078947 5:-0.125 7:1 9:1 17:1 50:1 65:1 100:1 107:1 111:1 129:1 
-1 1:1 2:-7 3:-1 4:-0.175 5:-0.2 7:1 12:1 17:1 24:1 46:1 63:1 73:1 94:1 98:1 100:1 
-1 2:3 3:1 4:0.075 5:0.2 7:1 12:1 17:1 24:1 39:1 73:1 94:1 98:1 100:1 106:1 124:1 
-1 0:1 2:-29 3:-3 4:-0.725 5:-0.6 6:1 17:1 39:1 94:1 98:1 106:1 124:1 
-1 0:1 2:-12 3:-2 4:-0.857143 5:-0.666667 6:1 17:1 80:1 84:1 94:1 103:1 
-1 1:1 2:-7 3:-1 4:-0.212121 5:-0.25 17:1 19:1 50:1 54:1 97:1 100:1 109:1 
-1 2:2 3:1 4:0.060606 5:0.25 7:1 17:1 19:1 50:1 60:1 97:1 100:1 109:1 
-1 1:1 2:-3 3:-1 4:-0.130435 5:-0.333333 17:1 19:1 26:1 28:1 37:1 50:1 100:1 
-1 0:1 2:-14 3:-2 4:-0.466667 5:-0.333333 6:1 12:1 17:1 80:1 94:1 101:1 116:1 129:1 
-1 2:5 3:1 4:0.166667 5:0.166667 7:1 12:1 17:1 37:1 54:1 94:1 106:1 116:1 129:1 
-1 0:1 2:-19 3:-3 4:-0.633333 5:-0.5 6:1 12:1 17:1 37:1 54:1 80:1 94:1 101:1 106:1 116:1 129:1 
-1 2:-13 3:-2 4:-0.433333 5:-0.333333 12:1 17:1 23:1 37:1 54:1 80:1 94:1 101:1 106:1 116:1 129:1 
-1 1:1 2:-5 3:-1 4:-0.166667 5:-0.166667 7:1 12:1 17:1 37:1 54:1 94:1 106:1 116:1 129:1 
-0.7270550449323462 2:9 3:2 4:0.3 5:0.333333 12:1 17:1 37:1 54:1 80:1 98:1 106:1 116:1 129:1 
-1 0:1 2:-22 3:-4 4:-0.733333 5:-0.666667 6:1 17:1 54:1 80:1 94:1 98:1 100:1 101:1 129:1 
-1 1:1 2:-3 3:-1 4:-0.1 5:-0.166667 7:1 12:1 17:1 37:1 54:1 98:1 100:1 106:1 116:1 129:1 
-1 2:5 3:1 4:0.166667 5:0.166667 17:1 54:1 80:1 98:1 100:1 129:1 
-1 0:1 2:-12 3:-3 4:-0.8 5:-0.75 30:1 49:1 50:1 57:1 80:1 94:1 122:1 129:1 
-1 1:1 2:-5 3:-1 4:-0.333333 5:-0.25 49:1 57:1 80:1 94:1 122:1 129:1 
-1 1:1 2:-6 3:-1 4:-0.5 5:-0.333333 17:1 30:1 49:1 57:1 80:1 94:1 122:1 129:1 
-1 1:1 2:-4 3:-1 4:-0.121212 5:-0.142857 13:1 17:1 37:1 38:1 57:1 107:1 111:1 129:1 
-1 2:4 3:1 4:0.121212 5:0.142857 7:1 13:1 17:1 36:1 38:1 50:1 54:1 100:1 107:1 111:1 129:1 
-1 2:-9 3:-2 4:-0.272727 5:-0.285714 13:1 17:1 36:1 37:1 50:1 54:1 57:1 100:1 111:1 129:1 
-1 1:1 2:-4 3:-1 4:-0.121212 5:-0.142857 7:1 13:1 17:1 36:1 38:1 50:1 54:1 100:1 107:1 111:1 129:1 
-1 0:1 2:-19 3:-4 4:-0.575758 5:-0.571429 6:1 9:1 17:1 36:1 38:1 54:1 57:1 101:1 111:1 129:1 
-1 2:-16 3:-3 4:-0.484848 5:-0.428571 9:1 13:1 17:1 36:1 37:1 54:1 57:1 101:1 111:1 129:1 
-1 1:1 2:-7 3:-1 4:-0.212121 5:-0.142857 7:1 9:1 17:1 36:1 50:1 54:1 57:1 100:1 101:1 111:1 129:1 
-1 2:6 3:1 4:0.181818 5:0.142857 9:1 17:1 36:1 57:1 71:1 101:1 129:1 
-1 1:1 2:-3 3:-1 4:-0.085714 5:-0.125 13:1 17:1 46:1 56:1 65:1 94:1 100:1 122:1 
-1 2:5 3:1 4:0.142857 5:0.125 7:1 13:1 17:1 35:1 46:1 50:1 57:1 94:1 122:1 129:1 
-1 0:1 2:-14 3:-3 4:-0.4 5:-0.375 6:1 35:1 46:1 50:1 56:1 57:1 94:1 122:1 129:1 
-1 2:-9 3:-2 4:-0.257143 5:-0.25 13:1 17:1 35:1 46:1 50:1 56:1 57:1 65:1 94:1 100:1 122:1 129:1 
-1 2:3 3:1 4:0.085714 5:0.125 6:1 35:1 46:1 50:1 57:1 94:1 122:1 129:1 
-1 1:1 2:-8 3:-1 4:-0.242424 5:-0.142857 7:1 16:1 17:1 24:1 81:1 94:1 98:1 101:1 109:1 122:1 
-0.195065261497875 2:-16 3:-3 4:-0.484848 5:-0.428571 7:1 16:1 17:1 24:1 81:1 94:1 98:1 101:1 109:1 
-1 2:-25 3:-5 4:-0.480769 5:-0.5 13:1 17:1 57:1 88:1 109:1 129:1 
-0.04139445063084771 2:-19 3:-4 4:-0.365385 5:-0.4 13:1 17:1 57:1 88:1 101:1 109:1 122:1 129:1 
-1 2:-6 3:-2 4:-0.115385 5:-0.2 50:1 57:1 88:1 129:1 
-1 1:1 2:-3 3:-1 4:-0.057692 5:-0.1 50:1 57:1 88:1 129:1 
-1 2:3 3:1 4:0.057692 5:0.1 6:1 17:1 57:1 88:1 129:1 
-0.1716070811081739 2:-17 3:-4 4:-0.326923 5:-0.4 17:1 50:1 57:1 80:1 94:1 129:1 
-1 2:-11 3:-2 4:-0.211538 5:-0.2 6:1 17:1 57:1 80:1 94:1 129:1 
-1 1:1 2:-6 3:-1 4:-0.115385 5:-0.1 6:1 17:1 62:1 80:1 94:1 129:1 
-1 1:1 2:-3 3:-1 4:-0.136364 5:-0.25 17:1 50:1 122:1 129:1 
-1 2:4 3:1 4:0.181818 5:0.25 9:1 17:1 50:1 129:1 
-1 1:1 2:-7 3:-1 4:-0.259259 5:-0.25 7:1 17:1 49:1 53:1 71:1 78:1 129:1 
-1 2:4 3:1 4:0.148148 5:0.25 17:1 53:1 65:1 71:1 72:1 78:1 129:1 
-1 0:1 2:-9 3:-2 4:-0.346154 5:-0.4 17:1 57:1 87:1 98:1 129:1 
-1 1:1 2:-6 3:-1 4:-0.230769 5:-0.2 17:1 57:1 87:1 98:1 129:1 
-1 1:1 2:-3 3:-1 4:-0.031915 5:-0.083333 17:1 94:1 98:1 106:1 107:1 111:1 122:1 129:1 
-1 2:2 3:1 4:0.021277 5:0.083333 7:1 17:1 84:1 98:1 106:1 107:1 111:1 116:1 129:1 
-1 2:-11 3:-3 4:-0.117021 5:-0.25 17:1 84:1 94:1 107:1 111:1 116:1 122:1 129:1 
-1 1:1 2:-6 3:-1 4:-0.06383 5:-0.083333 6:1 7:1 17:1 84:1 94:1 98:1 107:1 111:1 116:1 129:1 
-1 0:1 2:-55 3:-6 4:-0.585106 5:-0.5 6:1 17:1 66:1 67:1 80:1 94:1 109:1 111:1 112:1 129:1 
-1 2:-34 3:-5 4:-0.361702 5:-0.416667 17:1 80:1 94:1 107:1 109:1 111:1 112:1 122:1 129:1 
-1 2:-29 3:-3 4:-0.308511 5:-0.25 6:1 7:1 17:1 80:1 84:1 94:1 98:1 107:1 109:1 111:1 112:1 116:1 129:1 
-1 2:-23 3:-2 4:-0.244681 5:-0.166667 7:1 17:1 80:1 84:1 94:1 109:1 112:1 116:1 129:1 
-1 0:1 2:-72 3:-8 4:-0.765957 5:-0.666667 6:1 12:1 17:1 66:1 67:1 94:1 109:1 111:1 129:1 
-1 2:-51 3:-7 4:-0.542553 5:-0.583333 12:1 17:1 94:1 107:1 109:1 111:1 122:1 129:1 
-1 2:-48 3:-6 4:-0.510638 5:-0.5 7:1 12:1 17:1 94:1 98:1 106:1 109:1 111:1 129:1 
-1 2:-46 3:-5 4:-0.489362 5:-0.416667 7:1 12:1 17:1 84:1 94:1 98:1 107:1 109:1 111:1 116:1 129:1 
-1 2:-40 3:-4 4:-0.425532 5:-0.333333 7:1 12:1 17:1 84:1 94:1 109:1 111:1 116:1 129:1 
-1 2:-19 3:-3 4:-0.202128 5:-0.25 6:1 12:1 17:1 80:1 100:1 111:1 129:1 
-1 1:1 2:-7 3:-1 4:-0.074468 5:-0.083333 12:1 17:1 74:1 111:1 129:1 
-1 2:3 3:1 4:0.031915 5:0.083333 12:1 17:1 83:1 98:1 111:1 129:1 
-1 1:1 2:-2 3:-1 4:-0.033898 5:-0.111111 17:1 63:1 94:1 103:1 106:1 
-1 0:1 2:-26 3:-3 4:-0.440678 5:-0.333333 17:1 57:1 59:1 94:1 109:1 129:1 
-0.9435944984860215 2:-17 3:-2 4:-0.288136 5:-0.222222 17:1 57:1 63:1 94:1 103:1 106:1 129:1 
-1 1:1 2:-15 3:-1 4:-0.254237 5:-0.111111 7:1 17:1 57:1 63:1 94:1 103:1 129:1 
-1 2:-38 3:-5 4:-0.644068 5:-0.555556 6:1 7:1 17:1 41:1 57:1 63:1 68:1 80:1 94:1 100:1 103:1 109:1 116:1 129:1 
-1 2:-9 3:-2 4:-0.152542 5:-0.222222 6:1 17:1 41:1 52:1 59:1 68:1 80:1 100:1 103:1 109:1 116:1 129:1 
-1 1:1 2:-3 3:-1 4:-0.050847 5:-0.111111 6:1 17:1 41:1 59:1 68:1 80:1 100:1 103:1 109:1 116:1 129:1 
-1 2:2 3:1 4:0.033898 5:0.111111 7:1 17:1 41:1 68:1 73:1 80:1 100:1 103:1 116:1 129:1 
-1 2:-40 3:-6 4:-0.677966 5:-0.666667 6:1 7:1 17:1 41:1 57:1 63:1 73:1 80:1 94:1 100:1 103:1 109:1 116:1 129:1 
-1 2:-11 3:-3 4:-0.186441 5:-0.333333 6:1 17:1 41:1 52:1 59:1 73:1 80:1 100:1 109:1 116:1 129:1 
-1 2:-5 3:-2 4:-0.084746 5:-0.222222 6:1 17:1 41:1 59:1 73:1 80:1 100:1 103:1 109:1 116:1 129:1 
-1 0:1 2:-17 3:-2 4:-0.22973 5:-0.166667 6:1 17:1 29:1 41:1 50:1 80:1 82:1 97:1 
-1 2:4 3:1 4:0.054054 5:0.083333 17:1 29:1 80:1 82:1 97:1 
-1 0:1 2:-32 3:-5 4:-0.432432 5:-0.416667 6:1 17:1 29:1 41:1 50:1 
-1 2:-29 3:-4 4:-0.391892 5:-0.333333 6:1 17:1 29:1 41:1 50:1 58:1 
-0.7506249835467334 2:-15 3:-3 4:-0.202703 5:-0.25 7:1 17:1 29:1 80:1 82:1 97:1 
-1 2:-11 3:-2 4:-0.148649 5:-0.166667 17:1 29:1 80:1 97:1 
-1 0:1 2:-37 3:-6 4:-0.5 5:-0.5 17:1 41:1 50:1 83:1 
-1 2:-34 3:-5 4:-0.459459 5:-0.416667 17:1 41:1 50:1 58:1 83:1 
-1 2:-20 3:-4 4:-0.27027 5:-0.333333 7:1 17:1 29:1 80:1 82:1 83:1 97:1 
-1 2:-16 3:-3 4:-0.216216 5:-0.25 17:1 29:1 80:1 83:1 97:1 
-1 1:1 2:-5 3:-1 4:-0.067568 5:-0.083333 7:1 17:1 29:1 83:1 
-1 0:1 2:-71 3:-11 4:-0.959459 5:-0.916667 41:1 50:1 63:1 80:1 95:1 
-1 2:-68 3:-10 4:-0.918919 5:-0.833333 17:1 41:1 50:1 58:1 63:1 80:1 95:1 
-0.07890695087349912 2:-54 3:-9 4:-0.72973 5:-0.75 7:1 17:1 29:1 63:1 80:1 82:1 95:1 97:1 
-1 2:-50 3:-8 4:-0.675676 5:-0.666667 29:1 63:1 80:1 95:1 97:1 
-1 2:-32 3:-5 4:-0.432432 5:-0.416667 7:1 17:1 63:1 80:1 83:1 95:1 
-1 2:-19 3:-3 4:-0.256757 5:-0.25 17:1 29:1 47:1 63:1 80:1 95:1 97:1 
-1 2:-14 3:-2 4:-0.189189 5:-0.166667 17:1 29:1 47:1 63:1 80:1 95:1 97:1 
-1 1:1 2:-5 3:-1 4:-0.067568 5:-0.083333 17:1 47:1 50:1 63:1 80:1 95:1 97:1 
-1 2:-13 3:-3 4:-0.317073 5:-0.3 6:1 13:1 24:1 50:1 54:1 65:1 88:1 91:1 95:1 100:1 101:1 129:1 
-1 2:-11 3:-2 4:-0.268293 5:-0.2 13:1 24:1 50:1 54:1 65:1 87:1 95:1 100:1 101:1 102:1 129:1 
-1 1:1 2:-8 3:-1 4:-0.195122 5:-0.1 13:1 17:1 24:1 50:1 54:1 65:1 88:1 100:1 101:1 102:1 129:1 
-1 2:3 3:1 4:0.073171 5:0.1 7:1 13:1 24:1 36:1 54:1 57:1 65:1 100:1 127:1 129:1 
-1 2:7 3:2 4:0.170732 5:0.2 7:1 13:1 24:1 54:1 56:1 57:1 65:1 100:1 122:1 129:1 
-1 2:-16 3:-4 4:-0.390244 5:-0.4 6:1 13:1 36:1 50:1 54:1 57:1 88:1 91:1 95:1 101:1 127:1 129:1 
-1 2:-11 3:-2 4:-0.268293 5:-0.2 13:1 17:1 24:1 36:1 50:1 54:1 57:1 88:1 101:1 102:1 127:1 129:1 
-1 1:1 2:-3 3:-1 4:-0.073171 5:-0.1 6:1 7:1 13:1 24:1 36:1 54:1 57:1 65:1 100:1 127:1 129:1 
-1 2:3 3:1 4:0.073171 5:0.1 7:1 13:1 36:1 54:1 56:1 57:1 65:1 100:1 122:1 127:1 129:1 
-1 2:6 3:2 4:0.146341 5:0.2 7:1 13:1 17:1 36:1 54:1 57:1 115:1 122:1 127:1 129:1 
-1 0:1 2:-27 3:-7 4:-0.658537 5:-0.7 6:1 50:1 54:1 56:1 57:1 65:1 91:1 100:1 122:1 
-1 2:-20 3:-5 4:-0.487805 5:-0.5 6:1 50:1 54:1 56:1 57:1 65:1 88:1 91:1 95:1 100:1 101:1 122:1 129:1 
-1 2:-18 3:-4 4:-0.439024 5:-0.4 6:1 50:1 54:1 56:1 57:1 65:1 87:1 95:1 100:1 101:1 102:1 122:1 129:1 
-1 2:-7 3:-2 4:-0.170732 5:-0.2 6:1 7:1 13:1 24:1 54:1 56:1 57:1 65:1 100:1 122:1 129:1 
-1 1:1 2:-3 3:-1 4:-0.073171 5:-0.1 7:1 13:1 36:1 54:1 56:1 57:1 65:1 100:1 122:1 127:1 129:1 
-1 0:1 2:-30 3:-8 4:-0.731707 5:-0.8 17:1 36:1 50:1 54:1 57:1 91:1 115:1 122:1 
-0.4316980630877008 1:1 2:-3 3:-1 4:-0.073171 5:-0.1 7:1 17:1 36:1 54:1 56:1 57:1 65:1 100:1 115:1 122:1 
-1 1:1 2:-20 3:-1 4:-0.3125 5:-0.166667 8:1 17:1 61:1 63:1 94:1 101:1 109:1 111:1 122:1 
-1 2:-39 3:-4 4:-0.609375 5:-0.666667 8:1 17:1 34:1 40:1 92:1 94:1 109:1 111:1 
-1 2:-11 3:-2 4:-0.171875 5:-0.333333 17:1 34:1 40:1 69:1 89:1 92:1 94:1 101:1 109:1 
-1 1:1 2:-7 3:-1 4:-0.0875 5:-0.111111 11:1 17:1 19:1 73:1 94:1 107:1 109:1 111:1 113:1 129:1 
-1 2:-51 3:-5 4:-0.6375 5:-0.555556 11:1 17:1 19:1 41:1 57:1 89:1 94:1 107:1 109:1 111:1 113:1 116:1 129:1 
-1 2:-44 3:-4 4:-0.55 5:-0.444444 6:1 7:1 17:1 41:1 57:1 73:1 89:1 94:1 107:1 109:1 113:1 116:1 129:1 
-1 2:-30 3:-3 4:-0.375 5:-0.333333 17:1 22:1 41:1 57:1 89:1 94:1 116:1 129:1 
-1 2:-21 3:-2 4:-0.2625 5:-0.222222 17:1 41:1 57:1 89:1 94:1 99:1 101:1 116:1 129:1 
-1 1:1 2:-14 3:-1 4:-0.175 5:-0.111111 6:1 17:1 41:1 52:1 71:1 85:1 89:1 94:1 99:1 116:1 129:1 
-1 2:-58 3:-6 4:-0.725 5:-0.666667 11:1 17:1 19:1 41:1 57:1 76:1 89:1 94:1 107:1 109:1 111:1 113:1 129:1 
-1 2:-51 3:-5 4:-0.6375 5:-0.555556 7:1 17:1 41:1 57:1 73:1 76:1 89:1 94:1 107:1 109:1 113:1 129:1 
-1 2:-37 3:-4 4:-0.4625 5:-0.444444 17:1 22:1 41:1 57:1 76:1 89:1 94:1 129:1 
-1 2:-28 3:-3 4:-0.35 5:-0.333333 17:1 41:1 57:1 76:1 89:1 94:1 99:1 101:1 129:1 
-1 2:-21 3:-2 4:-0.2625 5:-0.222222 17:1 41:1 52:1 71:1 76:1 85:1 89:1 94:1 99:1 129:1 
-1 2:3 3:1 4:0.0375 5:0.111111 17:1 41:1 76:1 80:1 89:1 129:1 
-1 0:1 1:1 2:-11 3:-1 4:-0.5 5:-0.2 17:1 100:1 112:1 129:1 
-1 2:6 3:3 4:0.272727 5:0.6 7:1 12:1 17:1 73:1 80:1 100:1 112:1 129:1 
-1 2:-3 3:-2 4:-0.136364 5:-0.4 12:1 17:1 37:1 73:1 80:1 100:1 106:1 112:1 129:1 
-1 1:1 2:-2 3:-1 4:-0.090909 5:-0.2 12:1 17:1 37:1 73:1 80:1 100:1 106:1 112:1 129:1 
-1 0:1 2:-7 3:-2 4:-0.212121 5:-0.2 14:1 17:1 50:1 54:1 94:1 101:1 
-1 1:1 2:-5 3:-1 4:-0.151515 5:-0.1 14:1 17:1 50:1 54:1 94:1 101:1 
-1 0:1 2:-13 3:-4 4:-0.393939 5:-0.4 14:1 17:1 50:1 54:1 57:1 94:1 101:1 103:1 
-1 1:1 2:-3 3:-1 4:-0.090909 5:-0.1 14:1 50:1 54:1 57:1 94:1 103:1 
-1 0:1 2:-19 3:-6 4:-0.575758 5:-0.6 17:1 54:1 57:1 80:1 94:1 101:1 103:1 
-1 2:-17 3:-5 4:-0.515152 5:-0.5 6:1 17:1 54:1 57:1 80:1 94:1 101:1 103:1 
-1 2:-9 3:-3 4:-0.272727 5:-0.3 17:1 50:1 54:1 57:1 80:1 94:1 103:1 
-0.4151796952631033 2:-6 3:-2 4:-0.181818 5:-0.2 7:1 14:1 17:1 50:1 57:1 80:1 103:1 
-1 1:1 2:-4 3:-1 4:-0.121212 5:-0.1 17:1 50:1 57:1 80:1 92:1 103:1 
-1 2:6 3:2 4:0.6 5:0.666667 50:1 57:1 95:1 
-1 0:1 2:-27 3:-4 4:-0.818182 5:-0.666667 6:1 17:1 79:1 80:1 86:1 94:1 111:1 121:1 
-1 2:-24 3:-3 4:-0.727273 5:-0.5 17:1 58:1 79:1 80:1 86:1 94:1 111:1 121:1 
-1 2:-21 3:-2 4:-0.636364 5:-0.333333 17:1 79:1 80:1 86:1 94:1 111:1 121:1 
-1 2:4 3:1 4:0.121212 5:0.166667 6:1 17:1 50:1 79:1 86:1 94:1 111:1 121:1 
-1 2:-27 3:-2 4:-0.317647 5:-0.2 7:1 12:1 13:1 17:1 19:1 53:1 54:1 62:1 63:1 90:1 99:1 111:1 119:1 129:1 
-1 1:1 2:-3 3:-1 4:-0.035294 5:-0.1 12:1 13:1 17:1 19:1 23:1 36:1 53:1 54:1 62:1 83:1 119:1 129:1 
-0.9190531246648663 2:6 3:1 4:0.070588 5:0.1 12:1 13:1 17:1 53:1 54:1 62:1 101:1 119:1 129:1 
-1 2:-40 3:-4 4:-0.470588 5:-0.4 7:1 17:1 19:1 54:1 63:1 90:1 99:1 101:1 111:1 129:1 
-1 2:-16 3:-3 4:-0.188235 5:-0.3 13:1 17:1 19:1 23:1 36:1 53:1 54:1 83:1 101:1 111:1 129:1 
-1 2:-12 3:-2 4:-0.141176 5:-0.2 7:1 12:1 13:1 17:1 53:1 54:1 62:1 101:1 111:1 119:1 129:1 
-1 1:1 2:-6 3:-1 4:-0.070588 5:-0.1 12:1 13:1 17:1 54:1 62:1 101:1 111:1 129:1 
-0.01154511635428273 2:5 3:1 4:0.058824 5:0.1 17:1 54:1 101:1 111:1 129:1 
-1 2:-57 3:-6 4:-0.670588 5:-0.6 7:1 17:1 19:1 54:1 63:1 90:1 99:1 101:1 111:1 122:1 
-1 2:-33 3:-5 4:-0.388235 5:-0.5 13:1 19:1 23:1 36:1 53:1 54:1 83:1 101:1 111:1 122:1 129:1 
-1 2:-29 3:-4 4:-0.341176 5:-0.4 7:1 12:1 13:1 17:1 53:1 54:1 62:1 101:1 111:1 119:1 122:1 129:1 
-1 2:-23 3:-3 4:-0.270588 5:-0.3 12:1 13:1 17:1 54:1 62:1 101:1 111:1 122:1 
-1 2:-16 3:-2 4:-0.188235 5:-0.2 6:1 7:1 17:1 54:1 101:1 111:1 122:1 129:1 
-1 1:1 2:-11 3:-1 4:-0.129412 5:-0.1 17:1 101:1 111:1 122:1 129:1 
-1 1:1 2:-2 3:-1 4:-0.033898 5:-0.125 17:1 19:1 37:1 54:1 84:1 98:1 100:1 106:1 112:1 129:1 
-1 2:-11 3:-2 4:-0.323529 5:-0.333333 30:1 49:1 50:1 57:1 96:1 108:1 109:1 120:1 122:1 129:1 
-0.8179365930999932 1:1 2:-8 3:-1 4:-0.235294 5:-0.166667 17:1 30:1 49:1 50:1 57:1 88:1 109:1 120:1 122:1 129:1 
-1 2:3 3:1 4:0.088235 5:0.166667 7:1 17:1 49:1 57:1 87:1 107:1 109:1 120:1 122:1 129:1 
-1 2:6 3:2 4:0.176471 5:0.333333 6:1 17:1 49:1 57:1 109:1 115:1 120:1 122:1 129:1 
-1 2:-14 3:-3 4:-0.411765 5:-0.5 6:1 17:1 30:1 50:1 57:1 87:1 96:1 107:1 108:1 109:1 129:1 
-1 2:3 3:1 4:0.088235 5:0.166667 6:1 17:1 57:1 87:1 107:1 109:1 115:1 120:1 129:1 
-1 0:1 1:1 2:-4 3:-1 4:-0.210526 5:-0.2 6:1 30:1 50:1 54:1 60:1 101:1 118:1 122:1 129:1 
-1 2:3 3:1 4:0.157895 5:0.2 30:1 36:1 50:1 54:1 57:1 60:1 101:1 118:1 122:1 129:1 
-1 2:6 3:2 4:0.315789 5:0.4 7:1 30:1 50:1 54:1 57:1 78:1 101:1 118:1 122:1 129:1 
-1 0:1 2:-10 3:-3 4:-0.526316 5:-0.6 30:1 50:1 54:1 57:1 60:1 78:1 122:1 129:1 
-1 1:1 2:-3 3:-1 4:-0.157895 5:-0.2 36:1 54:1 57:1 60:1 78:1 101:1 122:1 129:1 
-1 0:1 2:-21 3:-4 4:-0.567568 5:-0.5 17:1 28:1 57:1 69:1 94:1 116:1 129:1 
-1 2:-12 3:-3 4:-0.324324 5:-0.375 17:1 57:1 94:1 101:1 116:1 129:1 
-1 2:-8 3:-2 4:-0.216216 5:-0.25 17:1 57:1 101:1 116:1 121:1 129:1 
-1 1:1 2:-6 3:-1 4:-0.162162 5:-0.125 17:1 57:1 116:1 129:1 
-1 2:6 3:2 4:0.162162 5:0.25 7:1 17:1 57:1 116:1 122:1 129:1 
-1 0:1 2:-27 3:-6 4:-0.72973 5:-0.75 6:1 17:1 28:1 57:1 69:1 94:1 116:1 122:1 129:1 
-1 1:1 2:-3 3:-1 4:-0.081081 5:-0.125 17:1 36:1 57:1 116:1 122:1 129:1 
-1 2:6 3:1 4:0.162162 5:0.125 17:1 50:1 116:1 122:1 129:1 
-1 0:1 2:-20 3:-2 4:-0.526316 5:-0.333333 17:1 27:1 36:1 37:1 39:1 54:1 94:1 122:1 129:1 
-1 1:1 2:-9 3:-1 4:-0.236842 5:-0.166667 6:1 17:1 19:1 36:1 37:1 39:1 50:1 54:1 79:1 94:1 122:1 129:1 
-1 0:1 2:-23 3:-3 4:-0.605263 5:-0.5 6:1 17:1 27:1 33:1 54:1 94:1 129:1 
-1 1:1 2:-3 3:-1 4:-0.078947 5:-0.166667 7:1 17:1 33:1 36:1 37:1 39:1 54:1 94:1 122:1 129:1 
-1 0:1 2:-35 3:-5 4:-0.921053 5:-0.833333 6:1 17:1 27:1 50:1 54:1 79:1 94:1 129:1 
-0.9188760988268363 2:-15 3:-3 4:-0.394737 5:-0.5 7:1 36:1 37:1 39:1 50:1 54:1 79:1 94:1 122:1 129:1 
-1 2:-11 3:-2 4:-0.289474 5:-0.333333 7:1 17:1 33:1 50:1 54:1 79:1 94:1 129:1 
-1 1:1 2:-3 3:-1 4:-0.078947 5:-0.166667 27:1 33:1 36:1 50:1 54:1 79:1 97:1 124:1 129:1 
-0.1189348309024805 2:40 3:1 4:0.470588 5:0.142857 15:1 17:1 19:1 20:1 50:1 54:1 74:1 80:1 94:1 100:1 111:1 122:1 
-0.02846307144825648 2:49 3:3 4:0.576471 5:0.428571 15:1 17:1 19:1 20:1 41:1 50:1 54:1 94:1 97:1 99:1 111:1 129:1 
-0.06621992045723704 2:61 3:4 4:0.717647 5:0.571429 12:1 15:1 17:1 19:1 20:1 45:1 50:1 54:1 79:1 94:1 111:1 122:1 129:1 
-0.01988629772519463 2:66 3:5 4:0.776471 5:0.714286 7:1 12:1 15:1 17:1 19:1 20:1 50:1 54:1 80:1 94:1 111:1 129:1 
-1 2:-42 3:-2 4:-0.494118 5:-0.285714 6:1 7:1 15:1 17:1 19:1 20:1 25:1 41:1 50:1 54:1 74:1 80:1 94:1 111:1 122:1 
-1 1:1 2:-2 3:-1 4:-0.023529 5:-0.142857 17:1 25:1 41:1 54:1 74:1 80:1 100:1 122:1 
-1 0:1 2:-82 3:-6 4:-0.964706 5:-0.857143 12:1 17:1 54:1 66:1 67:1 80:1 94:1 109:1 111:1 129:1 
-1 2:-66 3:-5 4:-0.776471 5:-0.714286 7:1 12:1 15:1 17:1 19:1 20:1 50:1 54:1 80:1 94:1 111:1 129:1 
-1 2:-26 3:-4 4:-0.305882 5:-0.571429 12:1 17:1 54:1 74:1 80:1 100:1 122:1 129:1 
-1 2:-17 3:-2 4:-0.2 5:-0.285714 12:1 17:1 19:1 41:1 54:1 80:1 97:1 99:1 129:1 
-1 1:1 2:-5 3:-1 4:-0.058824 5:-0.142857 12:1 17:1 45:1 54:1 79:1 80:1 122:1 129:1 
-1 0:1 1:1 2:-6 3:-1 4:-0.12 5:-0.142857 17:1 54:1 57:1 110:1 129:1 
-1 2:6 3:2 4:0.12 5:0.285714 17:1 34:1 45:1 54:1 57:1 63:1 129:1 
-0.7592314268627962 2:-20 3:-3 4:-0.4 5:-0.428571 7:1 17:1 54:1 57:1 101:1 111:1 122:1 129:1 
-1 2:-18 3:-2 4:-0.36 5:-0.285714 17:1 45:1 54:1 57:1 101:1 111:1 120:1 122:1 129:1 
-1 1:1 2:-14 3:-1 4:-0.28 5:-0.142857 17:1 34:1 45:1 63:1 101:1 111:1 122:1 
-1 2:-13 3:-2 4:-0.265306 5:-0.285714 6:1 7:1 17:1 28:1 29:1 46:1 63:1 94:1 97:1 
-1 1:1 2:-2 3:-1 4:-0.040816 5:-0.142857 17:1 36:1 46:1 82:1 
-1 2:2 3:1 4:0.040816 5:0.142857 7:1 17:1 23:1 36:1 46:1 
-0.1129761678706245 2:-15 3:-3 4:-0.306122 5:-0.428571 7:1 17:1 23:1 28:1 29:1 36:1 63:1 94:1 97:1 
-0.4128908468784142 2:-4 3:-2 4:-0.081633 5:-0.285714 17:1 23:1 36:1 46:1 82:1 
-1 1:1 2:-2 3:-1 4:-0.040816 5:-0.142857 7:1 17:1 23:1 36:1 46:1 
-1 2:3 3:1 4:0.061224 5:0.142857 7:1 17:1 23:1 36:1 
-1 1:1 2:-3 3:-1 4:-0.061224 5:-0.142857 7:1 17:1 23:1 36:1 
-1 2:-27 3:-5 4:-0.55102 5:-0.714286 7:1 17:1 28:1 29:1 47:1 62:1 63:1 94:1 97:1 
-1 2:-16 3:-4 4:-0.326531 5:-0.571429 17:1 36:1 46:1 47:1 62:1 63:1 82:1 
-1 2:-14 3:-3 4:-0.285714 5:-0.428571 7:1 17:1 46:1 47:1 62:1 63:1 
-1 2:-12 3:-2 4:-0.244898 5:-0.285714 7:1 17:1 23:1 36:1 47:1 62:1 63:1 
-1 1:1 2:-9 3:-1 4:-0.183673 5:-0.142857 7:1 17:1 23:1 47:1 62:1 63:1 
-1 2:-7 3:-2 4:-0.466667 5:-0.5 17:1 19:1 72:1 80:1 
-1 1:1 2:-5 3:-1 4:-0.333333 5:-0.25 17:1 19:1 72:1 80:1 
-1 2:-6 3:-2 4:-0.26087 5:-0.4 17:1 57:1 94:1 96:1 111:1 122:1 129:1 
-1 1:1 2:-3 3:-1 4:-0.130435 5:-0.2 17:1 57:1 96:1 111:1 129:1 
-1 2:-15 3:-2 4:-0.340909 5:-0.222222 17:1 50:1 78:1 79:1 88:1 94:1 111:1 129:1 
-1 1:1 2:-7 3:-1 4:-0.159091 5:-0.111111 17:1 26:1 50:1 129:1 
-1 2:-7 3:-2 4:-0.411765 5:-0.5 13:1 24:1 50:1 57:1 109:1 122:1 129:1 
-1 1:1 2:-3 3:-1 4:-0.176471 5:-0.25 13:1 50:1 57:1 106:1 109:1 129:1 
-1 2:4 3:1 4:0.133333 5:0.2 17:1 50:1 60:1 117:1 129:1 
-1 0:1 2:-20 3:-4 4:-0.666667 5:-0.8 17:1 129:1 
-1 2:-15 3:-3 4:-0.5 5:-0.6 7:1 17:1 50:1 117:1 129:1 
-1 1:1 2:-3 3:-1 4:-0.1 5:-0.2 17:1 37:1 106:1 129:1 
-1 2:-11 3:-3 4:-0.5 5:-0.5 17:1 54:1 86:1 94:1 101:1 122:1 
-1 2:-5 3:-2 4:-0.227273 5:-0.333333 17:1 54:1 86:1 94:1 101:1 
-1 1:1 2:-3 3:-1 4:-0.136364 5:-0.166667 17:1 54:1 86:1 101:1 
-1 2:2 3:1 4:0.090909 5:0.166667 17:1 54:1 80:1 86:1 101:1 
-1 0:1 2:-26 3:-3 4:-0.481481 5:-0.333333 17:1 19:1 50:1 57:1 94:1 
-1 2:-8 3:-2 4:-0.148148 5:-0.222222 50:1 57:1 66:1 67:1 79:1 94:1 105:1 
-1 0:1 2:-45 3:-7 4:-0.833333 5:-0.777778 17:1 19:1 54:1 57:1 94:1 129:1 
-1 2:-27 3:-6 4:-0.5 5:-0.666667 50:1 54:1 57:1 66:1 67:1 79:1 94:1 105:1 129:1 
-1 2:-22 3:-5 4:-0.407407 5:-0.555556 50:1 54:1 57:1 67:1 79:1 94:1 129:1 
-0.2255753165977289 1:1 2:-5 3:-1 4:-0.092593 5:-0.111111 17:1 18:1 31:1 54:1 57:1 129:1 
-0.3836085018605064 1:1 2:-7 3:-1 4:-0.088608 5:-0.125 7:1 11:1 17:1 20:1 31:1 43:1 62:1 63:1 84:1 94:1 117:1 
-1 2:2 3:1 4:0.025316 5:0.125 17:1 45:1 50:1 68:1 70:1 84:1 111:1 122:1 
-1 2:-56 3:-6 4:-0.708861 5:-0.75 7:1 11:1 17:1 20:1 43:1 54:1 63:1 80:1 94:1 98:1 101:1 111:1 117:1 126:1 
-1 2:-49 3:-5 4:-0.620253 5:-0.625 7:1 11:1 17:1 31:1 54:1 62:1 80:1 84:1 94:1 98:1 101:1 111:1 126:1 
-1 2:-31 3:-4 4:-0.392405 5:-0.5 17:1 25:1 52:1 54:1 71:1 80:1 84:1 98:1 99:1 101:1 111:1 122:1 126:1 
-1 2:-27 3:-3 4:-0.341772 5:-0.375 17:1 45:1 54:1 68:1 80:1 84:1 98:1 101:1 111:1 122:1 126:1 
-0.7746445867605381 2:-20 3:-2 4:-0.253165 5:-0.25 7:1 17:1 45:1 50:1 68:1 80:1 84:1 98:1 101:1 111:1 122:1 126:1 
-1 1:1 2:-18 3:-1 4:-0.227848 5:-0.125 17:1 50:1 70:1 80:1 84:1 98:1 101:1 111:1 126:1 
-1 0:1 2:-18 3:-5 4:-0.9 5:-0.833333 17:1 44:1 50:1 
-1 2:-17 3:-4 4:-0.85 5:-0.666667 17:1 50:1 
-0.4128686098588373 2:-7 3:-3 4:-0.35 5:-0.5 17:1 50:1 63:1 126:1 
-1 2:-5 3:-2 4:-0.25 5:-0.333333 17:1 50:1 
-1 0:1 2:-17 3:-5 4:-0.894737 5:-0.833333 17:1 44:1 50:1 84:1 
-1 2:-14 3:-4 4:-0.736842 5:-0.666667 17:1 44:1 50:1 84:1 86:1 
-1 2:-13 3:-3 4:-0.684211 5:-0.5 17:1 50:1 84:1 86:1 
-1 2:-6 3:-2 4:-0.315789 5:-0.333333 17:1 50:1 84:1 
-1 0:1 2:-14 3:-2 4:-0.736842 5:-0.5 17:1 19:1 35:1 50:1 57:1 129:1 
-1 1:1 2:-5 3:-1 4:-0.263158 5:-0.25 17:1 19:1 35:1 50:1 57:1 108:1 129:1 
-1 0:1 2:-24 3:-5 4:-0.470588 5:-0.454545 17:1 24:1 57:1 73:1 81:1 91:1 101:1 116:1 129:1 
-1 2:-22 3:-4 4:-0.431373 5:-0.363636 17:1 24:1 57:1 81:1 91:1 101:1 116:1 129:1 
-1 2:-7 3:-2 4:-0.137255 5:-0.181818 17:1 50:1 57:1 81:1 91:1 101:1 116:1 129:1 
-1 1:1 2:-3 3:-1 4:-0.058824 5:-0.090909 16:1 17:1 50:1 57:1 81:1 91:1 116:1 129:1 
-1 2:3 3:1 4:0.058824 5:0.090909 16:1 17:1 57:1 81:1 91:1 116:1 129:1 
-1 2:6 3:2 4:0.117647 5:0.181818 6:1 17:1 57:1 81:1 91:1 116:1 129:1 
-1 0:1 2:-36 3:-9 4:-0.705882 5:-0.818182 17:1 24:1 57:1 73:1 101:1 118:1 129:1 
-1 1:1 2:-3 3:-1 4:-0.058824 5:-0.090909 17:1 57:1 101:1 118:1 129:1 
-1 0:1 2:-11 3:-2 4:-0.52381 5:-0.5 24:1 50:1 61:1 79:1 82:1 94:1 101:1 109:1 122:1 129:1 
-0.6470922958493965 2:6 3:1 4:0.193548 5:0.142857 31:1 57:1 94:1 122:1 
-1 0:1 2:-22 3:-5 4:-0.709677 5:-0.714286 54:1 57:1 94:1 129:1 
-1 2:-13 3:-3 4:-0.419355 5:-0.428571 31:1 54:1 57:1 122:1 129:1 
-1 1:1 2:-5 3:-1 4:-0.16129 5:-0.142857 17:1 18:1 31:1 54:1 57:1 129:1 
-1 2:-13 3:-2 4:-0.52 5:-0.4 9:1 17:1 40:1 51:1 53:1 94:1 96:1 109:1 
-1 1:1 2:-2 3:-1 4:-0.08 5:-0.2 9:1 17:1 18:1 40:1 63:1 94:1 109:1 
-1 0:1 2:-23 3:-4 4:-0.92 5:-0.8 9:1 17:1 51:1 53:1 80:1 94:1 109:1 
-1 2:-19 3:-3 4:-0.76 5:-0.6 9:1 17:1 51:1 53:1 80:1 94:1 96:1 109:1 
-1 2:-8 3:-2 4:-0.32 5:-0.4 9:1 17:1 18:1 63:1 80:1 94:1 109:1 
-1 2:3 3:1 4:0.057692 5:0.2 8:1 17:1 74:1 94:1 101:1 122:1 
-1 2:3 3:2 4:0.057692 5:0.4 8:1 17:1 74:1 94:1 101:1 122:1 
-1 1:1 2:-4 3:-1 4:-0.076923 5:-0.2 8:1 17:1 74:1 101:1 122:1 
-1 1:1 2:-3 3:-1 4:-0.136364 5:-0.25 17:1 28:1 63:1 111:1 119:1 129:1 
-1 2:3 3:1 4:0.136364 5:0.25 28:1 80:1 111:1 119:1 129:1 
-1 1:1 2:-21 3:-1 4:-0.241379 5:-0.111111 7:1 17:1 43:1 45:1 63:1 84:1 94:1 115:1 117:1 129:1 
-1 2:-40 3:-3 4:-0.45977 5:-0.333333 7:1 15:1 17:1 43:1 94:1 111:1 117:1 129:1 
-1 1:1 2:-7 3:-1 4:-0.08046 5:-0.111111 6:1 15:1 17:1 33:1 90:1 94:1 111:1 129:1 
-1 2:-45 3:-4 4:-0.517241 5:-0.444444 7:1 15:1 17:1 43:1 94:1 111:1 115:1 117:1 129:1 
-1 2:-12 3:-2 4:-0.137931 5:-0.222222 15:1 17:1 33:1 90:1 94:1 111:1 115:1 129:1 
-1 2:-67 3:-7 4:-0.770115 5:-0.777778 7:1 17:1 43:1 54:1 80:1 94:1 111:1 117:1 129:1 
-1 2:-34 3:-5 4:-0.390805 5:-0.555556 17:1 33:1 54:1 80:1 90:1 94:1 111:1 129:1 
-1 2:-21 3:-3 4:-0.241379 5:-0.333333 7:1 15:1 17:1 54:1 80:1 94:1 111:1 115:1 129:1 
-1 2:-9 3:-2 4:-0.103448 5:-0.222222 25:1 54:1 80:1 84:1 90:1 94:1 111:1 122:1 129:1 
-1 1:1 2:-5 3:-1 4:-0.057471 5:-0.111111 54:1 80:1 84:1 111:1 122:1 129:1 
-1 0:1 2:-25 3:-4 4:-0.78125 5:-0.8 50:1 94:1 111:1 
-1 2:-23 3:-3 4:-0.71875 5:-0.6 50:1 94:1 111:1 
-1 2:-20 3:-2 4:-0.625 5:-0.4 17:1 30:1 50:1 94:1 111:1 
